booster[0]:
0:[f981<146.5] yes=1,no=2,missing=1
	1:[f9575<37.5] yes=3,no=4,missing=3
		3:[f28304<129.5] yes=7,no=8,missing=7
			7:[f14423<40.5] yes=15,no=16,missing=15
				15:leaf=-0.017402
				16:leaf=0.151366
			8:[f31009<96.5] yes=17,no=18,missing=17
				17:leaf=0.0178452
				18:leaf=0.1087
		4:[f6727<9.5] yes=9,no=10,missing=10
			9:[f12929<72.5] yes=19,no=20,missing=19
				19:leaf=0.14349
				20:leaf=-0.00165747
			10:[f19388<14.5] yes=21,no=22,missing=22
				21:leaf=0.0135788
				22:leaf=-0.0298418
	2:[f11416<77.5] yes=5,no=6,missing=5
		5:[f27766<50.5] yes=11,no=12,missing=12
			11:[f5431<107.5] yes=23,no=24,missing=23
				23:leaf=0.0192934
				24:leaf=0.132177
			12:[f5668<59.5] yes=25,no=26,missing=26
				25:leaf=-0.0141483
				26:leaf=0.0687958
		6:[f4070<178.5] yes=13,no=14,missing=13
			13:[f15223<40.5] yes=27,no=28,missing=27
				27:leaf=0.0795987
				28:leaf=0.174911
			14:[f8880<27.5] yes=29,no=30,missing=30
				29:leaf=0.10205
				30:leaf=-0.016545
booster[1]:
0:[f94<89] yes=1,no=2,missing=1
	1:leaf=0.198592
	2:[f21136<1.5] yes=3,no=4,missing=4
		3:[f18356<112.5] yes=5,no=6,missing=5
			5:[f2694<35.5] yes=9,no=10,missing=9
				9:leaf=0.0621007
				10:leaf=-0.0318346
			6:[f17329<114.5] yes=11,no=12,missing=11
				11:leaf=0.189235
				12:leaf=0.0281113
		4:[f7331<165.5] yes=7,no=8,missing=7
			7:[f2729<14.5] yes=13,no=14,missing=13
				13:leaf=0.0509377
				14:leaf=-0.0312344
			8:[f8594<241.5] yes=15,no=16,missing=15
				15:leaf=-0.0183189
				16:leaf=0.150286
booster[2]:
0:[f8403<44.5] yes=1,no=2,missing=1
	1:[f3989<320.5] yes=3,no=4,missing=3
		3:[f17909<29.5] yes=7,no=8,missing=7
			7:[f30074<7.5] yes=15,no=16,missing=15
				15:leaf=0.102954
				16:leaf=0.00967995
			8:[f24995<188.5] yes=17,no=18,missing=17
				17:leaf=0.155831
				18:leaf=0.0257525
		4:[f23238<53.5] yes=9,no=10,missing=9
			9:[f30068<25.5] yes=19,no=20,missing=19
				19:leaf=0.125681
				20:leaf=0.0145857
			10:[f25677<9.5] yes=21,no=22,missing=21
				21:leaf=0.154928
				22:leaf=0.047887
	2:[f1736<210.5] yes=5,no=6,missing=5
		5:[f14492<198.5] yes=11,no=12,missing=11
			11:[f6243<200.5] yes=23,no=24,missing=24
				23:leaf=-0.0357415
				24:leaf=-0.000221752
			12:leaf=0.0195102
		6:[f1218<68.5] yes=13,no=14,missing=13
			13:leaf=0.0889447
			14:leaf=-0.00369803
booster[3]:
0:[f31236<55.5] yes=1,no=2,missing=1
	1:[f198<19.5] yes=3,no=4,missing=3
		3:[f14416<19.5] yes=7,no=8,missing=7
			7:leaf=-0.0280804
			8:leaf=0.141502
		4:[f9938<219.5] yes=9,no=10,missing=9
			9:leaf=-0.0363879
			10:[f111<25.5] yes=15,no=16,missing=15
				15:leaf=0.0586312
				16:leaf=-0.0184105
	2:[f20612<25.5] yes=5,no=6,missing=5
		5:[f25677<82.5] yes=11,no=12,missing=11
			11:leaf=0.017258
			12:[f6415<96.5] yes=17,no=18,missing=18
				17:leaf=0.193527
				18:leaf=0.0376822
		6:[f153<205] yes=13,no=14,missing=13
			13:leaf=-0.0217694
			14:leaf=0.0384374
booster[4]:
0:[f12405<180.5] yes=1,no=2,missing=1
	1:[f1764<248.5] yes=3,no=4,missing=3
		3:[f19449<114] yes=7,no=8,missing=8
			7:[f12551<77.5] yes=13,no=14,missing=14
				13:leaf=-0.0334105
				14:leaf=0.05123
			8:[f4002<147.5] yes=15,no=16,missing=15
				15:leaf=-0.0216155
				16:leaf=0.120146
		4:[f23664<87.5] yes=9,no=10,missing=9
			9:[f13407<58.5] yes=17,no=18,missing=17
				17:leaf=0.00473981
				18:leaf=0.166004
			10:[f19381<45.5] yes=19,no=20,missing=19
				19:leaf=0.0973959
				20:leaf=-0.00399291
	2:[f18248<41.5] yes=5,no=6,missing=5
		5:[f8<1477.5] yes=11,no=12,missing=11
			11:leaf=-0.023616
			12:leaf=0.011553
		6:leaf=0.202284
booster[5]:
0:[f6826<131.5] yes=1,no=2,missing=1
	1:[f19426<5.5] yes=3,no=4,missing=3
		3:[f20445<96.5] yes=7,no=8,missing=7
			7:[f31348<22.5] yes=15,no=16,missing=16
				15:leaf=-0.029533
				16:leaf=0.032755
			8:[f32449<98] yes=17,no=18,missing=17
				17:leaf=0.103431
				18:leaf=-0.028656
		4:[f15759<14.5] yes=9,no=10,missing=10
			9:[f30086<47.5] yes=19,no=20,missing=19
				19:leaf=0.0893511
				20:leaf=-0.0130313
			10:[f11270<212.5] yes=21,no=22,missing=21
				21:leaf=-0.0333148
				22:leaf=0.0216371
	2:[f5363<15.5] yes=5,no=6,missing=5
		5:[f3201<38.5] yes=11,no=12,missing=11
			11:leaf=0.104908
			12:leaf=-0.030082
		6:[f8139<81.5] yes=13,no=14,missing=13
			13:leaf=-0.0031022
			14:[f21056<183.5] yes=23,no=24,missing=24
				23:leaf=0.0382517
				24:leaf=0.19129
booster[6]:
0:leaf=-0.0363918
booster[7]:
0:[f981<148.5] yes=1,no=2,missing=1
	1:[f9575<37.5] yes=3,no=4,missing=3
		3:[f28304<129.5] yes=7,no=8,missing=7
			7:[f11765<61.5] yes=15,no=16,missing=15
				15:leaf=0.131103
				16:leaf=-0.0179977
			8:[f11781<282.5] yes=17,no=18,missing=17
				17:leaf=0.0117193
				18:leaf=0.0892903
		4:[f19388<13.5] yes=9,no=10,missing=10
			9:[f9783<54.5] yes=19,no=20,missing=19
				19:leaf=0.000977541
				20:leaf=0.0562216
			10:[f31014<122.5] yes=21,no=22,missing=21
				21:leaf=-0.0298342
				22:leaf=0.104111
	2:[f9506<62.5] yes=5,no=6,missing=5
		5:[f16904<55.5] yes=11,no=12,missing=11
			11:[f17087<23.5] yes=23,no=24,missing=23
				23:leaf=-0.00429635
				24:leaf=0.11551
			12:[f18229<146.5] yes=25,no=26,missing=25
				25:leaf=0.100425
				26:leaf=-0.0101941
		6:[f17574<58.5] yes=13,no=14,missing=13
			13:[f28997<109.5] yes=27,no=28,missing=27
				27:leaf=0.0178374
				28:leaf=0.167186
			14:[f4408<48.5] yes=29,no=30,missing=29
				29:leaf=-0.0205442
				30:leaf=0.0885051
booster[8]:
0:[f94<89] yes=1,no=2,missing=1
	1:leaf=0.166045
	2:[f21136<1.5] yes=3,no=4,missing=4
		3:[f18356<112.5] yes=5,no=6,missing=5
			5:[f2694<35.5] yes=9,no=10,missing=9
				9:leaf=0.0577722
				10:leaf=-0.0315742
			6:[f10774<141.5] yes=11,no=12,missing=11
				11:leaf=0.153562
				12:leaf=0.000942024
		4:[f7331<165.5] yes=7,no=8,missing=7
			7:[f2729<14.5] yes=13,no=14,missing=13
				13:leaf=0.0475341
				14:leaf=-0.0309088
			8:[f8594<241.5] yes=15,no=16,missing=15
				15:leaf=-0.01822
				16:leaf=0.133231
booster[9]:
0:[f8403<44.5] yes=1,no=2,missing=1
	1:[f24613<143.5] yes=3,no=4,missing=3
		3:[f22839<6.5] yes=7,no=8,missing=7
			7:[f25677<7.5] yes=15,no=16,missing=15
				15:leaf=0.0710685
				16:leaf=0.000775342
			8:[f10984<138.5] yes=17,no=18,missing=18
				17:leaf=0.124567
				18:leaf=0.016677
		4:[f30263<67.5] yes=9,no=10,missing=9
			9:[f18376<57.5] yes=19,no=20,missing=19
				19:leaf=0.114591
				20:leaf=0.0184968
			10:[f9506<61.5] yes=21,no=22,missing=21
				21:leaf=0.0874734
				22:leaf=-0.0221221
	2:[f1736<210.5] yes=5,no=6,missing=5
		5:[f14492<198.5] yes=11,no=12,missing=11
			11:[f4972<18.5] yes=23,no=24,missing=23
				23:leaf=-0.000181171
				24:leaf=-0.0354939
			12:leaf=0.0189441
		6:[f30313<59.5] yes=13,no=14,missing=14
			13:leaf=0.0843164
			14:leaf=-0.00387205
booster[10]:
0:[f31236<55.5] yes=1,no=2,missing=1
	1:[f198<19.5] yes=3,no=4,missing=3
		3:[f14416<19.5] yes=7,no=8,missing=7
			7:leaf=-0.0278573
			8:leaf=0.126327
		4:[f9938<219.5] yes=9,no=10,missing=9
			9:leaf=-0.0361673
			10:[f7734<39.5] yes=15,no=16,missing=15
				15:leaf=0.0572183
				16:leaf=-0.0186317
	2:[f20612<25.5] yes=5,no=6,missing=5
		5:[f8074<15.5] yes=11,no=12,missing=11
			11:leaf=0.0101976
			12:[f17123<21.5] yes=17,no=18,missing=17
				17:leaf=0.0218185
				18:leaf=0.160091
		6:[f410<125.5] yes=13,no=14,missing=14
			13:leaf=-0.0218849
			14:leaf=0.0377724
booster[11]:
0:[f6065<215.5] yes=1,no=2,missing=1
	1:[f1764<248.5] yes=3,no=4,missing=3
		3:[f19449<134] yes=7,no=8,missing=8
			7:[f13425<19.5] yes=13,no=14,missing=13
				13:leaf=0.012146
				14:leaf=-0.0341787
			8:[f27835<290.5] yes=15,no=16,missing=15
				15:leaf=-0.0250047
				16:leaf=0.108204
		4:[f29606<93.5] yes=9,no=10,missing=9
			9:[f19807<129.5] yes=17,no=18,missing=17
				17:leaf=0.00851608
				18:leaf=0.159065
			10:[f12419<245.5] yes=19,no=20,missing=19
				19:leaf=-0.00156957
				20:leaf=0.0997667
	2:[f18248<31.5] yes=5,no=6,missing=5
		5:[f1379<29.5] yes=11,no=12,missing=12
			11:leaf=-0.0292521
			12:leaf=0.0170976
		6:leaf=0.171136
booster[12]:
0:[f6826<131.5] yes=1,no=2,missing=1
	1:[f19426<5.5] yes=3,no=4,missing=3
		3:[f20445<96.5] yes=7,no=8,missing=7
			7:[f31348<22.5] yes=15,no=16,missing=16
				15:leaf=-0.0292267
				16:leaf=0.0316424
			8:[f32449<98] yes=17,no=18,missing=17
				17:leaf=0.0934443
				18:leaf=-0.0284312
		4:[f15759<14.5] yes=9,no=10,missing=10
			9:[f30086<47.5] yes=19,no=20,missing=19
				19:leaf=0.0826824
				20:leaf=-0.0127185
			10:[f11270<212.5] yes=21,no=22,missing=21
				21:leaf=-0.0330252
				22:leaf=0.0206353
	2:[f5363<15.5] yes=5,no=6,missing=5
		5:[f3201<38.5] yes=11,no=12,missing=11
			11:leaf=0.0970997
			12:leaf=-0.0298781
		6:[f26913<101.5] yes=13,no=14,missing=13
			13:leaf=0.00598992
			14:[f12106<132.5] yes=23,no=24,missing=23
				23:leaf=0.0285455
				24:leaf=0.163557
booster[13]:
0:leaf=-0.0361701
booster[14]:
0:[f31014<116.5] yes=1,no=2,missing=1
	1:[f9575<37.5] yes=3,no=4,missing=3
		3:[f15587<52.5] yes=7,no=8,missing=7
			7:[f31236<55.5] yes=15,no=16,missing=15
				15:leaf=0.102649
				16:leaf=0.00736171
			8:[f17848<139.5] yes=17,no=18,missing=17
				17:leaf=0.0162241
				18:leaf=0.120242
		4:[f13913<95.5] yes=9,no=10,missing=10
			9:[f19388<13.5] yes=19,no=20,missing=20
				19:leaf=0.0110143
				20:leaf=-0.0298782
			10:[f6075<264.5] yes=21,no=22,missing=21
				21:leaf=0.0996307
				22:leaf=-0.0177406
	2:[f11722<15.5] yes=5,no=6,missing=5
		5:[f7387<165.5] yes=11,no=12,missing=11
			11:[f27223<32.5] yes=23,no=24,missing=23
				23:leaf=0.0573449
				24:leaf=-0.00859152
			12:[f13079<38.5] yes=25,no=26,missing=25
				25:leaf=0.134609
				26:leaf=-0.0071702
		6:[f2153<183.5] yes=13,no=14,missing=13
			13:[f13627<356.5] yes=27,no=28,missing=27
				27:leaf=-0.00309225
				28:leaf=0.143179
			14:[f16279<165.5] yes=29,no=30,missing=29
				29:leaf=0.0954107
				30:leaf=-0.0223584
booster[15]:
0:[f12813<134.5] yes=1,no=2,missing=1
	1:[f15768<27.5] yes=3,no=4,missing=3
		3:[f8664<341] yes=7,no=8,missing=7
			7:leaf=-0.0331751
			8:leaf=0.0763449
		4:[f1033<247.5] yes=9,no=10,missing=9
			9:[f22677<34.5] yes=15,no=16,missing=15
				15:leaf=0.00471142
				16:leaf=0.15073
			10:leaf=-0.0251589
	2:[f5236<103.5] yes=5,no=6,missing=5
		5:[f11510<208.5] yes=11,no=12,missing=11
			11:[f2165<13.5] yes=17,no=18,missing=17
				17:leaf=0.0700071
				18:leaf=-0.0307007
			12:[f10492<75.5] yes=19,no=20,missing=19
				19:leaf=0.121161
				20:leaf=-0.0194464
		6:[f12200<62.5] yes=13,no=14,missing=13
			13:[f9880<38.5] yes=21,no=22,missing=21
				21:leaf=-0.0236679
				22:leaf=0.133865
			14:[f30375<105.5] yes=23,no=24,missing=23
				23:leaf=-0.0135949
				24:leaf=0.100743
booster[16]:
0:[f8403<44.5] yes=1,no=2,missing=1
	1:[f12344<43.5] yes=3,no=4,missing=3
		3:[f6726<36.5] yes=7,no=8,missing=8
			7:[f2043<76.5] yes=15,no=16,missing=15
				15:leaf=0.0559857
				16:leaf=-0.00417707
			8:[f31628<80.5] yes=17,no=18,missing=17
				17:leaf=0.132264
				18:leaf=0.0159924
		4:[f18376<57.5] yes=9,no=10,missing=9
			9:[f53<519.5] yes=19,no=20,missing=19
				19:leaf=0.0936433
				20:leaf=0.00308502
			10:[f27476<288.5] yes=21,no=22,missing=21
				21:leaf=-0.00634252
				22:leaf=0.0773932
	2:[f1736<210.5] yes=5,no=6,missing=5
		5:[f14492<198.5] yes=11,no=12,missing=11
			11:[f6243<200.5] yes=23,no=24,missing=24
				23:leaf=-0.0352595
				24:leaf=0.000300228
			12:leaf=0.0184203
		6:[f7036<44.5] yes=13,no=14,missing=13
			13:leaf=0.0837188
			14:leaf=-0.00411285
booster[17]:
0:[f31236<55.5] yes=1,no=2,missing=1
	1:[f198<19.5] yes=3,no=4,missing=3
		3:[f14416<19.5] yes=7,no=8,missing=7
			7:leaf=-0.0276307
			8:leaf=0.114912
		4:[f9938<219.5] yes=9,no=10,missing=9
			9:leaf=-0.035957
			10:[f180<24.5] yes=13,no=14,missing=13
				13:leaf=0.0612457
				14:leaf=-0.0198467
	2:[f29722<31.5] yes=5,no=6,missing=5
		5:[f8074<15.5] yes=11,no=12,missing=11
			11:leaf=0.00436046
			12:[f1779<3.5] yes=15,no=16,missing=16
				15:leaf=0.0028896
				16:leaf=0.13955
		6:leaf=-0.00826714
booster[18]:
0:[f12113<318.5] yes=1,no=2,missing=1
	1:[f1764<248.5] yes=3,no=4,missing=3
		3:[f19449<122] yes=7,no=8,missing=8
			7:[f32248<160.5] yes=15,no=16,missing=15
				15:leaf=-0.0325973
				16:leaf=0.0872554
			8:[f10023<65.5] yes=17,no=18,missing=17
				17:leaf=-0.0248652
				18:leaf=0.100034
		4:[f27338<127.5] yes=9,no=10,missing=9
			9:[f705<193.5] yes=19,no=20,missing=19
				19:leaf=0.0961065
				20:leaf=0.0024173
			10:[f2662<30.5] yes=21,no=22,missing=22
				21:leaf=-0.011864
				22:leaf=0.0675362
	2:[f18248<16.5] yes=5,no=6,missing=5
		5:[f12333<50.5] yes=11,no=12,missing=11
			11:leaf=-0.0303787
			12:leaf=0.0392726
		6:[f26987<60.5] yes=13,no=14,missing=13
			13:[f17084<89.5] yes=23,no=24,missing=23
				23:leaf=0.00448721
				24:leaf=-0.0248515
			14:[f3048<125] yes=25,no=26,missing=25
				25:leaf=0.153397
				26:leaf=0.0452093
booster[19]:
0:[f6826<131.5] yes=1,no=2,missing=1
	1:[f19426<5.5] yes=3,no=4,missing=3
		3:[f20445<96.5] yes=7,no=8,missing=7
			7:[f31348<22.5] yes=15,no=16,missing=16
				15:leaf=-0.0289505
				16:leaf=0.0307119
			8:[f32449<98] yes=17,no=18,missing=17
				17:leaf=0.0850517
				18:leaf=-0.028227
		4:[f15759<14.5] yes=9,no=10,missing=10
			9:[f3442<13.5] yes=19,no=20,missing=19
				19:leaf=-0.0137009
				20:leaf=0.0652436
			10:[f11270<212.5] yes=21,no=22,missing=21
				21:leaf=-0.0327396
				22:leaf=0.0198555
	2:[f5363<15.5] yes=5,no=6,missing=5
		5:[f3201<38.5] yes=11,no=12,missing=11
			11:leaf=0.0902314
			12:leaf=-0.0297001
		6:[f8139<81.5] yes=13,no=14,missing=13
			13:leaf=-0.00369136
			14:[f15519<94.5] yes=23,no=24,missing=23
				23:leaf=0.140966
				24:leaf=0.0249463
booster[20]:
0:leaf=-0.0359583
booster[21]:
0:[f14666<180.5] yes=1,no=2,missing=1
	1:[f24651<88.5] yes=3,no=4,missing=3
		3:[f12071<41.5] yes=7,no=8,missing=7
			7:leaf=0.112262
			8:[f3148<151.5] yes=15,no=16,missing=15
				15:leaf=-0.0346002
				16:leaf=0.0296306
		4:[f9506<62.5] yes=9,no=10,missing=9
			9:[f19052<45.5] yes=17,no=18,missing=17
				17:leaf=0.0805735
				18:leaf=0.0286239
			10:[f4909<32.5] yes=19,no=20,missing=19
				19:leaf=0.0687685
				20:leaf=0.129751
	2:[f5890<76.5] yes=5,no=6,missing=5
		5:[f31544<98.5] yes=11,no=12,missing=11
			11:[f9783<53.5] yes=21,no=22,missing=21
				21:leaf=0.00184739
				22:leaf=0.055311
			12:[f2143<22.5] yes=23,no=24,missing=23
				23:leaf=0.0598424
				24:leaf=-0.0225539
		6:[f5257<35.5] yes=13,no=14,missing=14
			13:[f16833<20.5] yes=25,no=26,missing=25
				25:leaf=0.1203
				26:leaf=0.0098164
			14:[f28576<117.5] yes=27,no=28,missing=27
				27:leaf=0.0631035
				28:leaf=-0.0254534
booster[22]:
0:[f9458<181.5] yes=1,no=2,missing=1
	1:[f32485<124.5] yes=3,no=4,missing=3
		3:[f17877<35.5] yes=7,no=8,missing=7
			7:leaf=-0.0286693
			8:[f1622<339.5] yes=15,no=16,missing=16
				15:leaf=0.132682
				16:leaf=-0.0225866
		4:[f26186<61.5] yes=9,no=10,missing=10
			9:[f27667<351.5] yes=17,no=18,missing=17
				17:leaf=-0.0343377
				18:leaf=0.0302086
			10:[f28416<68.5] yes=19,no=20,missing=19
				19:leaf=-0.0186058
				20:leaf=0.114301
	2:[f15288<222.5] yes=5,no=6,missing=5
		5:[f30049<11.5] yes=11,no=12,missing=11
			11:[f5236<100.5] yes=21,no=22,missing=21
				21:leaf=-0.0191513
				22:leaf=0.115094
			12:[f30093<89.5] yes=23,no=24,missing=23
				23:leaf=-0.0293974
				24:leaf=0.0612545
		6:[f28458<62.5] yes=13,no=14,missing=13
			13:leaf=0.123967
			14:leaf=-0.0247409
booster[23]:
0:[f8403<44.5] yes=1,no=2,missing=1
	1:[f14855<37.5] yes=3,no=4,missing=3
		3:[f23462<4.5] yes=7,no=8,missing=8
			7:[f21034<220.5] yes=15,no=16,missing=16
				15:leaf=0.0564123
				16:leaf=-0.0187436
			8:[f19386<43.5] yes=17,no=18,missing=18
				17:leaf=-0.0188569
				18:leaf=0.0497805
		4:[f15837<57.5] yes=9,no=10,missing=9
			9:[f4322<57.5] yes=19,no=20,missing=19
				19:leaf=0.0972652
				20:leaf=0.0182644
			10:[f28452<126.5] yes=21,no=22,missing=22
				21:leaf=0.00350386
				22:leaf=0.0568448
	2:[f1736<210.5] yes=5,no=6,missing=5
		5:[f14492<198.5] yes=11,no=12,missing=11
			11:[f6243<200.5] yes=23,no=24,missing=24
				23:leaf=-0.0350327
				24:leaf=0.000423336
			12:leaf=0.0179433
		6:[f7036<44.5] yes=13,no=14,missing=13
			13:leaf=0.0792797
			14:leaf=-0.0042918
booster[24]:
0:[f31236<55.5] yes=1,no=2,missing=1
	1:[f198<19.5] yes=3,no=4,missing=3
		3:[f14416<19.5] yes=7,no=8,missing=7
			7:leaf=-0.0274138
			8:leaf=0.105624
		4:[f9938<219.5] yes=9,no=10,missing=9
			9:leaf=-0.0357557
			10:[f20245<470.5] yes=13,no=14,missing=14
				13:leaf=0.0604615
				14:leaf=-0.0200883
	2:[f23911<44.5] yes=5,no=6,missing=5
		5:[f8074<15.5] yes=11,no=12,missing=11
			11:leaf=0.00410263
			12:[f21674<160.5] yes=15,no=16,missing=16
				15:leaf=0.00774944
				16:leaf=0.123344
		6:leaf=-0.00877316
booster[25]:
0:[f12113<318.5] yes=1,no=2,missing=1
	1:[f1764<248.5] yes=3,no=4,missing=3
		3:[f19449<122] yes=7,no=8,missing=8
			7:[f32248<160.5] yes=15,no=16,missing=15
				15:leaf=-0.0323151
				16:leaf=0.0822313
			8:[f13285<14.5] yes=17,no=18,missing=17
				17:leaf=-0.0185093
				18:leaf=0.0980218
		4:[f28946<160.5] yes=9,no=10,missing=9
			9:[f26051<35.5] yes=19,no=20,missing=19
				19:leaf=0.0163583
				20:leaf=0.131356
			10:[f29606<90.5] yes=21,no=22,missing=21
				21:leaf=0.127514
				22:leaf=-0.0035602
	2:[f18248<14.5] yes=5,no=6,missing=5
		5:[f2291<127] yes=11,no=12,missing=11
			11:leaf=-0.0296547
			12:leaf=0.0176438
		6:[f26987<60.5] yes=13,no=14,missing=13
			13:[f10180<29.5] yes=23,no=24,missing=24
				23:leaf=-0.0258883
				24:leaf=0.0045468
			14:[f4452<99.5] yes=25,no=26,missing=25
				25:leaf=0.135577
				26:leaf=0.0381537
booster[26]:
0:[f6826<131.5] yes=1,no=2,missing=1
	1:[f19426<5.5] yes=3,no=4,missing=3
		3:[f20445<96.5] yes=7,no=8,missing=7
			7:[f31348<22.5] yes=15,no=16,missing=16
				15:leaf=-0.0286727
				16:leaf=0.0297117
			8:[f26877<232.5] yes=17,no=18,missing=17
				17:leaf=0.0933178
				18:leaf=0.00550659
		4:[f15759<14.5] yes=9,no=10,missing=10
			9:[f18562<3.5] yes=19,no=20,missing=19
				19:leaf=-0.0164365
				20:leaf=0.0408598
			10:[f11270<212.5] yes=21,no=22,missing=21
				21:leaf=-0.0324622
				22:leaf=0.0190603
	2:[f11438<44.5] yes=5,no=6,missing=5
		5:[f30903<84.5] yes=11,no=12,missing=11
			11:[f1336<219.5] yes=23,no=24,missing=23
				23:leaf=-0.0203028
				24:leaf=0.101659
			12:leaf=-0.0296608
		6:[f6860<98.5] yes=13,no=14,missing=13
			13:leaf=-0.018215
			14:leaf=0.129433
booster[27]:
0:leaf=-0.0357563
booster[28]:
0:[f14666<180.5] yes=1,no=2,missing=1
	1:[f24651<88.5] yes=3,no=4,missing=3
		3:[f12071<41.5] yes=7,no=8,missing=7
			7:leaf=0.103505
			8:[f3148<151.5] yes=15,no=16,missing=15
				15:leaf=-0.0343441
				16:leaf=0.0283313
		4:[f9506<62.5] yes=9,no=10,missing=9
			9:[f26186<81.5] yes=17,no=18,missing=18
				17:leaf=0.0590752
				18:leaf=-0.0194003
			10:[f31236<55.5] yes=19,no=20,missing=20
				19:leaf=0.0984958
				20:leaf=-0.00694125
	2:[f14462<167.5] yes=5,no=6,missing=5
		5:[f1386<56.5] yes=11,no=12,missing=11
			11:[f24224<62.5] yes=21,no=22,missing=21
				21:leaf=0.00993091
				22:leaf=-0.027572
			12:[f9031<339.5] yes=23,no=24,missing=23
				23:leaf=0.0844165
				24:leaf=-0.00769836
		6:[f21481<51.5] yes=13,no=14,missing=14
			13:[f24528<53.5] yes=25,no=26,missing=25
				25:leaf=0.115464
				26:leaf=0.00623327
			14:[f9907<46.5] yes=27,no=28,missing=27
				27:leaf=0.0597381
				28:leaf=-0.0276527
booster[29]:
0:[f9458<181.5] yes=1,no=2,missing=1
	1:[f14331<220] yes=3,no=4,missing=3
		3:[f2539<49.5] yes=7,no=8,missing=7
			7:leaf=-0.0281474
			8:[f23896<85.5] yes=15,no=16,missing=15
				15:leaf=0.114031
				16:leaf=-0.0133054
		4:[f4346<33.5] yes=9,no=10,missing=9
			9:[f18626<159.5] yes=17,no=18,missing=18
				17:leaf=-0.0339755
				18:leaf=0.00585942
			10:leaf=0.0626909
	2:[f15288<222.5] yes=5,no=6,missing=5
		5:[f29480<11.5] yes=11,no=12,missing=11
			11:[f159<106] yes=19,no=20,missing=20
				19:leaf=0.113154
				20:leaf=-0.0198167
			12:[f11510<208.5] yes=21,no=22,missing=21
				21:leaf=-0.0289469
				22:leaf=0.0682115
		6:[f23868<80.5] yes=13,no=14,missing=13
			13:leaf=0.115782
			14:[f27185<132.5] yes=23,no=24,missing=24
				23:leaf=0.00559068
				24:leaf=-0.0230681
booster[30]:
0:[f134<180.5] yes=1,no=2,missing=1
	1:[f15934<335.5] yes=3,no=4,missing=3
		3:[f9598<28.5] yes=7,no=8,missing=7
			7:leaf=0.0651478
			8:[f4050<194.5] yes=15,no=16,missing=15
				15:leaf=-0.0337573
				16:leaf=0.060755
		4:[f21485<31.5] yes=9,no=10,missing=10
			9:[f22752<6.5] yes=17,no=18,missing=18
				17:leaf=0.103278
				18:leaf=0.0104692
			10:[f15836<20.5] yes=19,no=20,missing=20
				19:leaf=-0.031441
				20:leaf=0.039938
	2:[f29354<59.5] yes=5,no=6,missing=5
		5:[f30263<67.5] yes=11,no=12,missing=11
			11:[f19421<40.5] yes=21,no=22,missing=21
				21:leaf=0.0864954
				22:leaf=0.0279435
			12:[f293<165.5] yes=23,no=24,missing=23
				23:leaf=0.0601512
				24:leaf=-0.0265639
		6:[f5030<279.5] yes=13,no=14,missing=13
			13:[f14736<174.5] yes=25,no=26,missing=25
				25:leaf=0.0317417
				26:leaf=-0.0215042
			14:[f21995<91.5] yes=27,no=28,missing=27
				27:leaf=0.0207967
				28:leaf=0.137972
booster[31]:
0:[f31236<55.5] yes=1,no=2,missing=1
	1:[f26433<12.5] yes=3,no=4,missing=3
		3:[f23373<22.5] yes=7,no=8,missing=7
			7:[f5056<27.5] yes=13,no=14,missing=13
				13:leaf=0.0301489
				14:leaf=-0.0281694
			8:[f2838<35.5] yes=15,no=16,missing=15
				15:leaf=0.106316
				16:leaf=0.00381856
		4:[f27104<104.5] yes=9,no=10,missing=9
			9:leaf=-0.0355664
			10:leaf=0.0107614
	2:[f13346<26.5] yes=5,no=6,missing=5
		5:[f8074<15.5] yes=11,no=12,missing=11
			11:leaf=0.00135406
			12:[f11307<15.5] yes=17,no=18,missing=17
				17:leaf=0.11146
				18:leaf=0.00439578
		6:leaf=-0.02161
booster[32]:
0:[f12113<312.5] yes=1,no=2,missing=1
	1:[f1764<248.5] yes=3,no=4,missing=3
		3:[f19449<122] yes=7,no=8,missing=8
			7:[f13425<19.5] yes=15,no=16,missing=15
				15:leaf=0.0145103
				16:leaf=-0.0337771
			8:[f4002<147.5] yes=17,no=18,missing=17
				17:leaf=-0.021466
				18:leaf=0.0894583
		4:[f27338<127.5] yes=9,no=10,missing=9
			9:[f21300<163.5] yes=19,no=20,missing=19
				19:leaf=0.0787548
				20:leaf=-0.0107267
			10:[f2662<30.5] yes=21,no=22,missing=22
				21:leaf=-0.0112158
				22:leaf=0.0590244
	2:[f6016<46.5] yes=5,no=6,missing=5
		5:[f18248<44.5] yes=11,no=12,missing=11
			11:[f17735<61.5] yes=23,no=24,missing=23
				23:leaf=-0.0330758
				24:leaf=0.059626
			12:[f109<154.5] yes=25,no=26,missing=26
				25:leaf=0.112979
				26:leaf=-0.0207417
		6:[f10033<54] yes=13,no=14,missing=13
			13:leaf=0.120938
			14:leaf=-0.00202602
booster[33]:
0:[f6826<131.5] yes=1,no=2,missing=1
	1:[f19426<5.5] yes=3,no=4,missing=3
		3:[f20445<96.5] yes=7,no=8,missing=7
			7:[f31348<22.5] yes=15,no=16,missing=16
				15:leaf=-0.0284107
				16:leaf=0.0286657
			8:[f32449<98] yes=17,no=18,missing=17
				17:leaf=0.0730201
				18:leaf=-0.0282398
		4:[f15759<14.5] yes=9,no=10,missing=10
			9:[f30086<47.5] yes=19,no=20,missing=19
				19:leaf=0.075811
				20:leaf=-0.0118605
			10:[f11270<212.5] yes=21,no=22,missing=21
				21:leaf=-0.0321848
				22:leaf=0.0180902
	2:[f5363<15.5] yes=5,no=6,missing=5
		5:[f3201<38.5] yes=11,no=12,missing=11
			11:[f8497<92.5] yes=23,no=24,missing=23
				23:leaf=0.0254141
				24:leaf=0.0918422
			12:leaf=-0.0294267
		6:[f26541<147.5] yes=13,no=14,missing=13
			13:leaf=0.00312573
			14:[f15519<95.5] yes=25,no=26,missing=25
				25:leaf=0.114684
				26:leaf=0.0120809
booster[34]:
0:leaf=-0.0355635
booster[35]:
0:[f14666<181.5] yes=1,no=2,missing=1
	1:[f19852<88.5] yes=3,no=4,missing=3
		3:[f5705<16.5] yes=7,no=8,missing=7
			7:leaf=0.0771737
			8:[f30281<150.5] yes=15,no=16,missing=15
				15:leaf=-0.027936
				16:leaf=0.0385243
		4:[f7387<165.5] yes=9,no=10,missing=9
			9:[f18475<60.5] yes=17,no=18,missing=18
				17:leaf=0.0413394
				18:leaf=0.084683
			10:[f31116<113.5] yes=19,no=20,missing=19
				19:leaf=-0.000311862
				20:leaf=0.11121
	2:[f14462<167.5] yes=5,no=6,missing=5
		5:[f19515<76.5] yes=11,no=12,missing=11
			11:[f11583<87.5] yes=21,no=22,missing=21
				21:leaf=0.0100719
				22:leaf=-0.0273741
			12:[f9031<339.5] yes=23,no=24,missing=23
				23:leaf=0.0894222
				24:leaf=-0.00671403
		6:[f21481<52.5] yes=13,no=14,missing=14
			13:[f24528<53.5] yes=25,no=26,missing=25
				25:leaf=0.102604
				26:leaf=0.00317553
			14:[f31996<136.5] yes=27,no=28,missing=27
				27:leaf=-0.0324082
				28:leaf=0.0420022
booster[36]:
0:[f9458<181.5] yes=1,no=2,missing=1
	1:[f14331<220] yes=3,no=4,missing=3
		3:[f30493<22.5] yes=7,no=8,missing=7
			7:[f3736<194.5] yes=15,no=16,missing=15
				15:leaf=-0.0286925
				16:leaf=0.0290156
			8:[f26072<76.5] yes=17,no=18,missing=17
				17:leaf=0.102247
				18:leaf=-0.0222255
		4:[f20235<26.5] yes=9,no=10,missing=9
			9:leaf=-0.0337811
			10:[f625<8.5] yes=19,no=20,missing=20
				19:leaf=-0.0196053
				20:leaf=0.0932515
	2:[f15288<222.5] yes=5,no=6,missing=5
		5:[f30049<14.5] yes=11,no=12,missing=11
			11:[f23462<5.5] yes=21,no=22,missing=21
				21:leaf=-0.0210851
				22:leaf=0.0882486
			12:[f30093<89.5] yes=23,no=24,missing=23
				23:leaf=-0.0307128
				24:leaf=0.0456412
		6:[f28458<62.5] yes=13,no=14,missing=13
			13:[f17467<142.5] yes=25,no=26,missing=25
				25:leaf=0.026466
				26:leaf=0.107806
			14:leaf=-0.0245416
booster[37]:
0:[f8403<44.5] yes=1,no=2,missing=1
	1:[f14855<37.5] yes=3,no=4,missing=3
		3:[f23462<4.5] yes=7,no=8,missing=8
			7:[f8612<185.5] yes=15,no=16,missing=15
				15:leaf=0.024189
				16:leaf=0.087977
			8:[f19386<43.5] yes=17,no=18,missing=18
				17:leaf=-0.0188445
				18:leaf=0.0433636
		4:[f2862<60.5] yes=9,no=10,missing=9
			9:[f22743<12.5] yes=19,no=20,missing=19
				19:leaf=-0.000628171
				20:leaf=0.0823675
			10:[f16768<118.5] yes=21,no=22,missing=21
				21:leaf=0.0222774
				22:leaf=0.110402
	2:[f1736<210.5] yes=5,no=6,missing=5
		5:[f14492<198.5] yes=11,no=12,missing=11
			11:[f6243<200.5] yes=23,no=24,missing=24
				23:leaf=-0.0346453
				24:leaf=-0.000180528
			12:leaf=0.0176873
		6:[f13275<352.5] yes=13,no=14,missing=14
			13:leaf=0.0766537
			14:leaf=-0.00222164
booster[38]:
0:[f31236<53.5] yes=1,no=2,missing=1
	1:[f11409<9.5] yes=3,no=4,missing=3
		3:leaf=0.0483268
		4:[f9221<192] yes=7,no=8,missing=7
			7:leaf=-0.035381
			8:leaf=0.0129675
	2:[f12146<15.5] yes=5,no=6,missing=5
		5:[f4439<40.5] yes=9,no=10,missing=9
			9:leaf=-0.0285195
			10:leaf=0.036439
		6:[f25115<14.5] yes=11,no=12,missing=11
			11:[f4494<30.5] yes=13,no=14,missing=13
				13:leaf=0.024528
				14:leaf=0.100005
			12:[f21120<35.5] yes=15,no=16,missing=16
				15:leaf=-0.0237318
				16:leaf=0.0363608
booster[39]:
0:[f12113<312.5] yes=1,no=2,missing=1
	1:[f1764<248.5] yes=3,no=4,missing=3
		3:[f19449<122] yes=7,no=8,missing=8
			7:[f13425<19.5] yes=15,no=16,missing=15
				15:leaf=0.0141592
				16:leaf=-0.0335356
			8:[f27835<290.5] yes=17,no=18,missing=17
				17:leaf=-0.0247219
				18:leaf=0.0822236
		4:[f28946<160.5] yes=9,no=10,missing=9
			9:[f11296<275.5] yes=19,no=20,missing=19
				19:leaf=0.110105
				20:leaf=0.00701824
			10:[f29606<94.5] yes=21,no=22,missing=21
				21:leaf=0.0811757
				22:leaf=-0.00584571
	2:[f6016<46.5] yes=5,no=6,missing=5
		5:[f18248<44.5] yes=11,no=12,missing=11
			11:[f17735<61.5] yes=23,no=24,missing=23
				23:leaf=-0.0328685
				24:leaf=0.0568235
			12:[f109<154.5] yes=25,no=26,missing=26
				25:leaf=0.10465
				26:leaf=-0.0205427
		6:[f22926<105] yes=13,no=14,missing=13
			13:leaf=0.109075
			14:leaf=-0.00251638
booster[40]:
0:[f6826<131.5] yes=1,no=2,missing=1
	1:[f19426<5.5] yes=3,no=4,missing=3
		3:[f20445<96.5] yes=7,no=8,missing=7
			7:[f31348<22.5] yes=15,no=16,missing=16
				15:leaf=-0.0281262
				16:leaf=0.027893
			8:[f21470<167.5] yes=17,no=18,missing=18
				17:leaf=0.084014
				18:leaf=0.0066076
		4:[f15759<14.5] yes=9,no=10,missing=10
			9:[f3442<13.5] yes=19,no=20,missing=19
				19:leaf=-0.0127984
				20:leaf=0.0596055
			10:[f11270<212.5] yes=21,no=22,missing=21
				21:leaf=-0.0319126
				22:leaf=0.0173052
	2:[f24032<38.5] yes=5,no=6,missing=5
		5:[f10036<39.5] yes=11,no=12,missing=11
			11:[f21824<120.5] yes=23,no=24,missing=23
				23:leaf=0.0714046
				24:leaf=-0.027245
			12:[f16134<151.5] yes=25,no=26,missing=25
				25:leaf=0.019889
				26:leaf=0.107775
		6:[f590<235.5] yes=13,no=14,missing=13
			13:leaf=-0.0255759
			14:leaf=0.0119901
booster[41]:
0:leaf=-0.0353785
booster[42]:
0:[f31014<116.5] yes=1,no=2,missing=1
	1:[f9575<37.5] yes=3,no=4,missing=3
		3:[f21585<6.5] yes=7,no=8,missing=8
			7:[f31679<100.5] yes=15,no=16,missing=15
				15:leaf=0.00882293
				16:leaf=0.087315
			8:[f12171<196.5] yes=17,no=18,missing=17
				17:leaf=0.0795803
				18:leaf=0.0313204
		4:[f19388<14.5] yes=9,no=10,missing=10
			9:[f27429<62.5] yes=19,no=20,missing=19
				19:leaf=-0.00523824
				20:leaf=0.0354427
			10:[f981<160] yes=21,no=22,missing=21
				21:leaf=-0.0306541
				22:leaf=0.0638998
	2:[f16851<26.5] yes=5,no=6,missing=6
		5:[f20029<107.5] yes=11,no=12,missing=11
			11:[f23245<70.5] yes=23,no=24,missing=23
				23:leaf=0.047581
				24:leaf=-0.0250449
			12:[f5543<28.5] yes=25,no=26,missing=26
				25:leaf=0.0190553
				26:leaf=0.0967055
		6:[f14320<318.5] yes=13,no=14,missing=13
			13:[f22643<44.5] yes=27,no=28,missing=27
				27:leaf=0.0557643
				28:leaf=-0.0257505
			14:[f25333<122.5] yes=29,no=30,missing=29
				29:leaf=0.0886136
				30:leaf=-0.00950009
booster[43]:
0:[f9458<181.5] yes=1,no=2,missing=1
	1:[f32485<125.5] yes=3,no=4,missing=3
		3:[f7161<33.5] yes=7,no=8,missing=7
			7:[f9732<61.5] yes=15,no=16,missing=15
				15:leaf=-0.0292791
				16:leaf=0.0292531
			8:[f1622<339.5] yes=17,no=18,missing=18
				17:leaf=0.0971704
				18:leaf=-0.021204
		4:[f1484<127.5] yes=9,no=10,missing=9
			9:[f29959<85.5] yes=19,no=20,missing=19
				19:leaf=-0.0338043
				20:leaf=0.0300285
			10:leaf=0.0566829
	2:[f15288<222.5] yes=5,no=6,missing=5
		5:[f30049<14.5] yes=11,no=12,missing=11
			11:[f23462<5.5] yes=21,no=22,missing=21
				21:leaf=-0.0207105
				22:leaf=0.0808639
			12:[f21237<158.5] yes=23,no=24,missing=23
				23:leaf=-0.0301348
				24:leaf=0.0703434
		6:[f28458<62.5] yes=13,no=14,missing=13
			13:[f12652<124.5] yes=25,no=26,missing=25
				25:leaf=0.0995056
				26:leaf=0.0245335
			14:leaf=-0.0242288
booster[44]:
0:[f8403<44.5] yes=1,no=2,missing=1
	1:[f27622<9.5] yes=3,no=4,missing=3
		3:[f25002<230.5] yes=7,no=8,missing=7
			7:[f3069<54.5] yes=15,no=16,missing=15
				15:leaf=0.0330937
				16:leaf=-0.0145777
			8:[f15391<38.5] yes=17,no=18,missing=18
				17:leaf=0.094219
				18:leaf=0.0138635
		4:[f30263<67.5] yes=9,no=10,missing=9
			9:[f14855<37.5] yes=19,no=20,missing=19
				19:leaf=0.0265195
				20:leaf=0.0713925
			10:[f293<165.5] yes=21,no=22,missing=21
				21:leaf=0.0537347
				22:leaf=-0.0263237
	2:[f1736<202.5] yes=5,no=6,missing=5
		5:[f31885<145.5] yes=11,no=12,missing=11
			11:leaf=-0.0345949
			12:leaf=0.00258316
		6:[f13275<352.5] yes=13,no=14,missing=14
			13:leaf=0.0853267
			14:[f15523<149.5] yes=23,no=24,missing=23
				23:leaf=-0.0248114
				24:leaf=0.0206303
booster[45]:
0:[f31236<53.5] yes=1,no=2,missing=1
	1:[f11409<9.5] yes=3,no=4,missing=3
		3:leaf=0.0464962
		4:[f9221<192] yes=7,no=8,missing=7
			7:leaf=-0.0352064
			8:leaf=0.0126485
	2:[f12146<15.5] yes=5,no=6,missing=5
		5:[f3180<77.5] yes=9,no=10,missing=9
			9:leaf=-0.0283639
			10:leaf=0.0362909
		6:[f3736<15.5] yes=11,no=12,missing=11
			11:[f4494<30.5] yes=13,no=14,missing=13
				13:leaf=0.0268417
				14:leaf=0.089024
			12:leaf=-0.00911981
booster[46]:
0:[f1196<104.5] yes=1,no=2,missing=1
	1:[f27808<74.5] yes=3,no=4,missing=3
		3:[f3161<16.5] yes=7,no=8,missing=7
			7:[f10008<70.5] yes=15,no=16,missing=15
				15:leaf=-0.0116851
				16:leaf=0.0845366
			8:[f6750<295.5] yes=17,no=18,missing=17
				17:leaf=-0.0338379
				18:leaf=0.0369882
		4:[f23462<3.5] yes=9,no=10,missing=10
			9:[f18013<223.5] yes=19,no=20,missing=19
				19:leaf=0.0574064
				20:leaf=-0.0340653
			10:[f15798<42.5] yes=21,no=22,missing=21
				21:leaf=0.108604
				22:leaf=-0.0148622
	2:[f31195<44.5] yes=5,no=6,missing=5
		5:[f2965<88.5] yes=11,no=12,missing=11
			11:[f15522<199.5] yes=23,no=24,missing=23
				23:leaf=-0.0169303
				24:leaf=0.0639111
			12:[f7166<45.5] yes=25,no=26,missing=25
				25:leaf=-0.0159181
				26:leaf=0.0540951
		6:[f24242<167.5] yes=13,no=14,missing=13
			13:[f31065<135.5] yes=27,no=28,missing=27
				27:leaf=-0.0223531
				28:leaf=0.102548
			14:[f16765<108] yes=29,no=30,missing=29
				29:leaf=0.00403554
				30:leaf=-0.0292097
booster[47]:
0:[f6826<131.5] yes=1,no=2,missing=1
	1:[f19426<5.5] yes=3,no=4,missing=3
		3:[f31047<137] yes=7,no=8,missing=7
			7:leaf=-0.0313693
			8:[f18250<20.5] yes=15,no=16,missing=15
				15:leaf=0.0642578
				16:leaf=-0.0102075
		4:[f15759<14.5] yes=9,no=10,missing=10
			9:[f18562<3.5] yes=17,no=18,missing=17
				17:leaf=-0.0155365
				18:leaf=0.0387391
			10:[f23279<17.5] yes=19,no=20,missing=19
				19:leaf=0.0104574
				20:leaf=-0.0317941
	2:[f24032<38.5] yes=5,no=6,missing=5
		5:[f21027<205.5] yes=11,no=12,missing=12
			11:leaf=-0.0141871
			12:[f11514<11.5] yes=21,no=22,missing=21
				21:leaf=-0.00494708
				22:leaf=0.0934915
		6:[f170<130.5] yes=13,no=14,missing=13
			13:leaf=-0.0255512
			14:leaf=0.0119153
booster[48]:
0:leaf=-0.0352025
booster[49]:
0:[f11416<77.5] yes=1,no=2,missing=1
	1:[f2122<55.5] yes=3,no=4,missing=3
		3:[f31236<56.5] yes=7,no=8,missing=8
			7:[f11243<246.5] yes=15,no=16,missing=15
				15:leaf=0.0852226
				16:leaf=0.00160721
			8:[f23232<136.5] yes=17,no=18,missing=17
				17:leaf=-0.0293233
				18:leaf=0.0689979
		4:[f9569<87.5] yes=9,no=10,missing=9
			9:[f12144<87.5] yes=19,no=20,missing=19
				19:leaf=0.0061034
				20:leaf=0.0535695
			10:[f2801<15.5] yes=21,no=22,missing=21
				21:leaf=0.0367108
				22:leaf=-0.014023
	2:[f15023<142.5] yes=5,no=6,missing=5
		5:[f9170<170.5] yes=11,no=12,missing=11
			11:[f11552<21.5] yes=23,no=24,missing=23
				23:leaf=-0.00853387
				24:leaf=0.0722607
			12:[f9608<83.5] yes=25,no=26,missing=25
				25:leaf=-0.0114648
				26:leaf=0.0681884
		6:[f29379<61] yes=13,no=14,missing=13
			13:[f2004<33.5] yes=27,no=28,missing=27
				27:leaf=-0.00828503
				28:leaf=-0.0340834
			14:leaf=0.048161
booster[50]:
0:[f9458<181.5] yes=1,no=2,missing=1
	1:[f14331<220] yes=3,no=4,missing=3
		3:[f2539<49.5] yes=7,no=8,missing=7
			7:leaf=-0.0277723
			8:[f17281<150.5] yes=15,no=16,missing=15
				15:leaf=0.086482
				16:leaf=-0.0248756
		4:[f20235<26.5] yes=9,no=10,missing=9
			9:leaf=-0.0334452
			10:[f625<8.5] yes=17,no=18,missing=18
				17:leaf=-0.0192072
				18:leaf=0.086427
	2:[f15288<222.5] yes=5,no=6,missing=5
		5:[f30049<14.5] yes=11,no=12,missing=11
			11:[f23462<5.5] yes=19,no=20,missing=19
				19:leaf=-0.0203358
				20:leaf=0.0747688
			12:[f12584<237.5] yes=21,no=22,missing=21
				21:leaf=-0.0304416
				22:leaf=0.0273022
		6:[f28458<62.5] yes=13,no=14,missing=13
			13:[f2626<12.5] yes=23,no=24,missing=24
				23:leaf=0.0924333
				24:leaf=0.0226156
			14:leaf=-0.0240289
booster[51]:
0:[f134<180.5] yes=1,no=2,missing=1
	1:[f15934<335.5] yes=3,no=4,missing=3
		3:[f9598<28.5] yes=7,no=8,missing=7
			7:leaf=0.0597277
			8:[f4050<194.5] yes=15,no=16,missing=15
				15:leaf=-0.0332505
				16:leaf=0.0547504
		4:[f21485<31.5] yes=9,no=10,missing=10
			9:[f9696<192.5] yes=17,no=18,missing=17
				17:leaf=-5.34021e-05
				18:leaf=0.0823007
			10:[f6435<8.5] yes=19,no=20,missing=20
				19:leaf=-0.0322042
				20:leaf=0.0582813
	2:[f18376<57.5] yes=5,no=6,missing=5
		5:[f15465<65.5] yes=11,no=12,missing=12
			11:[f19421<40.5] yes=21,no=22,missing=21
				21:leaf=0.0650911
				22:leaf=0.0222455
			12:[f30181<30.5] yes=23,no=24,missing=23
				23:leaf=0.0657203
				24:leaf=-0.0217839
		6:[f20382<257.5] yes=13,no=14,missing=13
			13:[f8899<57.5] yes=25,no=26,missing=26
				25:leaf=0.0307782
				26:leaf=-0.0306901
			14:[f3948<107.5] yes=27,no=28,missing=27
				27:leaf=0.0700333
				28:leaf=-0.00999154
booster[52]:
0:[f31236<53.5] yes=1,no=2,missing=1
	1:[f11409<9.5] yes=3,no=4,missing=3
		3:leaf=0.0445644
		4:[f9221<192] yes=7,no=8,missing=7
			7:leaf=-0.0350374
			8:leaf=0.0121783
	2:[f12146<15.5] yes=5,no=6,missing=5
		5:[f775<24.5] yes=9,no=10,missing=9
			9:leaf=-0.0282487
			10:leaf=0.0360875
		6:[f25115<14.5] yes=11,no=12,missing=11
			11:[f4494<30.5] yes=13,no=14,missing=13
				13:leaf=0.0224166
				14:leaf=0.0848699
			12:[f31236<59.5] yes=15,no=16,missing=16
				15:leaf=-0.0240314
				16:leaf=0.034666
booster[53]:
0:[f11859<266.5] yes=1,no=2,missing=1
	1:[f8927<223.5] yes=3,no=4,missing=3
		3:[f6104<195] yes=7,no=8,missing=7
			7:[f12322<775.5] yes=13,no=14,missing=13
				13:leaf=-0.0343239
				14:leaf=0.0270502
			8:leaf=0.0264585
		4:leaf=0.0381802
	2:[f2984<59.5] yes=5,no=6,missing=5
		5:[f15661<46.5] yes=9,no=10,missing=10
			9:[f22767<6.5] yes=15,no=16,missing=15
				15:leaf=0.00519246
				16:leaf=0.0810117
			10:[f15639<119.5] yes=17,no=18,missing=18
				17:leaf=0.0511844
				18:leaf=-0.0257089
		6:[f14227<170.5] yes=11,no=12,missing=11
			11:[f26289<156.5] yes=19,no=20,missing=20
				19:leaf=-0.0188687
				20:leaf=0.0640608
			12:[f32517<241.5] yes=21,no=22,missing=21
				21:leaf=0.0713935
				22:leaf=-0.0147445
booster[54]:
0:[f12043<89.5] yes=1,no=2,missing=1
	1:[f15759<14.5] yes=3,no=4,missing=4
		3:[f6934<6.5] yes=7,no=8,missing=7
			7:[f10193<95.5] yes=15,no=16,missing=15
				15:leaf=-0.0167888
				16:leaf=0.0375338
			8:[f19558<76.5] yes=17,no=18,missing=18
				17:leaf=0.0944156
				18:leaf=-0.0286097
		4:[f14851<14.5] yes=9,no=10,missing=9
			9:[f21854<163.5] yes=19,no=20,missing=19
				19:leaf=-0.0222612
				20:leaf=0.104962
			10:[f14503<257] yes=21,no=22,missing=21
				21:leaf=-0.0311677
				22:leaf=0.0404422
	2:[f16595<206.5] yes=5,no=6,missing=5
		5:[f21027<206.5] yes=11,no=12,missing=12
			11:[f19911<38.5] yes=23,no=24,missing=24
				23:leaf=-0.00271
				24:leaf=-0.0282707
			12:[f11116<106.5] yes=25,no=26,missing=25
				25:leaf=0.010949
				26:leaf=0.078101
		6:[f20027<104.5] yes=13,no=14,missing=13
			13:leaf=-0.03239
			14:leaf=0.0456375
booster[55]:
0:leaf=-0.0350329
booster[56]:
0:[f31014<116.5] yes=1,no=2,missing=1
	1:[f9575<37.5] yes=3,no=4,missing=3
		3:[f22280<49.5] yes=7,no=8,missing=7
			7:[f22432<252.5] yes=15,no=16,missing=15
				15:leaf=0.062346
				16:leaf=0.0163807
			8:[f4021<231.5] yes=17,no=18,missing=17
				17:leaf=-0.012684
				18:leaf=0.0681434
		4:[f19388<14.5] yes=9,no=10,missing=10
			9:[f26017<43.5] yes=19,no=20,missing=19
				19:leaf=0.0058909
				20:leaf=0.0801566
			10:[f981<160] yes=21,no=22,missing=21
				21:leaf=-0.0302382
				22:leaf=0.0572051
	2:[f2650<49.5] yes=5,no=6,missing=5
		5:[f14971<45.5] yes=11,no=12,missing=11
			11:[f15765<109.5] yes=23,no=24,missing=23
				23:leaf=-0.0329926
				24:leaf=0.0119038
			12:[f1478<57.5] yes=25,no=26,missing=25
				25:leaf=-0.0215132
				26:leaf=0.0748891
		6:[f26948<50.5] yes=13,no=14,missing=13
			13:[f25069<136.5] yes=27,no=28,missing=27
				27:leaf=0.0746582
				28:leaf=-0.0177575
			14:[f32565<396.5] yes=29,no=30,missing=29
				29:leaf=0.0701467
				30:leaf=-0.0213432
booster[57]:
0:[f24618<194.5] yes=1,no=2,missing=1
	1:[f10939<71.5] yes=3,no=4,missing=3
		3:[f26095<33.5] yes=7,no=8,missing=7
			7:leaf=-0.027603
			8:[f13042<96.5] yes=15,no=16,missing=15
				15:leaf=0.0848149
				16:leaf=-0.00914941
		4:[f1007<288] yes=9,no=10,missing=9
			9:leaf=-0.0332536
			10:leaf=0.00617835
	2:[f15288<222.5] yes=5,no=6,missing=5
		5:[f20953<177.5] yes=11,no=12,missing=11
			11:[f30673<125.5] yes=17,no=18,missing=17
				17:leaf=-0.0296421
				18:leaf=0.00734771
			12:[f16901<62.5] yes=19,no=20,missing=19
				19:leaf=-0.0200361
				20:leaf=0.0779785
		6:[f23868<81.5] yes=13,no=14,missing=13
			13:[f14497<205.5] yes=21,no=22,missing=21
				21:leaf=0.0861406
				22:leaf=0.0210319
			14:leaf=-0.0239536
booster[58]:
0:[f19959<52.5] yes=1,no=2,missing=1
	1:[f4020<124.5] yes=3,no=4,missing=3
		3:[f13632<293.5] yes=7,no=8,missing=7
			7:[f6840<65.5] yes=13,no=14,missing=13
				13:leaf=0.0693513
				14:leaf=-0.0138619
			8:[f5560<21.5] yes=15,no=16,missing=16
				15:leaf=0.044185
				16:leaf=-0.0286082
		4:[f25677<9.5] yes=9,no=10,missing=9
			9:[f23238<51.5] yes=17,no=18,missing=17
				17:leaf=0.0218981
				18:leaf=0.0798273
			10:[f5777<333.5] yes=19,no=20,missing=19
				19:leaf=0.00159834
				20:leaf=0.078231
	2:[f29422<223] yes=5,no=6,missing=5
		5:[f18368<13.5] yes=11,no=12,missing=11
			11:leaf=0.0496795
			12:[f544<194] yes=21,no=22,missing=21
				21:leaf=-0.0349997
				22:leaf=-0.00994207
		6:leaf=0.0743862
booster[59]:
0:[f31236<53.5] yes=1,no=2,missing=1
	1:[f11409<9.5] yes=3,no=4,missing=3
		3:leaf=0.0429918
		4:[f10280<156.5] yes=7,no=8,missing=7
			7:leaf=-0.0348754
			8:leaf=0.0119705
	2:[f12146<15.5] yes=5,no=6,missing=5
		5:[f4036<53.5] yes=9,no=10,missing=9
			9:leaf=-0.0280535
			10:leaf=0.0354631
		6:[f13538<12.5] yes=11,no=12,missing=11
			11:[f4157<31.5] yes=13,no=14,missing=13
				13:leaf=0.0757637
				14:leaf=-0.0023534
			12:[f13089<213.5] yes=15,no=16,missing=15
				15:leaf=-0.0257375
				16:leaf=0.0463084
booster[60]:
0:[f11859<266.5] yes=1,no=2,missing=1
	1:[f18992<244.5] yes=3,no=4,missing=3
		3:[f6104<195] yes=7,no=8,missing=7
			7:[f1615<457] yes=15,no=16,missing=15
				15:leaf=-0.034343
				16:leaf=0.0269341
			8:leaf=0.0253198
		4:[f20232<130.5] yes=9,no=10,missing=10
			9:leaf=-0.0151592
			10:leaf=0.0663836
	2:[f4593<184.5] yes=5,no=6,missing=5
		5:[f24898<138.5] yes=11,no=12,missing=11
			11:[f21777<27.5] yes=17,no=18,missing=18
				17:leaf=0.000911143
				18:leaf=0.0478937
			12:[f16035<40.5] yes=19,no=20,missing=19
				19:leaf=-0.00330193
				20:leaf=0.0761572
		6:[f5287<96.5] yes=13,no=14,missing=13
			13:[f1515<119.5] yes=21,no=22,missing=21
				21:leaf=-0.0255187
				22:leaf=0.080456
			14:[f6096<58.5] yes=23,no=24,missing=23
				23:leaf=0.0643645
				24:leaf=-0.0298818
booster[61]:
0:[f12043<89.5] yes=1,no=2,missing=1
	1:[f15759<14.5] yes=3,no=4,missing=4
		3:[f6934<6.5] yes=7,no=8,missing=7
			7:[f10193<95.5] yes=15,no=16,missing=15
				15:leaf=-0.0164249
				16:leaf=0.0356287
			8:[f19558<76.5] yes=17,no=18,missing=18
				17:leaf=0.086809
				18:leaf=-0.0283952
		4:[f14851<14.5] yes=9,no=10,missing=9
			9:[f21854<163.5] yes=19,no=20,missing=19
				19:leaf=-0.0219811
				20:leaf=0.0986673
			10:[f14503<257] yes=21,no=22,missing=21
				21:leaf=-0.0308905
				22:leaf=0.0387024
	2:[f16595<206.5] yes=5,no=6,missing=5
		5:[f21027<206.5] yes=11,no=12,missing=12
			11:[f9442<335.5] yes=23,no=24,missing=24
				23:leaf=-0.0280058
				24:leaf=-0.00270677
			12:[f18266<31.5] yes=25,no=26,missing=26
				25:leaf=0.0122493
				26:leaf=0.0733125
		6:[f20027<104.5] yes=13,no=14,missing=13
			13:leaf=-0.0321567
			14:leaf=0.0438096
booster[62]:
0:leaf=-0.0348694
booster[63]:
0:[f11416<77.5] yes=1,no=2,missing=1
	1:[f32330<58.5] yes=3,no=4,missing=3
		3:[f31270<14.5] yes=7,no=8,missing=7
			7:[f31286<4.5] yes=15,no=16,missing=15
				15:leaf=-0.0215282
				16:leaf=0.0801679
			8:[f5636<4.5] yes=17,no=18,missing=17
				17:leaf=-0.0256992
				18:leaf=0.0428991
		4:[f10916<27.5] yes=9,no=10,missing=9
			9:[f15864<39.5] yes=19,no=20,missing=19
				19:leaf=0.0873377
				20:leaf=-0.0223595
			10:[f22725<47.5] yes=21,no=22,missing=22
				21:leaf=-0.00780921
				22:leaf=0.025247
	2:[f15023<142.5] yes=5,no=6,missing=5
		5:[f1550<98.5] yes=11,no=12,missing=11
			11:[f11552<21.5] yes=23,no=24,missing=23
				23:leaf=-0.00977562
				24:leaf=0.0631138
			12:[f11869<125.5] yes=25,no=26,missing=25
				25:leaf=-0.0147951
				26:leaf=0.0549486
		6:[f29379<61] yes=13,no=14,missing=13
			13:[f14414<186.5] yes=27,no=28,missing=27
				27:leaf=-0.00818851
				28:leaf=-0.033715
			14:leaf=0.0452991
booster[64]:
0:[f9458<182.5] yes=1,no=2,missing=1
	1:[f14331<219.5] yes=3,no=4,missing=3
		3:[f7161<32.5] yes=7,no=8,missing=7
			7:leaf=-0.0279126
			8:[f4476<135.5] yes=15,no=16,missing=15
				15:leaf=0.0760803
				16:leaf=-0.025394
		4:[f20235<26.5] yes=9,no=10,missing=9
			9:leaf=-0.033368
			10:[f625<8.5] yes=17,no=18,missing=18
				17:leaf=-0.0204263
				18:leaf=0.0811085
	2:[f24701<310.5] yes=5,no=6,missing=5
		5:[f11510<208.5] yes=11,no=12,missing=11
			11:[f11687<10.5] yes=19,no=20,missing=19
				19:leaf=0.0404749
				20:leaf=-0.0282633
			12:[f25737<106.5] yes=21,no=22,missing=21
				21:leaf=-0.0221905
				22:leaf=0.0860331
		6:[f2995<129.5] yes=13,no=14,missing=13
			13:[f16969<125.5] yes=23,no=24,missing=23
				23:leaf=0.015276
				24:leaf=0.0882438
			14:leaf=-0.0276746
booster[65]:
0:[f8403<44.5] yes=1,no=2,missing=1
	1:[f14855<37.5] yes=3,no=4,missing=3
		3:[f19421<37.5] yes=7,no=8,missing=7
			7:[f31412<18.5] yes=15,no=16,missing=15
				15:leaf=0.0507225
				16:leaf=-0.00510382
			8:[f19644<39.5] yes=17,no=18,missing=17
				17:leaf=-0.0120125
				18:leaf=0.0692898
		4:[f15837<57.5] yes=9,no=10,missing=9
			9:[f16199<75.5] yes=19,no=20,missing=20
				19:leaf=-0.0328092
				20:leaf=0.0587569
			10:[f12406<424.5] yes=21,no=22,missing=21
				21:leaf=0.00232137
				22:leaf=0.0427295
	2:[f1736<202.5] yes=5,no=6,missing=5
		5:[f31885<145.5] yes=11,no=12,missing=11
			11:leaf=-0.0340831
			12:leaf=0.00259873
		6:[f13275<352.5] yes=13,no=14,missing=14
			13:leaf=0.0754577
			14:[f15523<149.5] yes=23,no=24,missing=23
				23:leaf=-0.0251069
				24:leaf=0.0180032
booster[66]:
0:[f15592<181.5] yes=1,no=2,missing=1
	1:[f30210<7.5] yes=3,no=4,missing=3
		3:leaf=0.0243712
		4:leaf=-0.034727
	2:[f8074<17.5] yes=5,no=6,missing=5
		5:[f25531<11.5] yes=7,no=8,missing=8
			7:[f31900<44.5] yes=11,no=12,missing=11
				11:leaf=0.046944
				12:leaf=-0.0233931
			8:[f24129<17.5] yes=13,no=14,missing=13
				13:leaf=0.0791349
				14:leaf=-0.0117706
		6:[f6829<13.5] yes=9,no=10,missing=9
			9:[f22292<29.5] yes=15,no=16,missing=16
				15:leaf=-0.0106124
				16:leaf=0.0777321
			10:leaf=-0.0159513
booster[67]:
0:[f11859<266.5] yes=1,no=2,missing=1
	1:[f18992<244.5] yes=3,no=4,missing=3
		3:[f6104<195] yes=7,no=8,missing=7
			7:[f12322<775.5] yes=15,no=16,missing=15
				15:leaf=-0.0341592
				16:leaf=0.0262817
			8:leaf=0.024229
		4:[f20232<130.5] yes=9,no=10,missing=10
			9:leaf=-0.0148229
			10:leaf=0.0638961
	2:[f4593<184.5] yes=5,no=6,missing=5
		5:[f24898<138.5] yes=11,no=12,missing=11
			11:[f17960<33.5] yes=17,no=18,missing=17
				17:leaf=0.0847212
				18:leaf=0.00507694
			12:[f16035<40.5] yes=19,no=20,missing=19
				19:leaf=-0.00325058
				20:leaf=0.0705731
		6:[f5287<96.5] yes=13,no=14,missing=13
			13:[f1515<119.5] yes=21,no=22,missing=21
				21:leaf=-0.0251536
				22:leaf=0.0760969
			14:[f6096<58.5] yes=23,no=24,missing=23
				23:leaf=0.0616464
				24:leaf=-0.0295609
booster[68]:
0:[f12043<89.5] yes=1,no=2,missing=1
	1:[f15759<14.5] yes=3,no=4,missing=4
		3:[f6934<6.5] yes=7,no=8,missing=7
			7:[f22787<7.5] yes=15,no=16,missing=16
				15:leaf=0.0140939
				16:leaf=-0.0215181
			8:[f19558<76.5] yes=17,no=18,missing=18
				17:leaf=0.0805542
				18:leaf=-0.0281357
		4:[f14851<14.5] yes=9,no=10,missing=9
			9:[f21854<163.5] yes=19,no=20,missing=19
				19:leaf=-0.0216493
				20:leaf=0.092727
			10:[f14503<257] yes=21,no=22,missing=21
				21:leaf=-0.0306178
				22:leaf=0.0370604
	2:[f16595<206.5] yes=5,no=6,missing=5
		5:[f21027<206.5] yes=11,no=12,missing=12
			11:[f29556<116.5] yes=23,no=24,missing=23
				23:leaf=-0.0277966
				24:leaf=-0.00270581
			12:[f11116<106.5] yes=25,no=26,missing=25
				25:leaf=0.0101586
				26:leaf=0.0680811
		6:[f20027<104.5] yes=13,no=14,missing=13
			13:leaf=-0.0319418
			14:leaf=0.0423391
booster[69]:
0:leaf=-0.0347139
booster[70]:
0:[f11416<77.5] yes=1,no=2,missing=1
	1:[f7965<76.5] yes=3,no=4,missing=3
		3:[f13509<50.5] yes=7,no=8,missing=7
			7:[f12994<366.5] yes=15,no=16,missing=15
				15:leaf=0.00873824
				16:leaf=0.0890958
			8:[f31236<55.5] yes=17,no=18,missing=18
				17:leaf=0.0607932
				18:leaf=0.00646136
		4:[f7600<114.5] yes=9,no=10,missing=9
			9:[f31462<50.5] yes=19,no=20,missing=19
				19:leaf=-0.0153183
				20:leaf=0.0557501
			10:[f5257<35.5] yes=21,no=22,missing=22
				21:leaf=0.0590555
				22:leaf=-0.0255525
	2:[f15023<142.5] yes=5,no=6,missing=5
		5:[f10647<177.5] yes=11,no=12,missing=11
			11:[f21237<146.5] yes=23,no=24,missing=23
				23:leaf=0.0579581
				24:leaf=0.00212777
			12:[f24460<95.5] yes=25,no=26,missing=26
				25:leaf=0.0215356
				26:leaf=-0.0327154
		6:[f29379<61] yes=13,no=14,missing=13
			13:[f10468<54.5] yes=27,no=28,missing=27
				27:leaf=-0.00813676
				28:leaf=-0.0334796
			14:leaf=0.0436467
booster[71]:
0:[f9458<182.5] yes=1,no=2,missing=1
	1:[f32485<125.5] yes=3,no=4,missing=3
		3:[f7161<33.5] yes=7,no=8,missing=7
			7:[f614<164.5] yes=15,no=16,missing=15
				15:leaf=-0.0290672
				16:leaf=0.0280322
			8:[f1622<339.5] yes=17,no=18,missing=18
				17:leaf=0.0742209
				18:leaf=-0.0219398
		4:[f1484<127.5] yes=9,no=10,missing=9
			9:[f15051<370.5] yes=19,no=20,missing=19
				19:leaf=-0.0335143
				20:leaf=0.0296918
			10:leaf=0.0449116
	2:[f32704<182.5] yes=5,no=6,missing=5
		5:[f29477<71.5] yes=11,no=12,missing=11
			11:[f24449<20.5] yes=21,no=22,missing=21
				21:leaf=0.0231696
				22:leaf=-0.0298453
			12:[f17806<423.5] yes=23,no=24,missing=23
				23:leaf=-0.00816861
				24:leaf=0.0898083
		6:[f30376<179.5] yes=13,no=14,missing=13
			13:[f20300<117.5] yes=25,no=26,missing=25
				25:leaf=-0.0310887
				26:leaf=0.0448892
			14:[f29723<217.5] yes=27,no=28,missing=27
				27:leaf=0.0850849
				28:leaf=-0.0231338
booster[72]:
0:[f19959<52.5] yes=1,no=2,missing=1
	1:[f4020<124.5] yes=3,no=4,missing=3
		3:[f13632<293.5] yes=7,no=8,missing=7
			7:[f6841<65.5] yes=13,no=14,missing=13
				13:leaf=0.00720352
				14:leaf=0.0623442
			8:[f5560<21.5] yes=15,no=16,missing=16
				15:leaf=0.0392591
				16:leaf=-0.0283977
		4:[f22839<4.5] yes=9,no=10,missing=10
			9:[f31987<53.5] yes=17,no=18,missing=17
				17:leaf=0.0279569
				18:leaf=-0.0105167
			10:[f12143<87.5] yes=19,no=20,missing=19
				19:leaf=0.0559366
				20:leaf=0.0197145
	2:[f29422<223] yes=5,no=6,missing=5
		5:[f15335<28.5] yes=11,no=12,missing=11
			11:leaf=0.0475842
			12:[f20158<88.5] yes=21,no=22,missing=21
				21:leaf=-0.0347045
				22:leaf=-0.00961762
		6:leaf=0.0693703
booster[73]:
0:[f15592<181.5] yes=1,no=2,missing=1
	1:[f30210<7.5] yes=3,no=4,missing=3
		3:leaf=0.0238441
		4:leaf=-0.0345787
	2:[f9323<25.5] yes=5,no=6,missing=6
		5:[f1894<173.5] yes=7,no=8,missing=7
			7:[f1054<90.5] yes=11,no=12,missing=11
				11:leaf=0.0189774
				12:leaf=0.0739334
			8:[f22521<7.5] yes=13,no=14,missing=14
				13:leaf=-0.0253537
				14:leaf=0.0348994
		6:[f29952<11.5] yes=9,no=10,missing=9
			9:[f22733<4.5] yes=15,no=16,missing=15
				15:leaf=-0.000747727
				16:leaf=0.0703689
			10:leaf=-0.0152018
booster[74]:
0:[f11859<266.5] yes=1,no=2,missing=1
	1:[f18992<244.5] yes=3,no=4,missing=3
		3:[f6104<195] yes=7,no=8,missing=7
			7:[f1615<457] yes=15,no=16,missing=15
				15:leaf=-0.0339771
				16:leaf=0.0259423
			8:leaf=0.0233466
		4:[f20232<130.5] yes=9,no=10,missing=10
			9:leaf=-0.0146484
			10:leaf=0.061343
	2:[f4593<184.5] yes=5,no=6,missing=5
		5:[f24898<131.5] yes=11,no=12,missing=11
			11:[f10267<107.5] yes=17,no=18,missing=17
				17:leaf=-0.0090495
				18:leaf=0.0444193
			12:[f1605<212.5] yes=19,no=20,missing=19
				19:leaf=0.0552085
				20:leaf=-0.0104803
		6:[f5287<96.5] yes=13,no=14,missing=13
			13:[f1515<119.5] yes=21,no=22,missing=21
				21:leaf=-0.0249793
				22:leaf=0.0710575
			14:[f14860<67.5] yes=23,no=24,missing=23
				23:leaf=-0.0292587
				24:leaf=0.0601987
booster[75]:
0:[f12043<89.5] yes=1,no=2,missing=1
	1:[f15759<14.5] yes=3,no=4,missing=4
		3:[f18552<37.5] yes=7,no=8,missing=7
			7:[f6018<73.5] yes=15,no=16,missing=15
				15:leaf=-0.0246512
				16:leaf=0.0609041
			8:[f5874<175.5] yes=17,no=18,missing=17
				17:leaf=0.0739905
				18:leaf=0.00130981
		4:[f14851<14.5] yes=9,no=10,missing=9
			9:[f21854<163.5] yes=19,no=20,missing=19
				19:leaf=-0.0214544
				20:leaf=0.0877137
			10:[f23279<17.5] yes=21,no=22,missing=21
				21:leaf=0.0150765
				22:leaf=-0.0307838
	2:[f9589<34.5] yes=5,no=6,missing=5
		5:[f12658<72.5] yes=11,no=12,missing=11
			11:[f17724<139.5] yes=23,no=24,missing=23
				23:leaf=-0.0057583
				24:leaf=0.0722649
			12:[f15433<138.5] yes=25,no=26,missing=25
				25:leaf=0.0138489
				26:leaf=-0.0326496
		6:[f21771<104.5] yes=13,no=14,missing=14
			13:[f9117<179.5] yes=27,no=28,missing=28
				27:leaf=0.00609551
				28:leaf=0.07747
			14:[f28562<152.5] yes=29,no=30,missing=30
				29:leaf=0.0132554
				30:leaf=-0.0265214
booster[76]:
0:leaf=-0.0345654
booster[77]:
0:[f31014<116.5] yes=1,no=2,missing=1
	1:[f9575<37.5] yes=3,no=4,missing=3
		3:[f22280<49.5] yes=7,no=8,missing=7
			7:[f22432<252.5] yes=15,no=16,missing=15
				15:leaf=0.0521473
				16:leaf=0.0132634
			8:[f4021<231.5] yes=17,no=18,missing=17
				17:leaf=-0.0130285
				18:leaf=0.0598281
		4:[f19388<14.5] yes=9,no=10,missing=10
			9:[f9783<54.5] yes=19,no=20,missing=19
				19:leaf=-0.00367114
				20:leaf=0.032708
			10:[f3047<98.5] yes=21,no=22,missing=21
				21:leaf=-0.0300252
				22:leaf=0.0448086
	2:[f11722<15.5] yes=5,no=6,missing=5
		5:[f32140<110.5] yes=11,no=12,missing=12
			11:[f30942<87.5] yes=23,no=24,missing=23
				23:leaf=-0.0269851
				24:leaf=0.0283416
			12:[f15156<32.5] yes=25,no=26,missing=25
				25:leaf=-0.0014
				26:leaf=0.0510013
		6:[f6592<46.5] yes=13,no=14,missing=13
			13:[f30383<405.5] yes=27,no=28,missing=27
				27:leaf=0.0677748
				28:leaf=-0.0234926
			14:[f27862<90.5] yes=29,no=30,missing=29
				29:leaf=-0.0312869
				30:leaf=-0.000442593
booster[78]:
0:[f9458<182.5] yes=1,no=2,missing=1
	1:[f14331<219.5] yes=3,no=4,missing=3
		3:[f25566<18.5] yes=7,no=8,missing=7
			7:[f18077<60.5] yes=15,no=16,missing=16
				15:leaf=-0.0287893
				16:leaf=0.0268716
			8:[f791<173.5] yes=17,no=18,missing=17
				17:leaf=0.0683271
				18:leaf=-0.0241066
		4:[f20235<26.5] yes=9,no=10,missing=9
			9:leaf=-0.0330766
			10:[f625<8.5] yes=19,no=20,missing=20
				19:leaf=-0.0200461
				20:leaf=0.075336
	2:[f32704<182.5] yes=5,no=6,missing=5
		5:[f29477<71.5] yes=11,no=12,missing=11
			11:[f21136<1.5] yes=21,no=22,missing=22
				21:leaf=0.00912669
				22:leaf=-0.0303367
			12:[f13746<62.5] yes=23,no=24,missing=23
				23:leaf=0.069422
				24:leaf=-0.0211092
		6:[f30376<179.5] yes=13,no=14,missing=13
			13:[f9429<217.5] yes=25,no=26,missing=26
				25:leaf=-0.0309718
				26:leaf=0.0502534
			14:[f29723<217.5] yes=27,no=28,missing=27
				27:leaf=0.0799521
				28:leaf=-0.0229446
booster[79]:
0:[f392<108.5] yes=1,no=2,missing=1
	1:[f2600<27.5] yes=3,no=4,missing=4
		3:[f14112<75.5] yes=7,no=8,missing=7
			7:[f10698<18] yes=15,no=16,missing=16
				15:leaf=-0.00618916
				16:leaf=0.0778854
			8:[f12398<139.5] yes=17,no=18,missing=17
				17:leaf=-0.0202736
				18:leaf=0.038363
		4:[f17229<389.5] yes=9,no=10,missing=9
			9:leaf=-0.0344201
			10:leaf=0.0293813
	2:[f30497<91.5] yes=5,no=6,missing=5
		5:[f17342<267.5] yes=11,no=12,missing=11
			11:[f9784<400.5] yes=19,no=20,missing=19
				19:leaf=0.0504681
				20:leaf=-0.00525444
			12:[f16940<27.5] yes=21,no=22,missing=21
				21:leaf=0.0545261
				22:leaf=-0.0335098
		6:[f17616<165.5] yes=13,no=14,missing=13
			13:[f29380<19.5] yes=23,no=24,missing=23
				23:leaf=0.0259224
				24:leaf=-0.0123919
			14:[f1538<132.5] yes=25,no=26,missing=25
				25:leaf=0.00325145
				26:leaf=0.0816191
booster[80]:
0:[f15592<181.5] yes=1,no=2,missing=1
	1:[f3323<30.5] yes=3,no=4,missing=3
		3:leaf=0.0247567
		4:leaf=-0.0344316
	2:[f8074<17.5] yes=5,no=6,missing=5
		5:[f25531<11.5] yes=7,no=8,missing=8
			7:[f31900<44.5] yes=11,no=12,missing=11
				11:leaf=0.0435123
				12:leaf=-0.0232401
			8:[f24129<17.5] yes=13,no=14,missing=13
				13:leaf=0.0709396
				14:leaf=-0.0124525
		6:[f6829<13.5] yes=9,no=10,missing=9
			9:[f6927<20.5] yes=15,no=16,missing=16
				15:leaf=0.0688984
				16:leaf=-0.011625
			10:leaf=-0.0160238
booster[81]:
0:[f11859<266.5] yes=1,no=2,missing=1
	1:[f18992<243.5] yes=3,no=4,missing=3
		3:[f6104<195] yes=7,no=8,missing=7
			7:[f27390<418.5] yes=15,no=16,missing=15
				15:leaf=-0.0339235
				16:leaf=0.0256294
			8:leaf=0.0225499
		4:[f20232<130.5] yes=9,no=10,missing=10
			9:[f9858<56.5] yes=17,no=18,missing=18
				17:leaf=0.00271414
				18:leaf=-0.0199354
			10:leaf=0.0580306
	2:[f4593<184.5] yes=5,no=6,missing=5
		5:[f24898<138.5] yes=11,no=12,missing=11
			11:[f17960<33.5] yes=19,no=20,missing=19
				19:leaf=0.0763879
				20:leaf=0.00444233
			12:[f18248<7] yes=21,no=22,missing=21
				21:leaf=-0.0233295
				22:leaf=0.0607858
		6:[f19590<10.5] yes=13,no=14,missing=13
			13:[f30838<153.5] yes=23,no=24,missing=23
				23:leaf=-0.0163975
				24:leaf=0.0654164
			14:[f6096<58.5] yes=25,no=26,missing=25
				25:leaf=0.0583747
				26:leaf=-0.0286183
booster[82]:
0:[f12043<89.5] yes=1,no=2,missing=1
	1:[f15759<14.5] yes=3,no=4,missing=4
		3:[f6934<6.5] yes=7,no=8,missing=7
			7:[f10193<95.5] yes=15,no=16,missing=15
				15:leaf=-0.0155686
				16:leaf=0.0335455
			8:[f19558<76.5] yes=17,no=18,missing=18
				17:leaf=0.0739484
				18:leaf=-0.0277618
		4:[f14851<14.5] yes=9,no=10,missing=9
			9:[f21854<163.5] yes=19,no=20,missing=19
				19:leaf=-0.0212467
				20:leaf=0.08304
			10:[f14503<257] yes=21,no=22,missing=21
				21:leaf=-0.0300768
				22:leaf=0.0369203
	2:[f27936<102.5] yes=5,no=6,missing=5
		5:[f31515<46.5] yes=11,no=12,missing=11
			11:[f29099<11.5] yes=23,no=24,missing=24
				23:leaf=-0.0317164
				24:leaf=0.0405556
			12:[f8588<232.5] yes=25,no=26,missing=25
				25:leaf=0.00500148
				26:leaf=0.0635442
		6:[f20909<257.5] yes=13,no=14,missing=14
			13:leaf=-0.0307293
			14:leaf=0.00297029
booster[83]:
0:leaf=-0.0344225
booster[84]:
0:[f30306<49.5] yes=1,no=2,missing=1
	1:[f11416<77.5] yes=3,no=4,missing=3
		3:[f11505<34.5] yes=7,no=8,missing=7
			7:[f23477<47.5] yes=15,no=16,missing=15
				15:leaf=0.00758078
				16:leaf=0.0577548
			8:[f9019<73.5] yes=17,no=18,missing=17
				17:leaf=0.0199259
				18:leaf=-0.0114428
		4:[f26948<50.5] yes=9,no=10,missing=9
			9:[f11731<103.5] yes=19,no=20,missing=19
				19:leaf=-0.0228219
				20:leaf=0.0574427
			10:[f17624<60.5] yes=21,no=22,missing=22
				21:leaf=0.0549176
				22:leaf=-0.0235163
	2:[f29592<140.5] yes=5,no=6,missing=5
		5:[f25163<39.5] yes=11,no=12,missing=11
			11:[f27675<273.5] yes=23,no=24,missing=23
				23:leaf=-0.00407659
				24:leaf=0.0769839
			12:[f16253<130.5] yes=25,no=26,missing=25
				25:leaf=0.0213448
				26:leaf=-0.0268419
		6:[f16546<174.5] yes=13,no=14,missing=13
			13:[f6347<78.5] yes=27,no=28,missing=27
				27:leaf=0.0764987
				28:leaf=0.01342
			14:leaf=-0.026714
booster[85]:
0:[f24618<194.5] yes=1,no=2,missing=1
	1:[f10939<71.5] yes=3,no=4,missing=3
		3:[f26095<33.5] yes=7,no=8,missing=7
			7:leaf=-0.0271203
			8:[f18125<193.5] yes=15,no=16,missing=15
				15:leaf=0.0667402
				16:leaf=-0.0207202
		4:[f10267<113.5] yes=9,no=10,missing=9
			9:leaf=-0.0326039
			10:leaf=0.00598391
	2:[f32704<182.5] yes=5,no=6,missing=5
		5:[f29477<71.5] yes=11,no=12,missing=11
			11:[f29480<11.5] yes=17,no=18,missing=17
				17:leaf=0.0487511
				18:leaf=-0.0275747
			12:[f13746<62.5] yes=19,no=20,missing=19
				19:leaf=0.0643637
				20:leaf=-0.0210056
		6:[f24383<71.5] yes=13,no=14,missing=13
			13:[f2381<82.5] yes=21,no=22,missing=21
				21:leaf=-0.0260221
				22:leaf=0.0737818
			14:leaf=-0.0298875
booster[86]:
0:[f8403<44.5] yes=1,no=2,missing=1
	1:[f14855<37.5] yes=3,no=4,missing=3
		3:[f19421<37.5] yes=7,no=8,missing=7
			7:[f31412<18.5] yes=15,no=16,missing=15
				15:leaf=0.0425184
				16:leaf=-0.00628013
			8:[f19644<39.5] yes=17,no=18,missing=17
				17:leaf=-0.0130041
				18:leaf=0.0600775
		4:[f15465<65.5] yes=9,no=10,missing=10
			9:[f19421<40.5] yes=19,no=20,missing=19
				19:leaf=0.0499101
				20:leaf=0.0135867
			10:[f23752<50.5] yes=21,no=22,missing=21
				21:leaf=0.0227519
				22:leaf=-0.0297512
	2:[f1736<202.5] yes=5,no=6,missing=5
		5:[f22933<101.5] yes=11,no=12,missing=11
			11:leaf=-0.0336207
			12:leaf=0.00292832
		6:[f13275<352.5] yes=13,no=14,missing=14
			13:leaf=0.0672514
			14:[f15523<149.5] yes=23,no=24,missing=23
				23:leaf=-0.0254272
				24:leaf=0.0160851
booster[87]:
0:[f15592<181.5] yes=1,no=2,missing=1
	1:[f3323<30.5] yes=3,no=4,missing=3
		3:leaf=0.0242046
		4:leaf=-0.0342953
	2:[f12146<16.5] yes=5,no=6,missing=5
		5:[f22709<7.5] yes=7,no=8,missing=8
			7:[f15447<164.5] yes=11,no=12,missing=12
				11:leaf=-0.0302584
				12:leaf=0.010701
			8:[f3897<20.5] yes=13,no=14,missing=13
				13:leaf=0.0611458
				14:leaf=-0.00166994
		6:[f30964<23.5] yes=9,no=10,missing=9
			9:[f8278<226.5] yes=15,no=16,missing=16
				15:leaf=0.0501905
				16:leaf=-0.0241245
			10:[f24201<16.5] yes=17,no=18,missing=18
				17:leaf=0.0682104
				18:leaf=0.00254548
booster[88]:
0:[f11859<266.5] yes=1,no=2,missing=1
	1:[f18992<243.5] yes=3,no=4,missing=3
		3:[f6104<195] yes=7,no=8,missing=7
			7:[f12322<775.5] yes=15,no=16,missing=15
				15:leaf=-0.0337571
				16:leaf=0.0253985
			8:leaf=0.0218923
		4:[f20232<130.5] yes=9,no=10,missing=10
			9:[f5906<56.5] yes=17,no=18,missing=17
				17:leaf=0.00275818
				18:leaf=-0.0196871
			10:leaf=0.0557864
	2:[f4593<184.5] yes=5,no=6,missing=5
		5:[f24898<131.5] yes=11,no=12,missing=11
			11:[f10267<107.5] yes=19,no=20,missing=19
				19:leaf=-0.00888172
				20:leaf=0.0410098
			12:[f11841<388.5] yes=21,no=22,missing=21
				21:leaf=0.0528828
				22:leaf=0.00240435
		6:[f5287<96.5] yes=13,no=14,missing=13
			13:[f24409<97.5] yes=23,no=24,missing=23
				23:leaf=-0.0202822
				24:leaf=0.0683094
			14:[f6957<13.5] yes=25,no=26,missing=26
				25:leaf=-0.0298909
				26:leaf=0.0301345
booster[89]:
0:[f12043<89.5] yes=1,no=2,missing=1
	1:[f15759<14.5] yes=3,no=4,missing=4
		3:[f18552<37.5] yes=7,no=8,missing=7
			7:[f1960<96.5] yes=15,no=16,missing=15
				15:leaf=-0.0240991
				16:leaf=0.0576184
			8:[f5874<174.5] yes=17,no=18,missing=17
				17:leaf=0.0741
				18:leaf=0.0031313
		4:[f30532<75.5] yes=9,no=10,missing=9
			9:[f14503<257] yes=19,no=20,missing=19
				19:leaf=-0.0297607
				20:leaf=0.0391128
			10:[f3998<113.5] yes=21,no=22,missing=21
				21:leaf=0.0926327
				22:leaf=-0.0213794
	2:[f27936<102.5] yes=5,no=6,missing=5
		5:[f31515<46.5] yes=11,no=12,missing=11
			11:[f29099<11.5] yes=23,no=24,missing=24
				23:leaf=-0.031515
				24:leaf=0.0389237
			12:[f10036<39.5] yes=25,no=26,missing=25
				25:leaf=0.00441799
				26:leaf=0.0606287
		6:[f435<231.5] yes=13,no=14,missing=13
			13:leaf=-0.0305477
			14:leaf=0.00296958
booster[90]:
0:leaf=-0.0342863
booster[91]:
0:[f31014<116.5] yes=1,no=2,missing=1
	1:[f9575<37.5] yes=3,no=4,missing=3
		3:[f10126<9.5] yes=7,no=8,missing=8
			7:[f3808<132.5] yes=15,no=16,missing=15
				15:leaf=-0.0118542
				16:leaf=0.0387032
			8:[f18229<146.5] yes=17,no=18,missing=17
				17:leaf=0.0471379
				18:leaf=-0.000735347
		4:[f25677<8.5] yes=9,no=10,missing=9
			9:[f25301<33.5] yes=19,no=20,missing=19
				19:leaf=0.0373726
				20:leaf=-0.0302887
			10:[f26963<30.5] yes=21,no=22,missing=21
				21:leaf=-0.0172882
				22:leaf=0.019356
	2:[f2650<49.5] yes=5,no=6,missing=5
		5:[f14971<45.5] yes=11,no=12,missing=11
			11:[f6517<54.5] yes=23,no=24,missing=23
				23:leaf=0.0318609
				24:leaf=-0.0269938
			12:[f25252<45.5] yes=25,no=26,missing=25
				25:leaf=0.0679537
				26:leaf=-0.0155831
		6:[f28563<10.5] yes=13,no=14,missing=13
			13:[f13326<45.5] yes=27,no=28,missing=27
				27:leaf=0.0475261
				28:leaf=-0.0188629
			14:[f16427<276.5] yes=29,no=30,missing=29
				29:leaf=0.0568046
				30:leaf=-0.0147968
booster[92]:
0:[f9458<182.5] yes=1,no=2,missing=1
	1:[f32485<125.5] yes=3,no=4,missing=3
		3:[f17877<35.5] yes=7,no=8,missing=7
			7:leaf=-0.0283362
			8:[f9159<438.5] yes=15,no=16,missing=16
				15:leaf=0.0646828
				16:leaf=-0.0255223
		4:[f24473<67.5] yes=9,no=10,missing=9
			9:leaf=-0.0329777
			10:[f1210<171.5] yes=17,no=18,missing=17
				17:leaf=0.0587592
				18:leaf=-0.0247519
	2:[f32704<182.5] yes=5,no=6,missing=5
		5:[f30049<14.5] yes=11,no=12,missing=11
			11:[f23462<5.5] yes=19,no=20,missing=19
				19:leaf=-0.0173015
				20:leaf=0.060311
			12:[f12584<239.5] yes=21,no=22,missing=21
				21:leaf=-0.0296712
				22:leaf=0.037934
		6:[f28411<65.5] yes=13,no=14,missing=13
			13:[f25847<65.5] yes=23,no=24,missing=24
				23:leaf=-0.0307081
				24:leaf=0.0357527
			14:[f24374<75.5] yes=25,no=26,missing=25
				25:leaf=0.0797341
				26:leaf=-0.023275
booster[93]:
0:[f134<176.5] yes=1,no=2,missing=1
	1:[f19573<13.5] yes=3,no=4,missing=3
		3:[f20478<75.5] yes=7,no=8,missing=7
			7:[f27452<224.5] yes=15,no=16,missing=15
				15:leaf=0.0697521
				16:leaf=-0.0250126
			8:[f21835<150.5] yes=17,no=18,missing=17
				17:leaf=-0.0300333
				18:leaf=0.0378323
		4:[f23877<513] yes=9,no=10,missing=9
			9:[f18197<158.5] yes=19,no=20,missing=19
				19:leaf=-0.0346383
				20:leaf=-0.00144376
			10:leaf=0.0231102
	2:[f29354<59.5] yes=5,no=6,missing=5
		5:[f7387<165.5] yes=11,no=12,missing=11
			11:[f19316<64.5] yes=21,no=22,missing=22
				21:leaf=0.046078
				22:leaf=0.00971705
			12:[f22899<45.5] yes=23,no=24,missing=23
				23:leaf=0.0249403
				24:leaf=-0.0291778
		6:[f21725<333.5] yes=13,no=14,missing=13
			13:[f21476<54.5] yes=25,no=26,missing=26
				25:leaf=-0.00843822
				26:leaf=0.0543787
			14:[f12952<91] yes=27,no=28,missing=27
				27:leaf=-0.0152332
				28:leaf=0.079251
booster[94]:
0:[f15592<181.5] yes=1,no=2,missing=1
	1:[f30210<7.5] yes=3,no=4,missing=3
		3:leaf=0.023333
		4:leaf=-0.0341702
	2:[f31270<13.5] yes=5,no=6,missing=5
		5:[f8074<19.5] yes=7,no=8,missing=7
			7:[f17625<89.5] yes=11,no=12,missing=12
				11:leaf=0.0320472
				12:leaf=-0.031945
			8:leaf=0.054852
		6:[f22866<9.5] yes=9,no=10,missing=10
			9:[f31326<6.5] yes=13,no=14,missing=13
				13:leaf=0.00455875
				14:leaf=0.0592147
			10:leaf=-0.017117
booster[95]:
0:[f11859<266.5] yes=1,no=2,missing=1
	1:[f18992<243.5] yes=3,no=4,missing=3
		3:[f12449<217.5] yes=7,no=8,missing=7
			7:[f1998<7.5] yes=15,no=16,missing=15
				15:leaf=-0.0021022
				16:leaf=-0.0339981
			8:[f1654<73.5] yes=17,no=18,missing=17
				17:leaf=0.0727298
				18:leaf=-0.0290014
		4:[f20232<130.5] yes=9,no=10,missing=10
			9:[f5906<56.5] yes=19,no=20,missing=19
				19:leaf=0.00275339
				20:leaf=-0.0194747
			10:leaf=0.0537743
	2:[f2984<59.5] yes=5,no=6,missing=5
		5:[f1860<136.5] yes=11,no=12,missing=11
			11:[f2746<139.5] yes=21,no=22,missing=21
				21:leaf=-0.0317547
				22:leaf=0.0661491
			12:[f10286<75.5] yes=23,no=24,missing=23
				23:leaf=0.0537574
				24:leaf=-0.0219073
		6:[f14227<170.5] yes=13,no=14,missing=13
			13:[f26289<156.5] yes=25,no=26,missing=26
				25:leaf=-0.0189957
				26:leaf=0.051586
			14:[f12949<289.5] yes=27,no=28,missing=27
				27:leaf=0.0519512
				28:leaf=-0.0179462
booster[96]:
0:[f12043<89.5] yes=1,no=2,missing=1
	1:[f24618<232.5] yes=3,no=4,missing=3
		3:[f5413<107.5] yes=7,no=8,missing=7
			7:[f18120<289] yes=15,no=16,missing=15
				15:leaf=-0.0257303
				16:leaf=0.0490015
			8:[f23528<67.5] yes=17,no=18,missing=18
				17:leaf=0.0509002
				18:leaf=-0.0077146
		4:[f28366<10.5] yes=9,no=10,missing=9
			9:[f799<172.5] yes=19,no=20,missing=19
				19:leaf=0.0697942
				20:leaf=-0.0221453
			10:[f21900<140.5] yes=21,no=22,missing=21
				21:leaf=-0.0321576
				22:leaf=0.0250341
	2:[f18317<74.5] yes=5,no=6,missing=5
		5:[f31515<46.5] yes=11,no=12,missing=11
			11:[f29099<11.5] yes=23,no=24,missing=24
				23:leaf=-0.0312778
				24:leaf=0.0366203
			12:[f10036<39.5] yes=25,no=26,missing=25
				25:leaf=0.00430899
				26:leaf=0.0614151
		6:[f6599<16.5] yes=13,no=14,missing=14
			13:leaf=0.0271312
			14:[f16107<227.5] yes=27,no=28,missing=27
				27:leaf=0.00153676
				28:leaf=-0.0319395
booster[97]:
0:leaf=-0.034156
booster[98]:
0:[f30306<49.5] yes=1,no=2,missing=1
	1:[f11416<77.5] yes=3,no=4,missing=3
		3:[f11088<228.5] yes=7,no=8,missing=7
			7:[f27467<324.5] yes=15,no=16,missing=15
				15:leaf=0.0206577
				16:leaf=-0.010437
			8:[f31236<55.5] yes=17,no=18,missing=18
				17:leaf=0.0497646
				18:leaf=0.00447591
		4:[f26948<50.5] yes=9,no=10,missing=9
			9:[f11731<103.5] yes=19,no=20,missing=19
				19:leaf=-0.0225137
				20:leaf=0.0530763
			10:[f31080<85.5] yes=21,no=22,missing=21
				21:leaf=0.02683
				22:leaf=0.0560782
	2:[f29592<140.5] yes=5,no=6,missing=5
		5:[f25163<39.5] yes=11,no=12,missing=11
			11:[f27260<404.5] yes=23,no=24,missing=24
				23:leaf=-0.0129309
				24:leaf=0.0592613
			12:[f29877<49.5] yes=25,no=26,missing=25
				25:leaf=0.0369344
				26:leaf=-0.0251869
		6:[f16546<174.5] yes=13,no=14,missing=13
			13:[f6347<78.5] yes=27,no=28,missing=27
				27:leaf=0.0698813
				28:leaf=0.0118912
			14:leaf=-0.0264383
booster[99]:
0:[f9458<182.5] yes=1,no=2,missing=1
	1:[f32485<125.5] yes=3,no=4,missing=3
		3:[f17877<35.5] yes=7,no=8,missing=7
			7:leaf=-0.0280816
			8:[f9159<438.5] yes=15,no=16,missing=16
				15:leaf=0.0616915
				16:leaf=-0.025352
		4:[f24473<67.5] yes=9,no=10,missing=9
			9:leaf=-0.0328024
			10:[f4028<99.5] yes=17,no=18,missing=17
				17:leaf=0.0656053
				18:leaf=-0.0165614
	2:[f30376<180.5] yes=5,no=6,missing=5
		5:[f20953<177.5] yes=11,no=12,missing=11
			11:[f11687<10.5] yes=19,no=20,missing=19
				19:leaf=0.041754
				20:leaf=-0.0285776
			12:[f13335<96.5] yes=21,no=22,missing=21
				21:leaf=-0.0218923
				22:leaf=0.0594925
		6:[f29569<76.5] yes=13,no=14,missing=13
			13:[f5975<82.5] yes=23,no=24,missing=23
				23:leaf=-0.0317945
				24:leaf=0.0290263
			14:[f29723<217.5] yes=25,no=26,missing=25
				25:leaf=0.0742307
				26:leaf=-0.0210805
booster[100]:
0:[f19959<52.5] yes=1,no=2,missing=1
	1:[f14855<37.5] yes=3,no=4,missing=3
		3:[f19421<37.5] yes=7,no=8,missing=7
			7:[f31027<85.5] yes=13,no=14,missing=13
				13:leaf=0.0325873
				14:leaf=-0.0239987
			8:[f19644<39.5] yes=15,no=16,missing=15
				15:leaf=-0.0132641
				16:leaf=0.0548783
		4:[f7387<165.5] yes=9,no=10,missing=9
			9:[f30497<92.5] yes=17,no=18,missing=17
				17:leaf=0.0451896
				18:leaf=0.0097532
			10:[f98<220.5] yes=19,no=20,missing=19
				19:leaf=0.0393808
				20:leaf=-0.0260079
	2:[f29422<223] yes=5,no=6,missing=5
		5:[f15335<28.5] yes=11,no=12,missing=11
			11:leaf=0.0416984
			12:[f16020<180.5] yes=21,no=22,missing=21
				21:leaf=-0.03424
				22:leaf=-0.00972172
		6:leaf=0.0625052
booster[101]:
0:[f15592<181.5] yes=1,no=2,missing=1
	1:[f30210<7.5] yes=3,no=4,missing=3
		3:leaf=0.0228013
		4:leaf=-0.0340444
	2:[f8074<18.5] yes=5,no=6,missing=5
		5:[f23025<32.5] yes=7,no=8,missing=7
			7:[f12845<42.5] yes=11,no=12,missing=11
				11:leaf=0.0445751
				12:leaf=-0.0193601
			8:[f1469<15.5] yes=13,no=14,missing=14
				13:leaf=0.0597577
				14:leaf=-0.0214259
		6:[f22866<9.5] yes=9,no=10,missing=10
			9:[f17039<213.5] yes=15,no=16,missing=15
				15:leaf=-0.00117431
				16:leaf=0.0623936
			10:leaf=-0.0214369
booster[102]:
0:[f11859<266.5] yes=1,no=2,missing=1
	1:[f18992<243.5] yes=3,no=4,missing=3
		3:[f12449<217.5] yes=7,no=8,missing=7
			7:[f1998<7.5] yes=15,no=16,missing=15
				15:leaf=-0.00203304
				16:leaf=-0.0338567
			8:[f1654<73.5] yes=17,no=18,missing=17
				17:leaf=0.0694674
				18:leaf=-0.0288277
		4:[f25216<184.5] yes=9,no=10,missing=9
			9:leaf=0.0520693
			10:[f10560<101.5] yes=19,no=20,missing=19
				19:leaf=-0.0197728
				20:leaf=0.00278087
	2:[f4593<184.5] yes=5,no=6,missing=5
		5:[f24898<131.5] yes=11,no=12,missing=11
			11:[f11578<126.5] yes=21,no=22,missing=21
				21:leaf=0.0307932
				22:leaf=-0.0114396
			12:[f16436<318.5] yes=23,no=24,missing=23
				23:leaf=0.0452387
				24:leaf=-0.0105577
		6:[f27539<242.5] yes=13,no=14,missing=13
			13:[f25823<120.5] yes=25,no=26,missing=26
				25:leaf=-0.023908
				26:leaf=0.0535186
			14:[f10984<150.5] yes=27,no=28,missing=28
				27:leaf=-0.029516
				28:leaf=0.0275265
booster[103]:
0:[f12043<89.5] yes=1,no=2,missing=1
	1:[f15759<14.5] yes=3,no=4,missing=4
		3:[f1984<113.5] yes=7,no=8,missing=7
			7:[f28962<30.5] yes=15,no=16,missing=15
				15:leaf=-0.0268693
				16:leaf=0.0370048
			8:[f3206<280.5] yes=17,no=18,missing=17
				17:leaf=0.0572348
				18:leaf=-0.0127331
		4:[f14851<14.5] yes=9,no=10,missing=9
			9:[f21854<163.5] yes=19,no=20,missing=19
				19:leaf=-0.0203691
				20:leaf=0.0755011
			10:[f23279<17.5] yes=21,no=22,missing=21
				21:leaf=0.0169526
				22:leaf=-0.0297875
	2:[f25406<318.5] yes=5,no=6,missing=6
		5:[f31515<46.5] yes=11,no=12,missing=11
			11:[f29099<11.5] yes=23,no=24,missing=24
				23:leaf=-0.0310617
				24:leaf=0.0357398
			12:[f10036<39.5] yes=25,no=26,missing=25
				25:leaf=0.00416236
				26:leaf=0.0549847
		6:[f30247<111.5] yes=13,no=14,missing=13
			13:leaf=-0.0305249
			14:leaf=0.00304888
booster[104]:
0:leaf=-0.0340306
booster[105]:
0:[f20345<61.5] yes=1,no=2,missing=1
	1:[f11416<77.5] yes=3,no=4,missing=3
		3:[f10986<50.5] yes=7,no=8,missing=8
			7:[f25183<37.5] yes=15,no=16,missing=15
				15:leaf=0.0375744
				16:leaf=0.00698412
			8:[f6569<59.5] yes=17,no=18,missing=17
				17:leaf=-0.0100502
				18:leaf=0.0388486
		4:[f21237<146.5] yes=9,no=10,missing=9
			9:[f11552<21.5] yes=19,no=20,missing=19
				19:leaf=-0.0148034
				20:leaf=0.0475767
			10:[f16590<118.5] yes=21,no=22,missing=21
				21:leaf=0.0659828
				22:leaf=-0.0214731
	2:[f11188<235.5] yes=5,no=6,missing=5
		5:[f5721<10.5] yes=11,no=12,missing=11
			11:[f21911<101.5] yes=23,no=24,missing=23
				23:leaf=-0.0290325
				24:leaf=0.0613932
			12:[f31462<50.5] yes=25,no=26,missing=25
				25:leaf=-0.0308392
				26:leaf=0.0396594
		6:[f7677<313] yes=13,no=14,missing=13
			13:[f13095<100.5] yes=27,no=28,missing=27
				27:leaf=0.0168524
				28:leaf=0.0683706
			14:[f18234<64] yes=29,no=30,missing=29
				29:leaf=0.0319516
				30:leaf=-0.0299258
booster[106]:
0:[f9458<182.5] yes=1,no=2,missing=1
	1:[f32485<125.5] yes=3,no=4,missing=3
		3:[f17877<35.5] yes=7,no=8,missing=7
			7:leaf=-0.0278563
			8:[f9159<438.5] yes=15,no=16,missing=16
				15:leaf=0.0591527
				16:leaf=-0.0251482
		4:[f24473<67.5] yes=9,no=10,missing=9
			9:leaf=-0.032629
			10:[f1210<171.5] yes=17,no=18,missing=17
				17:leaf=0.054651
				18:leaf=-0.0243293
	2:[f30376<180.5] yes=5,no=6,missing=5
		5:[f20953<177.5] yes=11,no=12,missing=11
			11:[f11687<10.5] yes=19,no=20,missing=19
				19:leaf=0.0399262
				20:leaf=-0.028288
			12:[f25863<161.5] yes=21,no=22,missing=21
				21:leaf=-0.0130637
				22:leaf=0.0637003
		6:[f29569<76.5] yes=13,no=14,missing=13
			13:[f9565<49.5] yes=23,no=24,missing=23
				23:leaf=-0.0316158
				24:leaf=0.0288424
			14:[f29723<217.5] yes=25,no=26,missing=25
				25:leaf=0.0705397
				26:leaf=-0.0209399
booster[107]:
0:[f392<108.5] yes=1,no=2,missing=1
	1:[f2600<27.5] yes=3,no=4,missing=4
		3:[f14112<75.5] yes=7,no=8,missing=7
			7:[f10698<18] yes=15,no=16,missing=16
				15:leaf=-0.00718209
				16:leaf=0.0659152
			8:[f25877<155.5] yes=17,no=18,missing=17
				17:leaf=-0.0220765
				18:leaf=0.0304784
		4:[f18522<139] yes=9,no=10,missing=9
			9:leaf=-0.0339733
			10:leaf=0.0274947
	2:[f5618<78.5] yes=5,no=6,missing=6
		5:[f17342<267.5] yes=11,no=12,missing=11
			11:[f15810<153.5] yes=19,no=20,missing=19
				19:leaf=0.0403862
				20:leaf=0.0084871
			12:[f1781<38.5] yes=21,no=22,missing=21
				21:leaf=0.03882
				22:leaf=-0.03347
		6:[f11331<428.5] yes=13,no=14,missing=13
			13:[f17801<199.5] yes=23,no=24,missing=23
				23:leaf=-0.0186124
				24:leaf=0.0221238
			14:[f6829<23.5] yes=25,no=26,missing=25
				25:leaf=-0.0173586
				26:leaf=0.077561
booster[108]:
0:[f15592<181.5] yes=1,no=2,missing=1
	1:[f3323<30.5] yes=3,no=4,missing=3
		3:leaf=0.02341
		4:leaf=-0.0339201
	2:[f12146<16.5] yes=5,no=6,missing=5
		5:[f22709<7.5] yes=7,no=8,missing=8
			7:[f1555<78.5] yes=11,no=12,missing=11
				11:leaf=-0.0298784
				12:leaf=0.0107229
			8:[f3897<20.5] yes=13,no=14,missing=13
				13:leaf=0.0548717
				14:leaf=-0.00275409
		6:[f30964<23.5] yes=9,no=10,missing=9
			9:[f23456<118.5] yes=15,no=16,missing=15
				15:leaf=0.0445051
				16:leaf=-0.0243313
			10:[f17197<38.5] yes=17,no=18,missing=17
				17:leaf=0.0599578
				18:leaf=0.00198436
booster[109]:
0:[f11859<266.5] yes=1,no=2,missing=1
	1:[f8927<222.5] yes=3,no=4,missing=3
		3:[f12449<217.5] yes=7,no=8,missing=7
			7:[f11244<353.5] yes=15,no=16,missing=15
				15:leaf=-0.0334163
				16:leaf=0.00982121
			8:[f1654<73.5] yes=17,no=18,missing=17
				17:leaf=0.066576
				18:leaf=-0.0286433
		4:[f31972<112.5] yes=9,no=10,missing=9
			9:leaf=0.0539092
			10:leaf=-0.0111474
	2:[f12282<12.5] yes=5,no=6,missing=6
		5:[f1860<136.5] yes=11,no=12,missing=11
			11:[f2746<139.5] yes=19,no=20,missing=19
				19:leaf=-0.0315764
				20:leaf=0.0589691
			12:[f29606<90.5] yes=21,no=22,missing=21
				21:leaf=0.0813302
				22:leaf=-0.0188531
		6:[f16436<317.5] yes=13,no=14,missing=13
			13:[f18248<9.5] yes=23,no=24,missing=23
				23:leaf=-0.0292514
				24:leaf=0.0495068
			14:[f26102<73.5] yes=25,no=26,missing=25
				25:leaf=0.0498999
				26:leaf=-0.0224663
booster[110]:
0:[f12043<89.5] yes=1,no=2,missing=1
	1:[f2060<89.5] yes=3,no=4,missing=3
		3:[f2828<158.5] yes=7,no=8,missing=8
			7:[f4383<33.5] yes=15,no=16,missing=16
				15:leaf=-0.0250366
				16:leaf=0.0493276
			8:[f19988<346.5] yes=17,no=18,missing=17
				17:leaf=0.0815446
				18:leaf=-0.0137426
		4:[f31785<146.5] yes=9,no=10,missing=9
			9:[f12450<133.5] yes=19,no=20,missing=19
				19:leaf=-0.0286138
				20:leaf=0.0635022
			10:[f30035<208.5] yes=21,no=22,missing=21
				21:leaf=0.0742414
				22:leaf=-0.0141566
	2:[f18317<74.5] yes=5,no=6,missing=5
		5:[f31515<46.5] yes=11,no=12,missing=11
			11:[f29099<11.5] yes=23,no=24,missing=24
				23:leaf=-0.0308519
				24:leaf=0.0342865
			12:[f10036<39.5] yes=25,no=26,missing=25
				25:leaf=0.00394434
				26:leaf=0.0559314
		6:[f9975<159.5] yes=13,no=14,missing=13
			13:[f21436<214.5] yes=27,no=28,missing=27
				27:leaf=-0.0104897
				28:leaf=0.0422335
			14:[f10391<94.5] yes=29,no=30,missing=29
				29:leaf=-0.00785308
				30:leaf=-0.0316214
booster[111]:
0:leaf=-0.0339115
booster[112]:
0:[f20345<61.5] yes=1,no=2,missing=1
	1:[f11416<77.5] yes=3,no=4,missing=3
		3:[f32124<122.5] yes=7,no=8,missing=7
			7:[f28440<10.5] yes=15,no=16,missing=15
				15:leaf=-0.0151601
				16:leaf=0.0246939
			8:[f28550<260.5] yes=17,no=18,missing=17
				17:leaf=-0.0190214
				18:leaf=0.0538968
		4:[f21237<146.5] yes=9,no=10,missing=9
			9:[f11552<21.5] yes=19,no=20,missing=19
				19:leaf=-0.0145209
				20:leaf=0.0452107
			10:[f16590<118.5] yes=21,no=22,missing=21
				21:leaf=0.063182
				22:leaf=-0.0210691
	2:[f1895<79.5] yes=5,no=6,missing=5
		5:[f23569<28.5] yes=11,no=12,missing=11
			11:leaf=0.0495362
			12:[f31462<49.5] yes=23,no=24,missing=23
				23:leaf=-0.030066
				24:leaf=0.0337434
		6:[f13401<79.5] yes=13,no=14,missing=13
			13:[f29981<44.5] yes=25,no=26,missing=25
				25:leaf=0.0333335
				26:leaf=-0.0313738
			14:[f10569<178.5] yes=27,no=28,missing=27
				27:leaf=0.070186
				28:leaf=-0.020366
booster[113]:
0:[f9458<182.5] yes=1,no=2,missing=1
	1:[f32485<125.5] yes=3,no=4,missing=3
		3:[f17877<35.5] yes=7,no=8,missing=7
			7:leaf=-0.0276527
			8:[f1622<339.5] yes=15,no=16,missing=16
				15:leaf=0.0567289
				16:leaf=-0.0250897
		4:[f24473<67.5] yes=9,no=10,missing=9
			9:leaf=-0.032452
			10:[f2819<69.5] yes=17,no=18,missing=17
				17:leaf=0.0518586
				18:leaf=-0.025647
	2:[f32704<182.5] yes=5,no=6,missing=5
		5:[f30049<14.5] yes=11,no=12,missing=11
			11:[f19316<62.5] yes=19,no=20,missing=20
				19:leaf=-0.0219315
				20:leaf=0.0470353
			12:[f21237<155.5] yes=21,no=22,missing=21
				21:leaf=-0.0289379
				22:leaf=0.0384989
		6:[f24383<71.5] yes=13,no=14,missing=13
			13:[f2381<82.5] yes=23,no=24,missing=23
				23:leaf=-0.0253597
				24:leaf=0.0613509
			14:leaf=-0.0292482
booster[114]:
0:[f28920<58.5] yes=1,no=2,missing=1
	1:[f21032<31.5] yes=3,no=4,missing=3
		3:[f22839<6.5] yes=7,no=8,missing=7
			7:[f4106<51.5] yes=15,no=16,missing=15
				15:leaf=0.0331667
				16:leaf=-0.00362526
			8:[f18248<47.5] yes=17,no=18,missing=17
				17:leaf=0.0532352
				18:leaf=-0.00770556
		4:[f22820<34.5] yes=9,no=10,missing=9
			9:[f23217<35.5] yes=19,no=20,missing=19
				19:leaf=0.0476461
				20:leaf=-0.00289022
			10:[f28147<35.5] yes=21,no=22,missing=21
				21:leaf=0.0465215
				22:leaf=-0.0277578
	2:[f9856<34.5] yes=5,no=6,missing=5
		5:[f26968<36.5] yes=11,no=12,missing=12
			11:leaf=0.055309
			12:[f11572<223.5] yes=23,no=24,missing=23
				23:leaf=-0.0268643
				24:leaf=0.00440817
		6:[f14566<292] yes=13,no=14,missing=13
			13:[f27340<22.5] yes=25,no=26,missing=25
				25:leaf=-0.00229776
				26:leaf=-0.0343978
			14:leaf=0.0165512
booster[115]:
0:[f15592<181.5] yes=1,no=2,missing=1
	1:[f30210<7.5] yes=3,no=4,missing=3
		3:leaf=0.022406
		4:leaf=-0.0338115
	2:[f31270<13.5] yes=5,no=6,missing=5
		5:[f8074<19.5] yes=7,no=8,missing=7
			7:[f17625<89.5] yes=11,no=12,missing=12
				11:leaf=0.0300501
				12:leaf=-0.0316785
			8:leaf=0.048604
		6:[f21952<61.5] yes=9,no=10,missing=9
			9:[f8762<13.5] yes=13,no=14,missing=13
				13:leaf=0.0513488
				14:leaf=-0.0145542
			10:leaf=-0.0189782
booster[116]:
0:[f6327<83.5] yes=1,no=2,missing=1
	1:[f4147<62.5] yes=3,no=4,missing=3
		3:[f2965<88.5] yes=7,no=8,missing=7
			7:[f26769<18.5] yes=15,no=16,missing=15
				15:leaf=-0.00483126
				16:leaf=0.0385225
			8:[f27792<84.5] yes=17,no=18,missing=17
				17:leaf=-0.017467
				18:leaf=0.0623918
		4:[f18248<12.5] yes=9,no=10,missing=9
			9:[f12333<50.5] yes=19,no=20,missing=19
				19:leaf=-0.0319422
				20:leaf=0.0150683
			10:[f17468<109.5] yes=21,no=22,missing=21
				21:leaf=0.0665036
				22:leaf=-0.00993086
	2:[f14693<131.5] yes=5,no=6,missing=5
		5:[f1764<265.5] yes=11,no=12,missing=11
			11:[f440<195.5] yes=23,no=24,missing=23
				23:leaf=-0.0335711
				24:leaf=0.00479052
			12:[f14769<81.5] yes=25,no=26,missing=25
				25:leaf=0.0529561
				26:leaf=-0.020445
		6:[f14969<187.5] yes=13,no=14,missing=13
			13:[f3986<127.5] yes=27,no=28,missing=27
				27:leaf=-0.0104548
				28:leaf=0.0805344
			14:[f3473<147.5] yes=29,no=30,missing=29
				29:leaf=-0.0241295
				30:leaf=0.00157184
booster[117]:
0:[f12043<89.5] yes=1,no=2,missing=1
	1:[f636<111.5] yes=3,no=4,missing=4
		3:[f22799<12.5] yes=7,no=8,missing=7
			7:[f18762<79.5] yes=15,no=16,missing=15
				15:leaf=-0.0142143
				16:leaf=0.0713219
			8:[f18585<23.5] yes=17,no=18,missing=17
				17:leaf=0.0806419
				18:leaf=-0.0262184
		4:[f24960<57.5] yes=9,no=10,missing=9
			9:leaf=0.0292629
			10:[f6575<180.5] yes=19,no=20,missing=19
				19:leaf=-0.0330838
				20:leaf=0.0052925
	2:[f9589<34.5] yes=5,no=6,missing=5
		5:[f12658<72.5] yes=11,no=12,missing=11
			11:[f17724<139.5] yes=21,no=22,missing=21
				21:leaf=-0.00535656
				22:leaf=0.0576444
			12:[f8595<227.5] yes=23,no=24,missing=23
				23:leaf=0.0317316
				24:leaf=-0.0216807
		6:[f21771<104.5] yes=13,no=14,missing=14
			13:[f9117<179.5] yes=25,no=26,missing=26
				25:leaf=0.00223644
				26:leaf=0.0601656
			14:[f27271<212.5] yes=27,no=28,missing=28
				27:leaf=0.0132285
				28:leaf=-0.0256884
booster[118]:
0:leaf=-0.0337973
booster[119]:
0:[f20345<61.5] yes=1,no=2,missing=1
	1:[f11416<77.5] yes=3,no=4,missing=3
		3:[f10986<50.5] yes=7,no=8,missing=8
			7:[f6069<27.5] yes=15,no=16,missing=15
				15:leaf=0.0362506
				16:leaf=0.00810226
			8:[f25077<42.5] yes=17,no=18,missing=17
				17:leaf=-0.00974249
				18:leaf=0.0373375
		4:[f21237<149.5] yes=9,no=10,missing=9
			9:[f11552<21.5] yes=19,no=20,missing=19
				19:leaf=-0.0141503
				20:leaf=0.0419473
			10:[f27001<47.5] yes=21,no=22,missing=21
				21:leaf=0.039655
				22:leaf=-0.0292009
	2:[f1895<79.5] yes=5,no=6,missing=5
		5:[f31419<26.5] yes=11,no=12,missing=11
			11:[f31292<77] yes=23,no=24,missing=24
				23:leaf=-0.0254232
				24:leaf=0.0711423
			12:[f5721<10.5] yes=25,no=26,missing=25
				25:leaf=0.00970797
				26:leaf=-0.0325146
		6:[f13401<79.5] yes=13,no=14,missing=13
			13:[f29981<44.5] yes=27,no=28,missing=27
				27:leaf=0.0321723
				28:leaf=-0.0309652
			14:[f10569<178.5] yes=29,no=30,missing=29
				29:leaf=0.0667376
				30:leaf=-0.0199743
booster[120]:
0:[f24618<194.5] yes=1,no=2,missing=1
	1:[f14930<61.5] yes=3,no=4,missing=3
		3:[f24394<67.5] yes=7,no=8,missing=7
			7:leaf=-0.0265622
			8:[f22021<201.5] yes=13,no=14,missing=13
				13:leaf=0.054578
				14:leaf=-0.0230472
		4:leaf=-0.0316916
	2:[f22048<124.5] yes=5,no=6,missing=5
		5:[f4409<101.5] yes=9,no=10,missing=9
			9:[f22990<82.5] yes=15,no=16,missing=15
				15:leaf=-0.0289226
				16:leaf=0.0459129
			10:[f20923<74.5] yes=17,no=18,missing=17
				17:leaf=0.0498868
				18:leaf=-0.0222465
		6:[f28488<27.5] yes=11,no=12,missing=12
			11:[f16923<37.5] yes=19,no=20,missing=19
				19:leaf=-0.0221119
				20:leaf=0.0553188
			12:[f9789<218.5] yes=21,no=22,missing=21
				21:leaf=0.0569582
				22:leaf=-0.022262
booster[121]:
0:[f27766<44.5] yes=1,no=2,missing=1
	1:[f10540<19.5] yes=3,no=4,missing=3
		3:leaf=0.0222131
		4:[f25475<176] yes=7,no=8,missing=7
			7:leaf=-0.0338293
			8:leaf=-0.00133346
	2:[f21032<31.5] yes=5,no=6,missing=5
		5:[f20603<109.5] yes=9,no=10,missing=9
			9:[f18248<48.5] yes=13,no=14,missing=13
				13:leaf=0.0616657
				14:leaf=-0.0128715
			10:[f6825<37.5] yes=15,no=16,missing=16
				15:leaf=0.0376136
				16:leaf=0.000630693
		6:[f7387<165.5] yes=11,no=12,missing=11
			11:[f23217<35.5] yes=17,no=18,missing=17
				17:leaf=0.0446799
				18:leaf=-0.00311129
			12:[f11377<47.5] yes=19,no=20,missing=19
				19:leaf=-0.0262949
				20:leaf=0.0317784
booster[122]:
0:[f15592<181.5] yes=1,no=2,missing=1
	1:[f11110<6.5] yes=3,no=4,missing=3
		3:leaf=0.0220891
		4:leaf=-0.0337026
	2:[f8074<18.5] yes=5,no=6,missing=5
		5:[f11528<3.5] yes=7,no=8,missing=7
			7:[f9531<173.5] yes=11,no=12,missing=11
				11:leaf=-0.00825509
				12:leaf=0.0547497
			8:[f31350<95.5] yes=13,no=14,missing=13
				13:leaf=-0.0227611
				14:leaf=0.0274263
		6:[f22866<9.5] yes=9,no=10,missing=10
			9:[f22292<29.5] yes=15,no=16,missing=16
				15:leaf=-0.0117071
				16:leaf=0.0561827
			10:leaf=-0.0214062
booster[123]:
0:[f11859<266.5] yes=1,no=2,missing=1
	1:[f18992<243.5] yes=3,no=4,missing=3
		3:[f12449<217.5] yes=7,no=8,missing=7
			7:[f1998<7.5] yes=15,no=16,missing=15
				15:leaf=-0.00136213
				16:leaf=-0.0334937
			8:[f1654<73.5] yes=17,no=18,missing=17
				17:leaf=0.063048
				18:leaf=-0.0283184
		4:[f27835<291.5] yes=9,no=10,missing=9
			9:leaf=-0.0202788
			10:[f16738<57.5] yes=19,no=20,missing=19
				19:leaf=0.0650283
				20:leaf=-0.00116977
	2:[f11852<211.5] yes=5,no=6,missing=5
		5:[f31195<44.5] yes=11,no=12,missing=11
			11:[f2969<84.5] yes=21,no=22,missing=21
				21:leaf=0.00403197
				22:leaf=0.0602284
			12:[f21898<239] yes=23,no=24,missing=23
				23:leaf=0.0595945
				24:leaf=-0.0243824
		6:[f551<157.5] yes=13,no=14,missing=13
			13:[f16383<166.5] yes=25,no=26,missing=25
				25:leaf=-0.0193658
				26:leaf=0.0839361
			14:[f6319<67.5] yes=27,no=28,missing=27
				27:leaf=-0.0264171
				28:leaf=0.0450152
booster[124]:
0:[f12043<89.5] yes=1,no=2,missing=1
	1:[f636<111.5] yes=3,no=4,missing=4
		3:[f22799<12.5] yes=7,no=8,missing=7
			7:[f18762<79.5] yes=15,no=16,missing=15
				15:leaf=-0.0138358
				16:leaf=0.0676043
			8:[f31426<31.5] yes=17,no=18,missing=17
				17:leaf=0.0761069
				18:leaf=-0.0260662
		4:[f24960<57.5] yes=9,no=10,missing=9
			9:leaf=0.0286119
			10:[f6575<180.5] yes=19,no=20,missing=19
				19:leaf=-0.0329301
				20:leaf=0.0053042
	2:[f27936<102.5] yes=5,no=6,missing=5
		5:[f31515<46.5] yes=11,no=12,missing=11
			11:[f29099<11.5] yes=21,no=22,missing=22
				21:leaf=-0.0305241
				22:leaf=0.0335683
			12:[f8588<232.5] yes=23,no=24,missing=23
				23:leaf=0.00121491
				24:leaf=0.0494678
		6:[f4744<157.5] yes=13,no=14,missing=13
			13:leaf=-0.02988
			14:leaf=0.00310353
booster[125]:
0:leaf=-0.0336877
booster[126]:
0:[f25124<103.5] yes=1,no=2,missing=1
	1:[f4819<55.5] yes=3,no=4,missing=3
		3:[f17328<95.5] yes=7,no=8,missing=7
			7:[f10916<28.5] yes=15,no=16,missing=15
				15:leaf=0.033603
				16:leaf=-0.00608908
			8:[f3245<221.5] yes=17,no=18,missing=17
				17:leaf=0.0214676
				18:leaf=0.0610581
		4:[f1880<21.5] yes=9,no=10,missing=9
			9:[f12461<434.5] yes=19,no=20,missing=19
				19:leaf=0.066436
				20:leaf=0.00925719
			10:[f1194<72.5] yes=21,no=22,missing=21
				21:leaf=0.0129307
				22:leaf=-0.025189
	2:[f20124<181.5] yes=5,no=6,missing=5
		5:[f20029<107.5] yes=11,no=12,missing=11
			11:[f17454<94.5] yes=23,no=24,missing=23
				23:leaf=-0.0155617
				24:leaf=0.0547578
			12:[f3158<152.5] yes=25,no=26,missing=25
				25:leaf=0.0261259
				26:leaf=0.0487886
		6:[f6531<17.5] yes=13,no=14,missing=13
			13:[f21731<136.5] yes=27,no=28,missing=27
				27:leaf=-0.0212197
				28:leaf=0.0759796
			14:[f21589<41.5] yes=29,no=30,missing=29
				29:leaf=-0.0248191
				30:leaf=0.0414584
booster[127]:
0:[f24618<194.5] yes=1,no=2,missing=1
	1:[f10939<71.5] yes=3,no=4,missing=3
		3:[f24394<67.5] yes=7,no=8,missing=7
			7:leaf=-0.0265773
			8:[f19173<375.5] yes=15,no=16,missing=16
				15:leaf=0.0530347
				16:leaf=-0.0213016
		4:[f856<199] yes=9,no=10,missing=9
			9:leaf=-0.0316749
			10:leaf=0.00565394
	2:[f22048<124.5] yes=5,no=6,missing=5
		5:[f4409<101.5] yes=11,no=12,missing=11
			11:[f22990<82.5] yes=17,no=18,missing=17
				17:leaf=-0.0286508
				18:leaf=0.0439976
			12:[f20923<74.5] yes=19,no=20,missing=19
				19:leaf=0.0470861
				20:leaf=-0.0219164
		6:[f28488<27.5] yes=13,no=14,missing=14
			13:[f32181<82.5] yes=21,no=22,missing=21
				21:leaf=-0.0218426
				22:leaf=0.0534221
			14:[f9789<218.5] yes=23,no=24,missing=23
				23:leaf=0.0542593
				24:leaf=-0.0219979
booster[128]:
0:[f392<108.5] yes=1,no=2,missing=1
	1:[f2600<27.5] yes=3,no=4,missing=4
		3:[f14112<75.5] yes=7,no=8,missing=7
			7:[f10698<18] yes=15,no=16,missing=16
				15:leaf=-0.00759876
				16:leaf=0.0589204
			8:[f12398<139.5] yes=17,no=18,missing=17
				17:leaf=-0.0215325
				18:leaf=0.0306356
		4:[f18621<296.5] yes=9,no=10,missing=9
			9:leaf=-0.0336643
			10:leaf=0.0258202
	2:[f30497<91.5] yes=5,no=6,missing=5
		5:[f17342<267.5] yes=11,no=12,missing=11
			11:[f25691<51.5] yes=19,no=20,missing=19
				19:leaf=0.0376468
				20:leaf=0.00498818
			12:[f16940<27.5] yes=21,no=22,missing=21
				21:leaf=0.0418222
				22:leaf=-0.0323236
		6:[f17616<163.5] yes=13,no=14,missing=13
			13:[f30106<2.5] yes=23,no=24,missing=24
				23:leaf=0.00253219
				24:leaf=-0.022464
			14:[f1538<131.5] yes=25,no=26,missing=25
				25:leaf=-0.00834908
				26:leaf=0.058804
booster[129]:
0:[f12749<8.5] yes=1,no=2,missing=2
	1:[f8074<17.5] yes=3,no=4,missing=3
		3:[f25531<11.5] yes=5,no=6,missing=6
			5:[f7808<118.5] yes=9,no=10,missing=9
				9:leaf=0.0381147
				10:leaf=-0.0216254
			6:[f32286<22.5] yes=11,no=12,missing=12
				11:leaf=0.0548181
				12:leaf=-0.0124119
		4:[f6829<13.5] yes=7,no=8,missing=7
			7:[f6927<20.5] yes=13,no=14,missing=14
				13:leaf=0.0521534
				14:leaf=-0.0139509
			8:leaf=-0.0167753
	2:leaf=-0.0335943
booster[130]:
0:[f11859<266.5] yes=1,no=2,missing=1
	1:[f18992<243.5] yes=3,no=4,missing=3
		3:[f12449<217.5] yes=7,no=8,missing=7
			7:[f1998<7.5] yes=15,no=16,missing=15
				15:leaf=-0.00123501
				16:leaf=-0.0333692
			8:[f1654<73.5] yes=17,no=18,missing=17
				17:leaf=0.0609439
				18:leaf=-0.0280606
		4:[f23284<51.5] yes=9,no=10,missing=9
			9:[f29649<33.5] yes=19,no=20,missing=19
				19:leaf=0.0649842
				20:leaf=-0.00830355
			10:leaf=-0.0203918
	2:[f4593<184.5] yes=5,no=6,missing=5
		5:[f10677<45.5] yes=11,no=12,missing=11
			11:[f18287<114.5] yes=21,no=22,missing=21
				21:leaf=0.0201899
				22:leaf=-0.0202052
			12:[f1238<165.5] yes=23,no=24,missing=23
				23:leaf=-0.0261482
				24:leaf=0.038488
		6:[f1166<228.5] yes=13,no=14,missing=13
			13:[f20268<277.5] yes=25,no=26,missing=26
				25:leaf=-0.0125719
				26:leaf=0.0681981
			14:[f18561<5.5] yes=27,no=28,missing=27
				27:leaf=-0.0286177
				28:leaf=0.0399589
booster[131]:
0:[f12043<87.5] yes=1,no=2,missing=1
	1:[f2060<89.5] yes=3,no=4,missing=3
		3:[f2828<158.5] yes=7,no=8,missing=8
			7:[f21787<16.5] yes=15,no=16,missing=15
				15:leaf=-0.0263011
				16:leaf=0.0381754
			8:[f12030<177.5] yes=17,no=18,missing=17
				17:leaf=0.0837152
				18:leaf=-0.00549218
		4:[f31785<146.5] yes=9,no=10,missing=9
			9:[f12450<133.5] yes=19,no=20,missing=19
				19:leaf=-0.0292913
				20:leaf=0.0576083
			10:[f31849<271.5] yes=21,no=22,missing=21
				21:leaf=0.0396968
				22:leaf=-0.031508
	2:[f19581<110.5] yes=5,no=6,missing=5
		5:[f31515<46.5] yes=11,no=12,missing=11
			11:[f29099<11.5] yes=23,no=24,missing=24
				23:leaf=-0.0302997
				24:leaf=0.0336087
			12:[f32470<211.5] yes=25,no=26,missing=25
				25:leaf=0.0524965
				26:leaf=0.00377462
		6:[f8015<108.5] yes=13,no=14,missing=13
			13:[f11712<46.5] yes=27,no=28,missing=27
				27:leaf=-0.0295174
				28:leaf=0.0144429
			14:leaf=0.0526978
booster[132]:
0:leaf=-0.0335823
booster[133]:
0:[f20345<61.5] yes=1,no=2,missing=1
	1:[f11416<77.5] yes=3,no=4,missing=3
		3:[f32124<122.5] yes=7,no=8,missing=7
			7:[f28440<10.5] yes=15,no=16,missing=15
				15:leaf=-0.0152445
				16:leaf=0.0219879
			8:[f28558<72.5] yes=17,no=18,missing=17
				17:leaf=-0.0194014
				18:leaf=0.0405806
		4:[f21237<146.5] yes=9,no=10,missing=9
			9:[f26948<50.5] yes=19,no=20,missing=19
				19:leaf=-0.0100055
				20:leaf=0.0398981
			10:[f16590<118.5] yes=21,no=22,missing=21
				21:leaf=0.0581189
				22:leaf=-0.0209129
	2:[f11311<70.5] yes=5,no=6,missing=5
		5:[f14805<126.5] yes=11,no=12,missing=11
			11:leaf=0.043426
			12:[f14848<89.5] yes=23,no=24,missing=23
				23:leaf=0.0254814
				24:leaf=-0.0326349
		6:[f412<185.5] yes=13,no=14,missing=13
			13:[f22300<38.5] yes=25,no=26,missing=25
				25:leaf=0.0666383
				26:leaf=-0.0101309
			14:[f3524<195.5] yes=27,no=28,missing=27
				27:leaf=-0.0264285
				28:leaf=0.0472349
booster[134]:
0:[f9458<182.5] yes=1,no=2,missing=1
	1:[f32485<125.5] yes=3,no=4,missing=3
		3:[f17877<35.5] yes=7,no=8,missing=7
			7:leaf=-0.0272661
			8:[f9159<438.5] yes=15,no=16,missing=16
				15:leaf=0.0515413
				16:leaf=-0.0246032
		4:[f24473<67.5] yes=9,no=10,missing=9
			9:leaf=-0.0321154
			10:[f2819<69.5] yes=17,no=18,missing=17
				17:leaf=0.0489349
				18:leaf=-0.0254391
	2:[f30376<180.5] yes=5,no=6,missing=5
		5:[f30049<14.5] yes=11,no=12,missing=11
			11:[f19316<62.5] yes=19,no=20,missing=20
				19:leaf=-0.0210505
				20:leaf=0.0433859
			12:[f8951<6.5] yes=21,no=22,missing=22
				21:leaf=0.0611204
				22:leaf=-0.0280927
		6:[f29569<74.5] yes=13,no=14,missing=13
			13:leaf=-0.0306996
			14:[f11300<91.5] yes=23,no=24,missing=23
				23:leaf=0.0610952
				24:leaf=-0.00851586
booster[135]:
0:[f27766<44.5] yes=1,no=2,missing=1
	1:[f10540<19.5] yes=3,no=4,missing=3
		3:leaf=0.0213667
		4:[f29227<134.5] yes=7,no=8,missing=7
			7:leaf=-0.0335991
			8:leaf=-0.00134885
	2:[f29214<30.5] yes=5,no=6,missing=6
		5:[f13114<216.5] yes=9,no=10,missing=10
			9:[f6434<55.5] yes=13,no=14,missing=13
				13:leaf=0.042082
				14:leaf=0.0145157
			10:[f28500<155.5] yes=15,no=16,missing=15
				15:leaf=0.0555939
				16:leaf=-0.0145528
		6:[f7511<25.5] yes=11,no=12,missing=12
			11:[f7798<82.5] yes=17,no=18,missing=17
				17:leaf=0.0409027
				18:leaf=-0.00715763
			12:[f27342<70.5] yes=19,no=20,missing=19
				19:leaf=-0.00867211
				20:leaf=0.0709267
booster[136]:
0:[f12749<8.5] yes=1,no=2,missing=2
	1:[f31236<55.5] yes=3,no=4,missing=4
		3:[f1894<173.5] yes=5,no=6,missing=5
			5:[f11872<4.5] yes=9,no=10,missing=9
				9:leaf=-0.00842357
				10:leaf=0.0619524
			6:[f13087<49.5] yes=11,no=12,missing=11
				11:leaf=-0.0299514
				12:leaf=0.0280253
		4:[f22699<16.5] yes=7,no=8,missing=7
			7:[f19629<325.5] yes=13,no=14,missing=13
				13:leaf=0.0525067
				14:leaf=-0.014285
			8:[f13088<125.5] yes=15,no=16,missing=15
				15:leaf=-0.0233388
				16:leaf=0.0424252
	2:leaf=-0.0334931
booster[137]:
0:[f11859<266.5] yes=1,no=2,missing=1
	1:[f18992<243.5] yes=3,no=4,missing=3
		3:[f12449<217.5] yes=7,no=8,missing=7
			7:[f1998<7.5] yes=15,no=16,missing=15
				15:leaf=-0.00121475
				16:leaf=-0.0332517
			8:[f1654<73.5] yes=17,no=18,missing=17
				17:leaf=0.0588105
				18:leaf=-0.0278261
		4:[f10656<247.5] yes=9,no=10,missing=9
			9:leaf=-0.0151024
			10:[f16674<64] yes=19,no=20,missing=19
				19:leaf=0.0571547
				20:leaf=0.00904507
	2:[f28184<75.5] yes=5,no=6,missing=5
		5:[f25550<49.5] yes=11,no=12,missing=11
			11:[f18248<45.5] yes=21,no=22,missing=21
				21:leaf=-0.00963992
				22:leaf=0.0501505
			12:[f30335<156.5] yes=23,no=24,missing=23
				23:leaf=0.0508671
				24:leaf=-0.00797674
		6:[f12419<244.5] yes=13,no=14,missing=13
			13:[f31154<64.5] yes=25,no=26,missing=25
				25:leaf=0.0221282
				26:leaf=-0.0219167
			14:[f14851<22.5] yes=27,no=28,missing=27
				27:leaf=0.0553652
				28:leaf=-0.0251351
booster[138]:
0:[f12043<87.5] yes=1,no=2,missing=1
	1:[f2060<89.5] yes=3,no=4,missing=3
		3:[f2828<158.5] yes=7,no=8,missing=8
			7:[f21787<16.5] yes=15,no=16,missing=15
				15:leaf=-0.0260065
				16:leaf=0.0362147
			8:[f12030<177.5] yes=17,no=18,missing=17
				17:leaf=0.0780671
				18:leaf=-0.00530652
		4:[f31785<146.5] yes=9,no=10,missing=9
			9:[f12450<133.5] yes=19,no=20,missing=19
				19:leaf=-0.0290324
				20:leaf=0.0549269
			10:[f31849<271.5] yes=21,no=22,missing=21
				21:leaf=0.0375636
				22:leaf=-0.0312807
	2:[f13109<324.5] yes=5,no=6,missing=5
		5:[f3158<98.5] yes=11,no=12,missing=11
			11:[f15401<79.5] yes=23,no=24,missing=23
				23:leaf=-0.030316
				24:leaf=0.0292012
			12:[f26016<86.5] yes=25,no=26,missing=25
				25:leaf=0.0432891
				26:leaf=-0.00170343
		6:[f1713<122.5] yes=13,no=14,missing=13
			13:[f24261<221.5] yes=27,no=28,missing=27
				27:leaf=-0.0067004
				28:leaf=-0.0311006
			14:leaf=0.0132647
booster[139]:
0:leaf=-0.0334818
booster[140]:
0:[f14666<201.5] yes=1,no=2,missing=1
	1:[f29172<206.5] yes=3,no=4,missing=3
		3:[f16719<32.5] yes=7,no=8,missing=7
			7:[f18854<145.5] yes=15,no=16,missing=15
				15:leaf=0.0274006
				16:leaf=-0.0178775
			8:[f30485<90.5] yes=17,no=18,missing=17
				17:leaf=0.0230583
				18:leaf=0.0454784
		4:[f27795<131.5] yes=9,no=10,missing=9
			9:[f3677<55.5] yes=19,no=20,missing=19
				19:leaf=-0.0288773
				20:leaf=0.0429567
			10:[f21133<69.5] yes=21,no=22,missing=21
				21:leaf=-0.0260358
				22:leaf=0.0318213
	2:[f29785<75.5] yes=5,no=6,missing=5
		5:[f10450<104.5] yes=11,no=12,missing=12
			11:[f32843<126.5] yes=23,no=24,missing=23
				23:leaf=0.0656198
				24:leaf=-0.00744418
			12:[f3396<192.5] yes=25,no=26,missing=25
				25:leaf=-0.0295571
				26:leaf=0.018429
		6:[f8599<247.5] yes=13,no=14,missing=13
			13:[f31717<224.5] yes=27,no=28,missing=27
				27:leaf=-0.00619389
				28:leaf=0.0555401
			14:[f14990<311.5] yes=29,no=30,missing=29
				29:leaf=-0.0286215
				30:leaf=0.0428858
booster[141]:
0:[f24618<194.5] yes=1,no=2,missing=1
	1:[f14930<61.5] yes=3,no=4,missing=3
		3:[f30493<22.5] yes=7,no=8,missing=7
			7:[f1707<188.5] yes=13,no=14,missing=13
				13:leaf=-0.0295482
				14:leaf=0.0282073
			8:[f13042<96.5] yes=15,no=16,missing=15
				15:leaf=0.0509357
				16:leaf=-0.021735
		4:leaf=-0.0312313
	2:[f22048<124.5] yes=5,no=6,missing=5
		5:[f4409<101.5] yes=9,no=10,missing=9
			9:[f22990<82.5] yes=17,no=18,missing=17
				17:leaf=-0.028154
				18:leaf=0.0418427
			10:[f20923<74.5] yes=19,no=20,missing=19
				19:leaf=0.0439286
				20:leaf=-0.0214057
		6:[f28488<27.5] yes=11,no=12,missing=12
			11:[f5609<122.5] yes=21,no=22,missing=21
				21:leaf=-0.0236899
				22:leaf=0.0410645
			12:[f21657<139.5] yes=23,no=24,missing=23
				23:leaf=0.0614339
				24:leaf=0.00655097
booster[142]:
0:[f28920<58.5] yes=1,no=2,missing=1
	1:[f21032<31.5] yes=3,no=4,missing=3
		3:[f17748<124.5] yes=7,no=8,missing=7
			7:[f93<161.5] yes=15,no=16,missing=15
				15:leaf=0.014772
				16:leaf=-0.0138056
			8:[f10600<73.5] yes=17,no=18,missing=17
				17:leaf=0.0352776
				18:leaf=-0.0345058
		4:[f22820<34.5] yes=9,no=10,missing=9
			9:[f23217<35.5] yes=19,no=20,missing=19
				19:leaf=0.0398015
				20:leaf=-0.0043236
			10:[f28147<35.5] yes=21,no=22,missing=21
				21:leaf=0.0397735
				22:leaf=-0.0275409
	2:[f18525<28.5] yes=5,no=6,missing=5
		5:[f3699<92.5] yes=11,no=12,missing=11
			11:[f124<305.5] yes=23,no=24,missing=23
				23:leaf=0.00507768
				24:leaf=-0.0281242
			12:leaf=0.058666
		6:[f8706<127.5] yes=13,no=14,missing=13
			13:[f11445<19.5] yes=25,no=26,missing=25
				25:leaf=0.00332052
				26:leaf=-0.0340878
			14:leaf=0.0162702
booster[143]:
0:[f19464<43.5] yes=1,no=2,missing=1
	1:[f20009<66] yes=3,no=4,missing=3
		3:leaf=-0.00825607
		4:leaf=-0.0333942
	2:[f8074<17.5] yes=5,no=6,missing=5
		5:[f25531<11.5] yes=7,no=8,missing=8
			7:[f25588<142.5] yes=11,no=12,missing=11
				11:leaf=0.0396474
				12:leaf=-0.0220726
			8:[f24129<17.5] yes=13,no=14,missing=13
				13:leaf=0.0508042
				14:leaf=-0.0148841
		6:[f6829<13.5] yes=9,no=10,missing=9
			9:[f6927<20.5] yes=15,no=16,missing=16
				15:leaf=0.0488725
				16:leaf=-0.0138422
			10:leaf=-0.0169275
booster[144]:
0:[f11859<266.5] yes=1,no=2,missing=1
