booster[0]:
0:[f22851<70.5] yes=1,no=2,missing=1
	1:[f16037<1.5] yes=3,no=4,missing=3
		3:[f9721<47.5] yes=7,no=8,missing=7
			7:leaf=0.0840514377
			8:leaf=-0.0198492352
		4:leaf=-0.0355861969
	2:[f25122<210.5] yes=5,no=6,missing=6
		5:[f24204<7.5] yes=9,no=10,missing=10
			9:leaf=-0.0216672905
			10:[f196<333.5] yes=13,no=14,missing=14
				13:leaf=0.0149733396
				14:leaf=0.182944447
		6:[f21468<29.5] yes=11,no=12,missing=12
			11:leaf=0.107683465
			12:[f947<167] yes=15,no=16,missing=16
				15:leaf=-0.0214772802
				16:leaf=0.0602240898
booster[1]:
0:[f1160<298.5] yes=1,no=2,missing=1
	1:[f434<87.5] yes=3,no=4,missing=3
		3:leaf=-0.0353546515
		4:leaf=0.00134149147
	2:[f26718<6.5] yes=5,no=6,missing=6
		5:[f24748<253.5] yes=7,no=8,missing=7
			7:[f14739<59.5] yes=11,no=12,missing=11
				11:leaf=0.0524949506
				12:leaf=-0.0198636167
			8:[f18033<21.5] yes=13,no=14,missing=14
				13:leaf=0.225096568
				14:leaf=0.0448365696
		6:[f21769<31.5] yes=9,no=10,missing=10
			9:[f29254<45.5] yes=15,no=16,missing=16
				15:leaf=0.0556166358
				16:leaf=0.207231194
			10:[f7042<152.5] yes=17,no=18,missing=18
				17:leaf=0.0226471983
				18:leaf=0.107861839
booster[2]:
0:[f14757<66.5] yes=1,no=2,missing=1
	1:[f20175<33.5] yes=3,no=4,missing=3
		3:[f19482<17.5] yes=7,no=8,missing=8
			7:leaf=-0.0321638733
			8:leaf=0.00578676723
		4:[f7619<38] yes=9,no=10,missing=10
			9:[f14494<106.5] yes=15,no=16,missing=15
				15:leaf=0.175918326
				16:leaf=0.00082537072
			10:leaf=0.00949022826
	2:[f26551<296.5] yes=5,no=6,missing=5
		5:[f5891<38.5] yes=11,no=12,missing=12
			11:[f10082<95.5] yes=17,no=18,missing=17
				17:leaf=-0.0307980925
				18:leaf=0.136161298
			12:[f29252<57.5] yes=19,no=20,missing=20
				19:leaf=-0.0345523506
				20:leaf=0.0523428544
		6:[f5076<240] yes=13,no=14,missing=13
			13:leaf=0.0284874514
			14:leaf=0.170679674
booster[3]:
0:[f20360<315] yes=1,no=2,missing=1
	1:[f20086<126.5] yes=3,no=4,missing=3
		3:[f4186<6.5] yes=7,no=8,missing=7
			7:[f16242<10.5] yes=13,no=14,missing=13
				13:leaf=-0.0221553687
				14:leaf=0.17849201
			8:[f16037<386] yes=15,no=16,missing=16
				15:leaf=-0.0290365592
				16:leaf=0.0924870744
		4:leaf=0.214614898
	2:[f13120<415] yes=5,no=6,missing=5
		5:[f660<20.5] yes=9,no=10,missing=9
			9:leaf=0.0585180037
			10:leaf=0.239510104
		6:[f8450<526.5] yes=11,no=12,missing=12
			11:leaf=-0.0184698626
			12:leaf=0.0602251664
booster[4]:
0:[f21136<1.5] yes=1,no=2,missing=2
	1:[f12598<62.5] yes=3,no=4,missing=4
		3:[f15379<126.5] yes=7,no=8,missing=7
			7:leaf=-0.00601199642
			8:leaf=0.221703693
		4:[f7176<41.5] yes=9,no=10,missing=9
			9:[f17433<16.5] yes=15,no=16,missing=15
				15:leaf=0.0545004643
				16:leaf=-0.0331695639
			10:leaf=0.135964185
	2:[f24457<10.5] yes=5,no=6,missing=5
		5:[f1005<77] yes=11,no=12,missing=12
			11:leaf=0.144185334
			12:leaf=-0.0232611932
		6:[f485<381.5] yes=13,no=14,missing=13
			13:leaf=-0.0355853289
			14:[f294<666.5] yes=17,no=18,missing=17
				17:leaf=0.0307033453
				18:leaf=-0.0228099134
booster[5]:
0:[f8740<155.5] yes=1,no=2,missing=1
	1:[f3389<147.5] yes=3,no=4,missing=3
		3:[f27808<74.5] yes=7,no=8,missing=7
			7:[f27456<305.5] yes=13,no=14,missing=13
				13:leaf=-0.0297480021
				14:leaf=0.0912554041
			8:[f20737<279.5] yes=15,no=16,missing=16
				15:leaf=0.138476014
				16:leaf=-0.0154078444
		4:[f29606<98.5] yes=9,no=10,missing=9
			9:[f6864<150.5] yes=17,no=18,missing=17
				17:leaf=-0.00622853357
				18:leaf=0.191336274
			10:[f22866<8.5] yes=19,no=20,missing=20
				19:leaf=0.00106017152
				20:leaf=0.116576992
	2:[f18248<45.5] yes=5,no=6,missing=5
		5:[f141<450.5] yes=11,no=12,missing=12
			11:leaf=-0.0185267664
			12:leaf=0.0164163169
		6:leaf=0.225205064
booster[6]:
0:[f8680<36.5] yes=1,no=2,missing=1
	1:[f23466<2.5] yes=3,no=4,missing=3
		3:[f7618<31.5] yes=7,no=8,missing=7
			7:[f962<16] yes=15,no=16,missing=16
				15:leaf=0.00889492687
				16:leaf=-0.0259947218
			8:leaf=0.0803130046
		4:[f28095<135.5] yes=9,no=10,missing=9
			9:[f21351<145] yes=17,no=18,missing=18
				17:leaf=0.240884051
				18:leaf=0.0562116578
			10:[f16703<56.5] yes=19,no=20,missing=19
				19:leaf=-0.00625923462
				20:leaf=0.157260403
	2:[f26605<102.5] yes=5,no=6,missing=5
		5:[f9428<64.5] yes=11,no=12,missing=12
			11:[f27984<35.5] yes=21,no=22,missing=22
				21:leaf=0.029268261
				22:leaf=0.177945092
			12:[f27383<2.5] yes=23,no=24,missing=23
				23:leaf=0.091307871
				24:leaf=-0.0267883297
		6:[f11689<32.5] yes=13,no=14,missing=14
			13:[f27688<420.5] yes=25,no=26,missing=26
				25:leaf=0.112195313
				26:leaf=0.0194947049
			14:[f458<7.5] yes=27,no=28,missing=28
				27:leaf=0.017531326
				28:leaf=0.19613418
booster[7]:
0:leaf=-0.035598278
booster[8]:
0:[f22851<70.5] yes=1,no=2,missing=1
	1:[f16037<1.5] yes=3,no=4,missing=3
		3:[f19976<205] yes=7,no=8,missing=8
			7:leaf=0.0837177411
			8:leaf=-0.0202429779
		4:leaf=-0.0354017951
	2:[f25122<210.5] yes=5,no=6,missing=6
		5:[f24204<7.5] yes=9,no=10,missing=10
			9:leaf=-0.0216603354
			10:[f15908<53.5] yes=13,no=14,missing=13
				13:leaf=0.153493762
				14:leaf=0.000112441179
		6:[f21468<29.5] yes=11,no=12,missing=12
			11:leaf=0.0988010094
			12:[f947<167] yes=15,no=16,missing=16
				15:leaf=-0.0212134626
				16:leaf=0.0581999533
booster[9]:
0:[f1160<298.5] yes=1,no=2,missing=1
	1:[f155<205.5] yes=3,no=4,missing=3
		3:leaf=-0.0351650491
		4:leaf=0.00161890616
	2:[f18376<57.5] yes=5,no=6,missing=6
		5:[f32869<128.5] yes=7,no=8,missing=8
			7:[f2090<64.5] yes=11,no=12,missing=12
				11:leaf=0.0760998577
				12:leaf=0.164825127
			8:[f5716<31.5] yes=13,no=14,missing=14
				13:leaf=0.0292930491
				14:leaf=0.115050361
		6:[f4689<93.5] yes=9,no=10,missing=10
			9:[f22281<50.5] yes=15,no=16,missing=16
				15:leaf=0.00406932039
				16:leaf=0.141592845
			10:[f27476<290.5] yes=17,no=18,missing=18
				17:leaf=-0.0232637487
				18:leaf=0.0644247383
booster[10]:
0:[f14757<66.5] yes=1,no=2,missing=1
	1:[f20175<33.5] yes=3,no=4,missing=3
		3:[f24748<73] yes=7,no=8,missing=7
			7:leaf=-0.0319334902
			8:leaf=0.00583680626
		4:[f7619<38] yes=9,no=10,missing=10
			9:[f27380<44.5] yes=15,no=16,missing=15
				15:leaf=0.150540814
				16:leaf=0.0115661621
			10:leaf=0.00902186614
	2:[f26551<296.5] yes=5,no=6,missing=5
		5:[f5891<38.5] yes=11,no=12,missing=12
			11:[f10082<95.5] yes=17,no=18,missing=17
				17:leaf=-0.0305132698
				18:leaf=0.120059349
			12:[f29252<57.5] yes=19,no=20,missing=20
				19:leaf=-0.0343447104
				20:leaf=0.0508318618
		6:[f13259<195] yes=13,no=14,missing=13
			13:leaf=0.0270528588
			14:leaf=0.152080089
booster[11]:
0:[f25821<236] yes=1,no=2,missing=1
	1:[f2793<416.5] yes=3,no=4,missing=3
		3:[f17182<3.5] yes=7,no=8,missing=7
			7:[f5113<2.5] yes=13,no=14,missing=13
				13:leaf=0.0184000377
				14:leaf=0.139538124
			8:[f16037<386] yes=15,no=16,missing=16
				15:leaf=-0.0290533658
				16:leaf=0.085154891
		4:leaf=0.173990771
	2:[f19780<149.5] yes=5,no=6,missing=6
		5:[f112<10.5] yes=9,no=10,missing=10
			9:leaf=0.00243605487
			10:leaf=-0.0191808101
		6:[f20062<215.5] yes=11,no=12,missing=12
			11:[f20960<55] yes=17,no=18,missing=18
				17:leaf=0.0316126011
				18:leaf=0.192507178
			12:leaf=0.00551254256
booster[12]:
0:[f21136<1.5] yes=1,no=2,missing=2
	1:[f22857<6.5] yes=3,no=4,missing=4
		3:[f29018<39.5] yes=7,no=8,missing=8
			7:leaf=-0.0244920906
			8:[f22982<63.5] yes=15,no=16,missing=16
				15:leaf=0.186099261
				16:leaf=0.00401836028
		4:[f30876<184.5] yes=9,no=10,missing=10
			9:leaf=0.0766177401
			10:leaf=-0.0326747
	2:[f24457<10.5] yes=5,no=6,missing=5
		5:[f1005<77] yes=11,no=12,missing=12
			11:leaf=0.132083729
			12:leaf=-0.0230171345
		6:[f485<381.5] yes=13,no=14,missing=13
			13:leaf=-0.0354045779
			14:[f1058<124.5] yes=17,no=18,missing=17
				17:leaf=0.0307982061
				18:leaf=-0.0226816423
booster[13]:
0:[f8740<155.5] yes=1,no=2,missing=1
	1:[f3389<147.5] yes=3,no=4,missing=3
		3:[f27808<74.5] yes=7,no=8,missing=7
			7:[f27456<305.5] yes=13,no=14,missing=13
				13:leaf=-0.0294519793
				14:leaf=0.0861908346
			8:[f29773<40.5] yes=15,no=16,missing=15
				15:leaf=0.124832079
				16:leaf=-0.0124042658
		4:[f29606<98.5] yes=9,no=10,missing=9
			9:[f6864<150.5] yes=17,no=18,missing=17
				17:leaf=-0.00599109801
				18:leaf=0.161819488
			10:[f22866<8.5] yes=19,no=20,missing=20
				19:leaf=0.000907579088
				20:leaf=0.10447
	2:[f18248<45.5] yes=5,no=6,missing=5
		5:[f1124<35.5] yes=11,no=12,missing=12
			11:leaf=-0.0195143726
			12:leaf=0.0191514827
		6:leaf=0.184176475
booster[14]:
0:[f7793<86.5] yes=1,no=2,missing=1
	1:[f12778<30.5] yes=3,no=4,missing=3
		3:[f18984<10.5] yes=7,no=8,missing=8
			7:[f5665<1.5] yes=15,no=16,missing=16
				15:leaf=0.0349134356
				16:leaf=0.157702461
			8:[f21624<56.5] yes=17,no=18,missing=18
				17:leaf=0.0501676239
				18:leaf=-0.0227216668
		4:[f29809<93.5] yes=9,no=10,missing=10
			9:[f19724<165] yes=19,no=20,missing=20
				19:leaf=0.193970278
				20:leaf=0.0294554867
			10:[f7891<130.5] yes=21,no=22,missing=21
				21:leaf=-0.00924303569
				22:leaf=0.132611379
	2:[f18064<56.5] yes=5,no=6,missing=6
		5:[f22810<2.5] yes=11,no=12,missing=12
			11:leaf=0.114986539
			12:[f1349<97.5] yes=23,no=24,missing=23
				23:leaf=-0.0257642027
				24:leaf=0.0871870071
		6:[f5659<88.5] yes=13,no=14,missing=14
			13:[f26774<56.5] yes=25,no=26,missing=26
				25:leaf=0.063353993
				26:leaf=0.176891223
			14:[f13668<364.5] yes=27,no=28,missing=28
				27:leaf=0.0761388913
				28:leaf=-0.0128384745
booster[15]:
0:leaf=-0.0354152322
booster[16]:
0:[f22851<70.5] yes=1,no=2,missing=1
	1:[f16037<1.5] yes=3,no=4,missing=3
		3:[f10502<42.5] yes=7,no=8,missing=8
			7:leaf=0.0836971924
			8:leaf=-0.0206520557
		4:leaf=-0.0352247544
	2:[f1648<122.5] yes=5,no=6,missing=5
		5:[f29314<48.5] yes=9,no=10,missing=9
			9:[f13285<69.5] yes=13,no=14,missing=14
				13:leaf=0.0844797939
				14:leaf=-0.0148370322
			10:[f814<216.5] yes=15,no=16,missing=16
				15:leaf=0.000868106028
				16:leaf=0.149576992
		6:[f22610<28.5] yes=11,no=12,missing=12
			11:leaf=-0.030853644
			12:leaf=0.0428452864
booster[17]:
0:[f1160<298.5] yes=1,no=2,missing=1
	1:[f434<87.5] yes=3,no=4,missing=3
		3:leaf=-0.0349780656
		4:leaf=0.00189817941
	2:[f18376<57.5] yes=5,no=6,missing=6
		5:[f26914<27.5] yes=7,no=8,missing=8
			7:[f5642<39.5] yes=11,no=12,missing=12
				11:leaf=-0.0118852751
				12:leaf=0.0719138235
			8:[f30263<66.5] yes=13,no=14,missing=13
				13:leaf=0.113532782
				14:leaf=-0.0055912449
		6:[f9965<10.5] yes=9,no=10,missing=10
			9:[f10767<133.5] yes=15,no=16,missing=16
				15:leaf=-0.0193120409
				16:leaf=0.126485944
			10:[f32237<55.5] yes=17,no=18,missing=18
				17:leaf=0.0566550232
				18:leaf=-0.0231071431
booster[18]:
0:[f14757<66.5] yes=1,no=2,missing=1
	1:[f977<32] yes=3,no=4,missing=3
		3:[f12047<23.5] yes=7,no=8,missing=8
			7:leaf=-0.0317865461
			8:leaf=0.0058965697
		4:[f14105<42] yes=9,no=10,missing=9
			9:[f32407<179.5] yes=15,no=16,missing=15
				15:leaf=0.1331736
				16:leaf=0.0332768448
			10:leaf=-0.018358808
	2:[f13951<193.5] yes=5,no=6,missing=6
		5:[f5891<38.5] yes=11,no=12,missing=12
			11:[f10082<95.5] yes=17,no=18,missing=17
				17:leaf=-0.0301813595
				18:leaf=0.11052347
			12:[f3634<217] yes=19,no=20,missing=19
				19:leaf=-0.0343918242
				20:leaf=0.0200778395
		6:[f19659<14.5] yes=13,no=14,missing=14
			13:leaf=0.141083792
			14:leaf=-0.00426715193
booster[19]:
0:[f9338<61.5] yes=1,no=2,missing=1
	1:[f24265<149.5] yes=3,no=4,missing=4
		3:[f19923<2.5] yes=7,no=8,missing=8
			7:[f6575<89.5] yes=15,no=16,missing=16
				15:leaf=-0.0176115129
				16:leaf=0.119541503
			8:[f14252<515.5] yes=17,no=18,missing=17
				17:leaf=-0.0310706533
				18:leaf=0.0593802892
		4:[f10238<70.5] yes=9,no=10,missing=9
			9:leaf=0.154086366
			10:leaf=-0.0234389435
	2:[f16885<129.5] yes=5,no=6,missing=6
		5:[f24963<58.5] yes=11,no=12,missing=11
			11:[f11113<4] yes=19,no=20,missing=19
				19:leaf=0.0225666612
				20:leaf=-0.0247141477
			12:[f20929<6.5] yes=21,no=22,missing=22
				21:leaf=0.00782804005
				22:leaf=0.155746251
		6:[f2475<89.5] yes=13,no=14,missing=13
			13:leaf=-0.0325108059
			14:leaf=0.0553044155
booster[20]:
0:[f21136<1.5] yes=1,no=2,missing=2
	1:[f22857<6.5] yes=3,no=4,missing=4
		3:[f29018<39.5] yes=7,no=8,missing=8
			7:leaf=-0.0242456943
			8:[f22571<31.5] yes=15,no=16,missing=16
				15:leaf=0.158535391
				16:leaf=0.00365295587
		4:[f30876<184.5] yes=9,no=10,missing=10
			9:leaf=0.0731106699
			10:leaf=-0.0324523523
	2:[f24457<10.5] yes=5,no=6,missing=5
		5:[f1005<77] yes=11,no=12,missing=12
			11:leaf=0.120778337
			12:leaf=-0.0227797497
		6:[f485<381.5] yes=13,no=14,missing=13
			13:leaf=-0.0352296978
			14:[f11196<135.5] yes=17,no=18,missing=18
				17:leaf=0.0307750814
				18:leaf=-0.0225579608
booster[21]:
0:[f30743<98.5] yes=1,no=2,missing=1
	1:[f21260<374.5] yes=3,no=4,missing=3
		3:[f27457<292.5] yes=7,no=8,missing=7
			7:[f3756<141.5] yes=13,no=14,missing=13
				13:leaf=-0.0350715816
				14:leaf=-0.000490511884
			8:leaf=0.0102079082
		4:leaf=0.0302607566
	2:[f4147<62.5] yes=5,no=6,missing=5
		5:[f8324<54.5] yes=9,no=10,missing=10
			9:[f3389<144.5] yes=15,no=16,missing=15
				15:leaf=-0.0168864466
				16:leaf=0.10841231
			10:[f18323<51.5] yes=17,no=18,missing=18
				17:leaf=-0.00543341599
				18:leaf=0.101654448
		6:[f10578<88] yes=11,no=12,missing=12
			11:[f18248<10.5] yes=19,no=20,missing=19
				19:leaf=-0.00956707355
				20:leaf=0.166548595
			12:[f5791<185] yes=21,no=22,missing=22
				21:leaf=0.00411135936
				22:leaf=-0.0254891403
booster[22]:
0:[f7793<86.5] yes=1,no=2,missing=1
	1:[f27184<256] yes=3,no=4,missing=3
		3:[f17410<22.5] yes=7,no=8,missing=7
			7:[f10018<6.5] yes=15,no=16,missing=15
				15:leaf=0.0377880409
				16:leaf=-0.0241175257
			8:[f1186<77] yes=17,no=18,missing=17
				17:leaf=0.161521733
				18:leaf=0.0348296054
		4:[f15112<135.5] yes=9,no=10,missing=10
			9:[f21139<15.5] yes=19,no=20,missing=20
				19:leaf=0.0530950055
				20:leaf=-0.0242542438
			10:leaf=0.104404673
	2:[f18064<56.5] yes=5,no=6,missing=6
		5:[f22810<2.5] yes=11,no=12,missing=12
			11:[f14820<28.5] yes=21,no=22,missing=22
				21:leaf=0.0284959767
				22:leaf=0.122943774
			12:[f31404<19.5] yes=23,no=24,missing=24
				23:leaf=0.0451404192
				24:leaf=-0.0271560177
		6:[f5659<88.5] yes=13,no=14,missing=14
			13:[f26774<56.5] yes=25,no=26,missing=26
				25:leaf=0.0580370463
				26:leaf=0.150020733
			14:[f13668<364.5] yes=27,no=28,missing=28
				27:leaf=0.0695708916
				28:leaf=-0.012570045
booster[23]:
0:leaf=-0.035238862
booster[24]:
0:[f22851<69.5] yes=1,no=2,missing=1
	1:[f16037<1.5] yes=3,no=4,missing=4
		3:leaf=0.0178533662
		4:leaf=-0.0350524075
	2:[f1648<122.5] yes=5,no=6,missing=5
		5:[f29314<48.5] yes=7,no=8,missing=7
			7:[f13285<69.5] yes=11,no=12,missing=12
				11:leaf=0.0731795505
				12:leaf=-0.0150301559
			8:[f23660<51.5] yes=13,no=14,missing=13
				13:leaf=-0.0187444445
				14:leaf=0.131959006
		6:[f27564<78.5] yes=9,no=10,missing=10
			9:leaf=0.0420640074
			10:leaf=-0.0312092993
booster[25]:
0:[f1160<298.5] yes=1,no=2,missing=1
	1:[f155<205.5] yes=3,no=4,missing=3
		3:leaf=-0.034797404
		4:leaf=0.00212080777
	2:[f18376<57.5] yes=5,no=6,missing=6
		5:[f9276<12.5] yes=7,no=8,missing=8
			7:[f27987<164.5] yes=11,no=12,missing=11
				11:leaf=-0.00400702795
				12:leaf=0.0736658424
			8:[f15465<63.5] yes=13,no=14,missing=14
				13:leaf=0.101755977
				14:leaf=0.00605723355
		6:[f4689<93.5] yes=9,no=10,missing=10
			9:[f7562<198.5] yes=15,no=16,missing=16
				15:leaf=0.119921587
				16:leaf=0.00314862607
			10:[f27476<290.5] yes=17,no=18,missing=18
				17:leaf=-0.0227955412
				18:leaf=0.0591781065
booster[26]:
0:[f14757<66.5] yes=1,no=2,missing=1
	1:[f977<32] yes=3,no=4,missing=3
		3:[f8913<74] yes=7,no=8,missing=8
			7:leaf=-0.0315774791
			8:leaf=0.00593614904
		4:[f7619<37.5] yes=9,no=10,missing=10
			9:[f14494<106.5] yes=15,no=16,missing=15
				15:leaf=0.116173595
				16:leaf=-0.00271294592
			10:[f7282<51] yes=17,no=18,missing=17
				17:leaf=-0.0191171672
				18:leaf=0.0291419104
	2:[f17957<185.5] yes=5,no=6,missing=5
		5:[f25017<55.5] yes=11,no=12,missing=11
			11:[f30403<89] yes=19,no=20,missing=19
				19:leaf=-0.0325100124
				20:leaf=0.0839043036
			12:[f4406<130] yes=21,no=22,missing=22
				21:leaf=-0.0346049182
				22:leaf=-0.00102959131
		6:[f29273<15.5] yes=13,no=14,missing=13
			13:[f2538<34.5] yes=23,no=24,missing=23
				23:leaf=-0.0149158388
				24:leaf=0.116916396
			14:leaf=-0.028214829
booster[27]:
0:[f9338<61.5] yes=1,no=2,missing=1
	1:[f24265<149.5] yes=3,no=4,missing=4
		3:[f19923<2.5] yes=7,no=8,missing=8
			7:[f6575<89.5] yes=15,no=16,missing=16
				15:leaf=-0.0173044261
				16:leaf=0.109975606
			8:[f19425<156.5] yes=17,no=18,missing=17
				17:leaf=-0.0311373509
				18:leaf=0.036037419
		4:[f10238<70.5] yes=9,no=10,missing=9
			9:leaf=0.136670887
			10:leaf=-0.0231924411
	2:[f16885<129.5] yes=5,no=6,missing=6
		5:[f24963<58.5] yes=11,no=12,missing=11
			11:[f3723<17] yes=19,no=20,missing=20
				19:leaf=-0.0245894939
				20:leaf=0.0224928036
			12:[f20929<6.5] yes=21,no=22,missing=22
				21:leaf=0.00724314339
				22:leaf=0.133951038
		6:[f1563<111] yes=13,no=14,missing=14
			13:leaf=-0.032289248
			14:leaf=0.0550242625
booster[28]:
0:[f21136<1.5] yes=1,no=2,missing=2
	1:[f22857<6.5] yes=3,no=4,missing=4
		3:[f9132<48.5] yes=7,no=8,missing=8
			7:leaf=-0.0241802931
			8:[f4120<107.5] yes=15,no=16,missing=15
				15:leaf=0.141544819
				16:leaf=-0.0190823395
		4:[f30876<184.5] yes=9,no=10,missing=10
			9:leaf=0.0701072961
			10:leaf=-0.0322357938
	2:[f24457<10.5] yes=5,no=6,missing=5
		5:[f1005<77] yes=11,no=12,missing=12
			11:leaf=0.111523382
			12:leaf=-0.022491809
		6:[f485<381.5] yes=13,no=14,missing=13
			13:leaf=-0.0350588672
			14:[f29126<340] yes=17,no=18,missing=18
				17:leaf=0.0307459198
				18:leaf=-0.022472363
booster[29]:
0:[f30743<98.5] yes=1,no=2,missing=1
	1:[f21260<374.5] yes=3,no=4,missing=3
		3:[f27457<292.5] yes=7,no=8,missing=7
			7:[f3756<141.5] yes=13,no=14,missing=13
				13:leaf=-0.0348909833
				14:leaf=-0.000519386842
			8:leaf=0.0100475531
		4:leaf=0.0292408019
	2:[f4147<62.5] yes=5,no=6,missing=5
		5:[f23081<59.5] yes=9,no=10,missing=10
			9:[f25884<15.5] yes=15,no=16,missing=15
				15:leaf=0.0847842023
				16:leaf=-0.00213413895
			10:[f26498<93.5] yes=17,no=18,missing=17
				17:leaf=0.13115643
				18:leaf=-0.00195473619
		6:[f30215<64.5] yes=11,no=12,missing=11
			11:[f18248<10.5] yes=19,no=20,missing=19
				19:leaf=-0.00953054335
				20:leaf=0.14162077
			12:leaf=-0.0265786499
booster[30]:
0:[f5077<101.5] yes=1,no=2,missing=1
	1:[f28007<291] yes=3,no=4,missing=3
		3:[f17410<24.5] yes=7,no=8,missing=7
			7:[f7614<9.5] yes=15,no=16,missing=15
				15:leaf=-0.0278788041
				16:leaf=0.0759532973
			8:[f5245<49.5] yes=17,no=18,missing=17
				17:leaf=0.136067376
				18:leaf=-0.00867011305
		4:[f30525<60] yes=9,no=10,missing=9
			9:leaf=-0.0301331133
			10:leaf=0.00189565355
	2:[f26605<102.5] yes=5,no=6,missing=5
		5:[f30397<3.5] yes=11,no=12,missing=11
			11:[f9243<160.5] yes=19,no=20,missing=20
				19:leaf=0.00523729762
				20:leaf=0.122252673
			12:[f8120<61.5] yes=21,no=22,missing=22
				21:leaf=-0.0297022611
				22:leaf=0.077553235
		6:[f25677<8.5] yes=13,no=14,missing=14
			13:[f5661<39.5] yes=23,no=24,missing=24
				23:leaf=0.0857742801
				24:leaf=-0.0208492614
			14:[f27596<179.5] yes=25,no=26,missing=26
				25:leaf=0.0852017701
				26:leaf=-0.00377205457
booster[31]:
0:leaf=-0.0350671485
booster[32]:
0:[f22851<69.5] yes=1,no=2,missing=1
	1:[f16037<1.5] yes=3,no=4,missing=4
		3:leaf=0.0173226055
		4:leaf=-0.0348867364
	2:[f1648<122.5] yes=5,no=6,missing=5
		5:[f6138<25.5] yes=7,no=8,missing=7
			7:[f26070<14.5] yes=11,no=12,missing=12
				11:leaf=-0.0152038448
				12:leaf=0.0731559247
			8:[f15824<21.5] yes=13,no=14,missing=14
				13:leaf=0.105626956
				14:leaf=-0.0222760495
		6:[f29547<45.5] yes=9,no=10,missing=9
			9:leaf=-0.0310675614
			10:leaf=0.0425481983
booster[33]:
0:[f14335<322.5] yes=1,no=2,missing=1
	1:[f6328<237.5] yes=3,no=4,missing=3
		3:[f2182<242] yes=7,no=8,missing=7
			7:leaf=-0.0347353853
			8:leaf=-0.00420513423
		4:leaf=0.0321272053
	2:[f11416<78.5] yes=5,no=6,missing=6
		5:[f19421<40.5] yes=9,no=10,missing=10
			9:[f14947<85.5] yes=13,no=14,missing=14
				13:leaf=-0.0243628137
				14:leaf=0.0983275399
			10:[f28361<66.5] yes=15,no=16,missing=15
				15:leaf=0.00599032594
				16:leaf=0.0994550884
		6:[f21523<40.5] yes=11,no=12,missing=12
			11:[f18248<2] yes=17,no=18,missing=17
				17:leaf=0.128976181
				18:leaf=0.019145526
			12:[f8252<56.5] yes=19,no=20,missing=20
				19:leaf=-0.0181245338
				20:leaf=0.0423240215
booster[34]:
0:[f14757<66.5] yes=1,no=2,missing=1
	1:[f20175<33.5] yes=3,no=4,missing=3
		3:[f14706<1.5] yes=7,no=8,missing=8
			7:leaf=0.00597239519
			8:leaf=-0.0313532129
		4:[f29987<194.5] yes=9,no=10,missing=9
			9:[f8020<13] yes=15,no=16,missing=15
				15:leaf=0.101613238
				16:leaf=-0.0183495861
			10:leaf=-0.0141337533
	2:[f7028<85.5] yes=5,no=6,missing=5
		5:[f20374<270.5] yes=11,no=12,missing=11
			11:[f7814<52.5] yes=17,no=18,missing=17
				17:leaf=-0.000773399195
				18:leaf=-0.0339582786
			12:leaf=0.0644532144
		6:[f8467<51.5] yes=13,no=14,missing=14
			13:[f19478<11.5] yes=19,no=20,missing=20
				19:leaf=0.121860854
				20:leaf=0.021528814
			14:[f30652<167.5] yes=21,no=22,missing=22
				21:leaf=-0.0296966713
				22:leaf=0.0517512225
booster[35]:
0:[f9338<61.5] yes=1,no=2,missing=1
	1:[f24265<149.5] yes=3,no=4,missing=4
		3:[f22377<58.5] yes=7,no=8,missing=8
			7:[f2460<90.5] yes=15,no=16,missing=15
				15:leaf=-0.0322153531
				16:leaf=0.0322264731
			8:[f21848<39.5] yes=17,no=18,missing=18
				17:leaf=0.0935070664
				18:leaf=-0.0159743913
		4:[f10238<70.5] yes=9,no=10,missing=9
			9:leaf=0.122414291
			10:leaf=-0.022949446
	2:[f16885<129.5] yes=5,no=6,missing=6
		5:[f7837<56.5] yes=11,no=12,missing=11
			11:[f13040<10.5] yes=19,no=20,missing=20
				19:leaf=0.0952184051
				20:leaf=-0.0284985825
			12:[f23304<18.5] yes=21,no=22,missing=21
				21:leaf=-0.00134048937
				22:leaf=0.118145861
		6:[f2630<151] yes=13,no=14,missing=14
			13:leaf=-0.0320988484
			14:leaf=0.0548100136
booster[36]:
0:[f21136<1.5] yes=1,no=2,missing=2
	1:[f22857<6.5] yes=3,no=4,missing=4
		3:[f9132<48.5] yes=7,no=8,missing=8
			7:leaf=-0.0239600465
			8:[f4120<107.5] yes=15,no=16,missing=15
				15:leaf=0.126500562
				16:leaf=-0.0188462175
		4:[f32794<69.5] yes=9,no=10,missing=10
			9:leaf=0.0672929883
			10:leaf=-0.0320542008
	2:[f24457<10.5] yes=5,no=6,missing=5
		5:[f1005<77] yes=11,no=12,missing=12
			11:leaf=0.103946969
			12:leaf=-0.0222370569
		6:[f485<381.5] yes=13,no=14,missing=13
			13:leaf=-0.0348946527
			14:[f21186<104.5] yes=17,no=18,missing=17
				17:leaf=0.0307175405
				18:leaf=-0.0224175341
booster[37]:
0:[f30743<98.5] yes=1,no=2,missing=1
	1:[f21260<374.5] yes=3,no=4,missing=3
		3:[f27457<292.5] yes=7,no=8,missing=7
			7:[f3756<141.5] yes=13,no=14,missing=13
				13:leaf=-0.0347150899
				14:leaf=-0.000391611888
			8:leaf=0.00979609136
		4:leaf=0.0283661485
	2:[f4147<62.5] yes=5,no=6,missing=5
		5:[f4737<78.5] yes=9,no=10,missing=10
			9:[f1194<76.5] yes=15,no=16,missing=16
				15:leaf=0.0632375404
				16:leaf=-0.00588042801
			10:[f2251<156.5] yes=17,no=18,missing=17
				17:leaf=0.139157608
				18:leaf=-0.0220705811
		6:[f10578<88] yes=11,no=12,missing=12
			11:[f18248<10.5] yes=19,no=20,missing=19
				19:leaf=-0.00951732788
				20:leaf=0.12711373
			12:[f24438<83.5] yes=21,no=22,missing=21
				21:leaf=-0.0255066436
				22:leaf=0.00412140181
booster[38]:
0:[f22614<38.5] yes=1,no=2,missing=1
	1:[f458<10.5] yes=3,no=4,missing=3
		3:[f2501<87.5] yes=7,no=8,missing=8
			7:[f10642<63.5] yes=15,no=16,missing=15
				15:leaf=0.0553004891
				16:leaf=-0.000236492808
			8:[f22551<36.5] yes=17,no=18,missing=18
				17:leaf=0.120414495
				18:leaf=0.00265538925
		4:[f19478<162] yes=9,no=10,missing=10
			9:[f24331<179.5] yes=19,no=20,missing=19
				19:leaf=0.119532511
				20:leaf=-0.0122829424
			10:[f20262<84.5] yes=21,no=22,missing=22
				21:leaf=0.0804079995
				22:leaf=-0.0296527594
	2:[f19516<43.5] yes=5,no=6,missing=6
		5:[f2178<54.5] yes=11,no=12,missing=11
			11:[f21022<137] yes=23,no=24,missing=24
				23:leaf=0.100830875
				24:leaf=0.00340815634
			12:[f5225<86.5] yes=25,no=26,missing=26
				25:leaf=-0.0276155807
				26:leaf=0.0891756043
		6:[f9060<172.5] yes=13,no=14,missing=14
			13:[f30775<19.5] yes=27,no=28,missing=28
				27:leaf=7.94785046e-06
				28:leaf=0.12090341
			14:[f32743<255.5] yes=29,no=30,missing=30
				29:leaf=-0.0306580253
				30:leaf=0.0296719857
booster[39]:
0:leaf=-0.0349014513
booster[40]:
0:[f22851<69.5] yes=1,no=2,missing=1
	1:[f16037<1.5] yes=3,no=4,missing=4
		3:leaf=0.0168311186
		4:leaf=-0.0347268209
	2:[f1648<122.5] yes=5,no=6,missing=5
		5:[f29314<48.5] yes=7,no=8,missing=7
			7:[f13285<69.5] yes=11,no=12,missing=12
				11:leaf=0.0623657666
				12:leaf=-0.0154844569
			8:[f23660<51.5] yes=13,no=14,missing=13
				13:leaf=-0.0190460533
				14:leaf=0.107432559
		6:[f29547<45.5] yes=9,no=10,missing=9
			9:leaf=-0.0308504477
			10:leaf=0.0410953127
booster[41]:
0:[f1160<298.5] yes=1,no=2,missing=1
	1:[f155<205.5] yes=3,no=4,missing=3
		3:leaf=-0.0344607905
		4:leaf=0.00201903353
	2:[f18376<57.5] yes=5,no=6,missing=6
		5:[f641<114.5] yes=7,no=8,missing=8
			7:[f25432<250.5] yes=11,no=12,missing=11
				11:leaf=-0.0144145973
				12:leaf=0.0577976443
			8:[f30201<48.5] yes=13,no=14,missing=13
				13:leaf=0.082699582
				14:leaf=0.0175996944
		6:[f9965<10.5] yes=9,no=10,missing=10
			9:[f13037<163.5] yes=15,no=16,missing=16
				15:leaf=-0.0193301011
				16:leaf=0.10360191
			10:[f22290<181.5] yes=17,no=18,missing=18
				17:leaf=-0.0210149381
				18:leaf=0.0637856871
booster[42]:
0:[f14757<66.5] yes=1,no=2,missing=1
	1:[f6047<25.5] yes=3,no=4,missing=3
		3:[f814<1.5] yes=7,no=8,missing=8
			7:leaf=0.00600546692
			8:leaf=-0.0313226022
		4:[f29972<169.5] yes=9,no=10,missing=10
			9:[f17575<10.5] yes=15,no=16,missing=15
				15:leaf=0.0945982486
				16:leaf=-0.00486404262
			10:leaf=-0.00755248033
	2:[f17957<185.5] yes=5,no=6,missing=5
		5:[f25017<55.5] yes=11,no=12,missing=11
			11:[f30403<89] yes=17,no=18,missing=17
				17:leaf=-0.0321566276
				18:leaf=0.0762900785
			12:[f4406<130] yes=19,no=20,missing=20
				19:leaf=-0.0342584886
				20:leaf=4.16113471e-05
		6:[f29273<15.5] yes=13,no=14,missing=13
			13:[f26704<187.5] yes=21,no=22,missing=21
				21:leaf=0.100481793
				22:leaf=-0.00648669479
			14:leaf=-0.0277234782
booster[43]:
0:[f9338<61.5] yes=1,no=2,missing=1
	1:[f24265<149.5] yes=3,no=4,missing=4
		3:[f22377<58.5] yes=7,no=8,missing=8
			7:[f2460<90.5] yes=15,no=16,missing=15
				15:leaf=-0.0319789499
				16:leaf=0.0308397003
			8:[f21848<41.5] yes=17,no=18,missing=18
				17:leaf=0.0747292116
				18:leaf=-0.022685023
		4:[f10238<70.5] yes=9,no=10,missing=9
			9:leaf=0.110807128
			10:leaf=-0.0226816386
	2:[f16885<129.5] yes=5,no=6,missing=6
		5:[f24963<58.5] yes=11,no=12,missing=11
			11:[f7102<12.5] yes=19,no=20,missing=20
				19:leaf=0.0222867504
				20:leaf=-0.0243192501
			12:[f20929<6.5] yes=21,no=22,missing=22
				21:leaf=0.00515406299
				22:leaf=0.105464227
		6:[f2552<121] yes=13,no=14,missing=14
			13:leaf=-0.0318938196
			14:leaf=0.0542923845
booster[44]:
0:[f21136<1.5] yes=1,no=2,missing=2
	1:[f22857<6.5] yes=3,no=4,missing=4
		3:[f9132<48.5] yes=7,no=8,missing=8
			7:leaf=-0.0236445498
			8:[f4120<107.5] yes=15,no=16,missing=15
				15:leaf=0.114079572
				16:leaf=-0.0186234172
		4:[f30876<184.5] yes=9,no=10,missing=10
			9:leaf=0.0649526417
			10:leaf=-0.0318425931
	2:[f24457<10.5] yes=5,no=6,missing=5
		5:[f1005<77] yes=11,no=12,missing=12
			11:leaf=0.0967119187
			12:leaf=-0.0219983365
		6:[f2653<189.5] yes=13,no=14,missing=13
			13:leaf=-0.0347387791
			14:[f14247<380.5] yes=17,no=18,missing=17
				17:leaf=0.03085237
				18:leaf=-0.0223973673
booster[45]:
0:[f30743<98.5] yes=1,no=2,missing=1
	1:[f21260<374.5] yes=3,no=4,missing=3
		3:[f27333<76.5] yes=7,no=8,missing=7
			7:[f1719<56.5] yes=13,no=14,missing=13
				13:leaf=-0.03454604
				14:leaf=0.00279090484
			8:leaf=0.00431425031
		4:leaf=0.0274549238
	2:[f4147<62.5] yes=5,no=6,missing=5
		5:[f15924<74.5] yes=9,no=10,missing=9
			9:[f10134<39.5] yes=15,no=16,missing=15
				15:leaf=-0.00427939463
				16:leaf=0.07118956
			10:[f23081<60.5] yes=17,no=18,missing=18
				17:leaf=-0.0159297697
				18:leaf=0.0827580169
		6:[f3866<94.5] yes=11,no=12,missing=12
			11:[f18248<6046] yes=19,no=20,missing=20
				19:leaf=0.110837102
				20:leaf=-0.021994967
			12:leaf=-0.0243566576
booster[46]:
0:[f22614<38.5] yes=1,no=2,missing=1
	1:[f458<10.5] yes=3,no=4,missing=3
		3:[f22376<98.5] yes=7,no=8,missing=7
			7:[f17416<10.5] yes=15,no=16,missing=15
				15:leaf=-0.0111242319
				16:leaf=0.0689530149
			8:[f15730<171.5] yes=17,no=18,missing=18
				17:leaf=-0.012945829
				18:leaf=0.0766289532
		4:[f19478<162] yes=9,no=10,missing=10
			9:[f24331<179.5] yes=19,no=20,missing=19
				19:leaf=0.106481284
				20:leaf=-0.0122312512
			10:[f20262<84.5] yes=21,no=22,missing=22
				21:leaf=0.0748414397
				22:leaf=-0.029438721
	2:[f19516<43.5] yes=5,no=6,missing=6
		5:[f2178<54.5] yes=11,no=12,missing=11
			11:[f19542<28.5] yes=23,no=24,missing=24
				23:leaf=-0.0127546536
				24:leaf=0.0802616701
			12:[f5225<86.5] yes=25,no=26,missing=26
				25:leaf=-0.0272911415
				26:leaf=0.0834803134
		6:[f9060<172.5] yes=13,no=14,missing=14
			13:[f458<6.5] yes=27,no=28,missing=28
				27:leaf=-0.00190700789
				28:leaf=0.108620532
			14:[f930<540.5] yes=29,no=30,missing=29
				29:leaf=-0.0304453652
				30:leaf=0.0295387246
booster[47]:
0:leaf=-0.0347417966
booster[48]:
0:[f22851<69.5] yes=1,no=2,missing=1
	1:[f16037<1.5] yes=3,no=4,missing=4
		3:leaf=0.0164506529
		4:leaf=-0.0345741585
	2:[f1648<122.5] yes=5,no=6,missing=5
		5:[f24204<7.5] yes=7,no=8,missing=8
			7:leaf=-0.0246803723
			8:[f30146<26.5] yes=11,no=12,missing=12
				11:leaf=-0.0016310215
				12:leaf=0.0851917192
		6:[f29547<45.5] yes=9,no=10,missing=9
			9:leaf=-0.0306240898
			10:leaf=0.0398579203
booster[49]:
0:[f1160<298.5] yes=1,no=2,missing=1
	1:[f24172<56] yes=3,no=4,missing=3
		3:leaf=-0.034296263
		4:leaf=0.00194008951
	2:[f19421<40.5] yes=5,no=6,missing=6
		5:[f19979<88.5] yes=7,no=8,missing=8
			7:[f4343<40.5] yes=11,no=12,missing=12
				11:leaf=0.0453821048
				12:leaf=0.0962361842
			8:[f12630<31.5] yes=13,no=14,missing=14
				13:leaf=0.0144149112
				14:leaf=-0.0323978812
		6:[f17748<127.5] yes=9,no=10,missing=10
			9:[f22933<57.5] yes=15,no=16,missing=16
				15:leaf=-0.0212249793
				16:leaf=0.0236387607
			10:[f10501<48.5] yes=17,no=18,missing=18
				17:leaf=0.106887996
				18:leaf=-0.00935605727
booster[50]:
0:[f14757<66.5] yes=1,no=2,missing=1
	1:[f977<32] yes=3,no=4,missing=3
		3:[f814<1.5] yes=7,no=8,missing=8
			7:leaf=0.00597209577
			8:leaf=-0.0310565848
		4:[f7880<196.5] yes=9,no=10,missing=10
			9:[f17575<10.5] yes=15,no=16,missing=15
				15:leaf=0.0848488659
				16:leaf=-0.0041394569
			10:leaf=-0.0194486566
	2:[f31751<108.5] yes=5,no=6,missing=5
		5:[f23333<136] yes=11,no=12,missing=11
			11:[f1364<105.5] yes=17,no=18,missing=17
				17:leaf=-0.0328720361
				18:leaf=0.0535333157
			12:[f1394<49] yes=19,no=20,missing=19
				19:leaf=0.072705321
				20:leaf=0.00108998304
		6:[f18536<16.5] yes=13,no=14,missing=14
			13:[f4325<53] yes=21,no=22,missing=21
				21:leaf=0.106074765
				22:leaf=0.0241384655
			14:[f17813<167] yes=23,no=24,missing=23
				23:leaf=-0.030897636
				24:leaf=0.0641337112
booster[51]:
0:[f9338<61.5] yes=1,no=2,missing=1
	1:[f19923<2.5] yes=3,no=4,missing=4
		3:[f6575<89.5] yes=7,no=8,missing=8
			7:[f5271<13.5] yes=15,no=16,missing=15
				15:leaf=0.00376380351
				16:leaf=-0.0241704192
			8:leaf=0.105675809
		4:[f24265<155.5] yes=9,no=10,missing=10
			9:[f21122<180.5] yes=17,no=18,missing=17
				17:leaf=-0.0302708242
				18:leaf=0.0335630774
			10:leaf=0.0670455992
	2:[f31763<58.5] yes=5,no=6,missing=5
		5:[f7837<52.5] yes=11,no=12,missing=11
			11:[f571<226] yes=19,no=20,missing=20
				19:leaf=-0.02757583
				20:leaf=0.0648608953
			12:[f20929<6.5] yes=21,no=22,missing=22
				21:leaf=0.00520654581
				22:leaf=0.0963523686
		6:[f2475<100.5] yes=13,no=14,missing=13
			13:leaf=-0.0320076644
			14:leaf=0.0575445555
booster[52]:
0:[f21136<1.5] yes=1,no=2,missing=2
	1:[f22857<6.5] yes=3,no=4,missing=4
		3:[f9132<48.5] yes=7,no=8,missing=8
			7:leaf=-0.0233918242
			8:[f4120<107.5] yes=15,no=16,missing=15
				15:leaf=0.103766121
				16:leaf=-0.0183750335
		4:[f32794<69.5] yes=9,no=10,missing=10
			9:leaf=0.0621379837
			10:leaf=-0.0316690281
	2:[f24457<10.5] yes=5,no=6,missing=5
		5:[f1005<77] yes=11,no=12,missing=12
			11:leaf=0.0903706923
			12:leaf=-0.0217980258
		6:[f485<381.5] yes=13,no=14,missing=13
			13:leaf=-0.0345819667
			14:[f15959<7.5] yes=17,no=18,missing=18
				17:leaf=-0.0221566819
				18:leaf=0.0306879766
booster[53]:
0:[f8198<132.5] yes=1,no=2,missing=1
	1:[f2706<118.5] yes=3,no=4,missing=3
		3:[f621<266.5] yes=7,no=8,missing=7
			7:[f10267<114.5] yes=13,no=14,missing=13
				13:leaf=-0.034546908
				14:leaf=-0.00579061965
			8:leaf=0.0217213668
		4:leaf=0.0322523527
	2:[f4147<62.5] yes=5,no=6,missing=5
		5:[f8324<54.5] yes=9,no=10,missing=10
			9:[f3389<144.5] yes=15,no=16,missing=15
				15:leaf=-0.0179106556
				16:leaf=0.0857326686
			10:[f26964<15.5] yes=17,no=18,missing=18
				17:leaf=0.0598495975
				18:leaf=-0.00900530722
		6:[f32287<95.5] yes=11,no=12,missing=11
			11:[f18248<10.5] yes=19,no=20,missing=19
				19:leaf=-0.00984453224
				20:leaf=0.10247533
			12:leaf=-0.0267162565
booster[54]:
0:[f22614<38.5] yes=1,no=2,missing=1
	1:[f458<10.5] yes=3,no=4,missing=3
		3:[f21525<355.5] yes=7,no=8,missing=7
			7:[f17416<10.5] yes=15,no=16,missing=15
				15:leaf=-0.00232083583
				16:leaf=0.081448108
			8:[f31684<186.5] yes=17,no=18,missing=18
				17:leaf=-0.0131221218
				18:leaf=0.0505895168
		4:[f19478<162] yes=9,no=10,missing=10
			9:[f24331<179.5] yes=19,no=20,missing=19
				19:leaf=0.096010536
				20:leaf=-0.0121275363
			10:[f17199<60.5] yes=21,no=22,missing=22
				21:leaf=0.0746987015
				22:leaf=-0.0264384355
	2:[f19516<43.5] yes=5,no=6,missing=6
		5:[f2178<54.5] yes=11,no=12,missing=11
			11:[f8786<37] yes=23,no=24,missing=24
				23:leaf=0.0728523359
				24:leaf=-0.0158005059
			12:[f5225<86.5] yes=25,no=26,missing=26
				25:leaf=-0.026946051
				26:leaf=0.0782958493
		6:[f9060<172.5] yes=13,no=14,missing=14
			13:[f30775<19.5] yes=27,no=28,missing=28
				27:leaf=-0.000840203196
				28:leaf=0.098456189
			14:[f21922<272.5] yes=29,no=30,missing=30
				29:leaf=-0.0302549787
				30:leaf=0.0292655174
booster[55]:
0:leaf=-0.0345880687
booster[56]:
0:[f22851<69.5] yes=1,no=2,missing=1
	1:[f24210<42.5] yes=3,no=4,missing=3
		3:leaf=-0.0344292931
		4:leaf=0.016109651
	2:[f2290<58.5] yes=5,no=6,missing=6
		5:[f29314<46.5] yes=7,no=8,missing=7
			7:[f31916<146.5] yes=11,no=12,missing=12
				11:leaf=0.0728848279
				12:leaf=-0.0295864511
			8:[f6292<60.5] yes=13,no=14,missing=14
				13:leaf=0.00294091413
				14:leaf=0.0898600072
		6:[f24052<161.5] yes=9,no=10,missing=10
			9:[f17906<55] yes=15,no=16,missing=15
				15:leaf=-0.0311298631
				16:leaf=0.00228154496
			10:[f23484<16.5] yes=17,no=18,missing=17
				17:leaf=0.0750356987
				18:leaf=-0.0238029547
booster[57]:
0:[f14335<322.5] yes=1,no=2,missing=1
	1:[f27929<151.5] yes=3,no=4,missing=3
		3:[f13136<61.5] yes=7,no=8,missing=8
			7:leaf=-0.0342943482
			8:leaf=-0.00476150634
		4:leaf=0.030326657
	2:[f18376<57.5] yes=5,no=6,missing=6
		5:[f30263<66.5] yes=9,no=10,missing=9
			9:[f19421<40.5] yes=13,no=14,missing=14
				13:leaf=0.0720790476
				14:leaf=0.0213048197
			10:[f27494<53.5] yes=15,no=16,missing=15
				15:leaf=-0.0293039139
				16:leaf=0.0600134134
		6:[f9965<10.5] yes=11,no=12,missing=12
			11:[f13037<163.5] yes=17,no=18,missing=18
				17:leaf=-0.0181817394
				18:leaf=0.0908305198
			12:[f21476<54.5] yes=19,no=20,missing=20
				19:leaf=-0.0220825318
				20:leaf=0.0569367409
booster[58]:
0:[f14757<66.5] yes=1,no=2,missing=1
	1:[f6047<25.5] yes=3,no=4,missing=3
		3:[f31019<1.5] yes=7,no=8,missing=8
			7:leaf=0.00609910302
			8:leaf=-0.0309808347
		4:[f27380<44.5] yes=9,no=10,missing=9
			9:[f17575<10.5] yes=15,no=16,missing=15
				15:leaf=0.0805998445
				16:leaf=-0.00350794871
			10:[f14375<376.5] yes=17,no=18,missing=18
				17:leaf=-0.0218953546
				18:leaf=0.0230276361
	2:[f31751<108.5] yes=5,no=6,missing=5
		5:[f23333<136] yes=11,no=12,missing=11
			11:[f29448<3.5] yes=19,no=20,missing=20
				19:leaf=0.036996305
				20:leaf=-0.0328777954
			12:[f2641<29.5] yes=21,no=22,missing=21
				21:leaf=0.0699366927
				22:leaf=0.00079357496
		6:[f18536<16.5] yes=13,no=14,missing=14
			13:[f4325<53] yes=23,no=24,missing=23
				23:leaf=0.0976787955
				24:leaf=0.0234996416
			14:[f17813<167] yes=25,no=26,missing=25
				25:leaf=-0.0306407139
				26:leaf=0.0615773015
booster[59]:
0:[f9338<61.5] yes=1,no=2,missing=1
	1:[f19923<2.5] yes=3,no=4,missing=4
		3:[f6575<89.5] yes=7,no=8,missing=8
			7:[f5271<13.5] yes=15,no=16,missing=15
				15:leaf=0.00378000736
				16:leaf=-0.0239303522
			8:leaf=0.0971249416
		4:[f24265<155.5] yes=9,no=10,missing=10
			9:[f2460<90.5] yes=17,no=18,missing=17
				17:leaf=-0.0303160325
				18:leaf=0.0224464722
			10:leaf=0.0632946566
	2:[f16885<129.5] yes=5,no=6,missing=6
		5:[f24963<58.5] yes=11,no=12,missing=11
			11:[f18774<3.5] yes=19,no=20,missing=20
				19:leaf=0.0219775308
				20:leaf=-0.0239832085
			12:[f20929<6.5] yes=21,no=22,missing=22
				21:leaf=0.00443573808
				22:leaf=0.0875554755
		6:[f6006<123.5] yes=13,no=14,missing=14
			13:leaf=-0.0315509103
			14:leaf=0.0533297062
booster[60]:
0:[f21136<1.5] yes=1,no=2,missing=2
	1:[f22857<6.5] yes=3,no=4,missing=4
		3:[f29018<39.5] yes=7,no=8,missing=8
			7:leaf=-0.0230683908
			8:[f10453<13.5] yes=15,no=16,missing=16
				15:leaf=0.0939851999
				16:leaf=0.00215692259
		4:[f30876<184.5] yes=9,no=10,missing=10
			9:leaf=0.0601586998
			10:leaf=-0.0314787291
	2:[f24457<10.5] yes=5,no=6,missing=5
		5:[f1005<77] yes=11,no=12,missing=12
			11:leaf=0.0849915594
			12:leaf=-0.0215521883
		6:[f2653<189.5] yes=13,no=14,missing=13
			13:leaf=-0.0344370902
			14:[f18001<511] yes=17,no=18,missing=17
				17:leaf=0.0307876263
				18:leaf=-0.0220953226
booster[61]:
0:[f30743<98.5] yes=1,no=2,missing=1
	1:[f16051<86.5] yes=3,no=4,missing=3
		3:[f10267<110.5] yes=7,no=8,missing=7
			7:leaf=-0.0342410021
			8:[f1019<221.5] yes=15,no=16,missing=16
				15:leaf=0.024828935
				16:leaf=-0.018921854
		4:[f24992<88.5] yes=9,no=10,missing=10
			9:leaf=0.0525324717
			10:leaf=-0.0202005971
	2:[f20058<135.5] yes=5,no=6,missing=5
		5:[f8324<54.5] yes=11,no=12,missing=12
			11:[f17628<94.5] yes=17,no=18,missing=18
				17:leaf=-0.00478121592
				18:leaf=0.0837836787
			12:[f18046<10.5] yes=19,no=20,missing=19
				19:leaf=0.0722629428
				20:leaf=-0.00600364013
		6:[f26771<83] yes=13,no=14,missing=13
			13:[f18248<6046] yes=21,no=22,missing=22
				21:leaf=0.0969688073
				22:leaf=-0.0212333575
			14:leaf=-0.0241932441
booster[62]:
0:[f22614<38.5] yes=1,no=2,missing=1
	1:[f22749<8.5] yes=3,no=4,missing=3
		3:[f31684<181.5] yes=7,no=8,missing=8
			7:[f27320<177.5] yes=15,no=16,missing=16
				15:leaf=0.0489308387
				16:leaf=-0.020056678
			8:[f14824<83.5] yes=17,no=18,missing=18
				17:leaf=0.0769410655
				18:leaf=-0.0050463723
		4:[f12197<17.5] yes=9,no=10,missing=9
			9:[f29291<39.5] yes=19,no=20,missing=20
				19:leaf=-0.0218567234
				20:leaf=0.00441435073
			10:[f13569<227.5] yes=21,no=22,missing=22
				21:leaf=0.0867027789
				22:leaf=-0.0124352835
	2:[f19516<43.5] yes=5,no=6,missing=6
		5:[f2178<54.5] yes=11,no=12,missing=11
			11:[f19542<28.5] yes=23,no=24,missing=24
				23:leaf=-0.0131304022
				24:leaf=0.0699325278
			12:[f5225<86.5] yes=25,no=26,missing=26
				25:leaf=-0.0266030114
				26:leaf=0.0735534504
		6:[f9060<172.5] yes=13,no=14,missing=14
			13:[f458<6.5] yes=27,no=28,missing=28
				27:leaf=-0.00255551096
				28:leaf=0.0903129578
			14:[f23028<103.5] yes=29,no=30,missing=30
				29:leaf=-0.030021809
				30:leaf=0.0293481741
booster[63]:
0:leaf=-0.034440361
booster[64]:
0:[f22851<69.5] yes=1,no=2,missing=1
	1:[f16037<1.5] yes=3,no=4,missing=4
		3:leaf=0.0162403006
		4:leaf=-0.0342839845
	2:[f1648<122.5] yes=5,no=6,missing=5
		5:[f24204<7.5] yes=7,no=8,missing=8
			7:leaf=-0.0244656336
			8:[f12165<216.5] yes=11,no=12,missing=11
				11:leaf=0.0708981752
				12:leaf=-0.0241520647
		6:[f19063<15.5] yes=9,no=10,missing=9
			9:leaf=-0.0304467808
			10:leaf=0.0415332653
booster[65]:
0:[f14335<322.5] yes=1,no=2,missing=1
	1:[f27929<151.5] yes=3,no=4,missing=3
		3:[f17726<290.5] yes=7,no=8,missing=7
			7:leaf=-0.0341276973
			8:leaf=-0.0048556244
		4:leaf=0.0295709521
	2:[f30263<66.5] yes=5,no=6,missing=5
		5:[f29354<55.5] yes=9,no=10,missing=10
			9:[f14947<85.5] yes=13,no=14,missing=14
				13:leaf=-0.0224554557
				14:leaf=0.0722928196
			10:[f23923<39.5] yes=15,no=16,missing=16
				15:leaf=0.00778263668
				16:leaf=0.0592166856
		6:[f704<244.5] yes=11,no=12,missing=12
			11:[f17989<187.5] yes=17,no=18,missing=17
				17:leaf=-0.0336727835
				18:leaf=0.00710032741
			12:[f7149<65.5] yes=19,no=20,missing=20
				19:leaf=0.0871823952
				20:leaf=-0.00831621327
booster[66]:
0:[f14757<66.5] yes=1,no=2,missing=1
	1:[f977<32] yes=3,no=4,missing=3
		3:[f4022<198] yes=7,no=8,missing=8
			7:leaf=-0.0306985155
			8:leaf=0.00607506372
		4:[f32407<179.5] yes=9,no=10,missing=9
			9:[f8475<67.5] yes=15,no=16,missing=16
				15:leaf=0.0783681571
				16:leaf=-0.00417068508
			10:[f3219<233.5] yes=17,no=18,missing=18
				17:leaf=-0.0247426182
				18:leaf=0.040076334
	2:[f31751<108.5] yes=5,no=6,missing=5
		5:[f23333<136] yes=11,no=12,missing=11
			11:[f29448<3.5] yes=19,no=20,missing=20
				19:leaf=0.0357327908
				20:leaf=-0.0326854624
			12:[f5575<105.5] yes=21,no=22,missing=22
				21:leaf=0.0671020672
				22:leaf=0.00060748501
		6:[f18536<16.5] yes=13,no=14,missing=14
			13:[f23589<168.5] yes=23,no=24,missing=23
				23:leaf=0.0910031796
				24:leaf=0.0216731019
			14:[f17813<167] yes=25,no=26,missing=25
				25:leaf=-0.030387219
				26:leaf=0.0592158884
booster[67]:
0:[f9338<61.5] yes=1,no=2,missing=1
	1:[f5411<1.5] yes=3,no=4,missing=3
		3:[f9720<56.5] yes=7,no=8,missing=8
			7:[f21715<29.5] yes=15,no=16,missing=16
				15:leaf=0.0376812071
				16:leaf=-0.0282606315
			8:[f25683<11.5] yes=17,no=18,missing=18
				17:leaf=0.100076586
				18:leaf=0.00021953047
		4:[f30181<57.5] yes=9,no=10,missing=10
			9:[f2460<90.5] yes=19,no=20,missing=19
				19:leaf=-0.0305257719
				20:leaf=0.0196461808
			10:[f18150<54.5] yes=21,no=22,missing=22
				21:leaf=0.0866980851
				22:leaf=-0.0184168629
	2:[f31763<58.5] yes=5,no=6,missing=5
		5:[f7837<52.5] yes=11,no=12,missing=11
			11:[f77<5.5] yes=23,no=24,missing=24
				23:leaf=0.0615678206
				24:leaf=-0.0273215063
			12:[f23304<18.5] yes=25,no=26,missing=25
				25:leaf=-0.00522837555
				26:leaf=0.0811906233
		6:[f15657<141.5] yes=13,no=14,missing=14
			13:leaf=-0.0317059383
			14:leaf=0.0563853271
booster[68]:
0:[f21136<1.5] yes=1,no=2,missing=2
	1:[f22857<6.5] yes=3,no=4,missing=4
		3:[f9132<48.5] yes=7,no=8,missing=8
			7:leaf=-0.0230157636
			8:[f4120<107.5] yes=15,no=16,missing=15
				15:leaf=0.0890964791
				16:leaf=-0.0181890652
		4:[f30876<184.5] yes=9,no=10,missing=10
			9:leaf=0.0577496961
			10:leaf=-0.0312673822
	2:[f24457<10.5] yes=5,no=6,missing=5
		5:[f1005<77] yes=11,no=12,missing=12
			11:leaf=0.0794935301
			12:leaf=-0.0212556068
		6:[f485<381.5] yes=13,no=14,missing=13
			13:leaf=-0.0342928395
			14:[f13113<454.5] yes=17,no=18,missing=17
				17:leaf=0.0305669922
				18:leaf=-0.021780381
booster[69]:
0:[f8198<132.5] yes=1,no=2,missing=1
	1:[f24132<279.5] yes=3,no=4,missing=3
		3:[f24218<94.5] yes=7,no=8,missing=7
			7:leaf=-0.0342445858
			8:leaf=-0.00736848824
		4:[f31894<88.5] yes=9,no=10,missing=9
			9:leaf=0.089578256
			10:leaf=-0.0276129916
	2:[f4147<62.5] yes=5,no=6,missing=5
		5:[f4737<78.5] yes=11,no=12,missing=12
			11:[f25884<15.5] yes=15,no=16,missing=15
				15:leaf=0.0710206404
				16:leaf=-0.00185602996
			12:[f2251<156.5] yes=17,no=18,missing=17
				17:leaf=0.109673321
				18:leaf=-0.0220446736
		6:[f32287<95.5] yes=13,no=14,missing=13
			13:[f18248<10.5] yes=19,no=20,missing=19
				19:leaf=-0.00967782922
				20:leaf=0.0875001326
			14:leaf=-0.0264282208
booster[70]:
0:[f22614<38.5] yes=1,no=2,missing=1
	1:[f458<10.5] yes=3,no=4,missing=3
		3:[f25677<8.5] yes=7,no=8,missing=8
			7:[f13795<44.5] yes=15,no=16,missing=16
				15:leaf=0.064099893
				16:leaf=-0.02224949
			8:[f19104<359.5] yes=17,no=18,missing=18
				17:leaf=0.0721920133
				18:leaf=0.015098623
		4:[f27596<179.5] yes=9,no=10,missing=9
			9:[f13837<11.5] yes=19,no=20,missing=20
				19:leaf=-0.0125633143
				20:leaf=0.0810913891
			10:[f22581<41.5] yes=21,no=22,missing=22
				21:leaf=-0.0234469455
				22:leaf=0.0617709421
	2:[f19516<43.5] yes=5,no=6,missing=6
		5:[f2178<54.5] yes=11,no=12,missing=11
			11:[f21022<137] yes=23,no=24,missing=24
				23:leaf=0.0767121837
				24:leaf=0.000884138048
			12:[f5225<86.5] yes=25,no=26,missing=26
				25:leaf=-0.026262315
				26:leaf=0.0692754611
		6:[f9060<172.5] yes=13,no=14,missing=14
			13:[f16569<62.5] yes=27,no=28,missing=28
				27:leaf=0.0822427496
				28:leaf=-0.0144736078
			14:[f19510<100.5] yes=29,no=30,missing=30
				29:leaf=-0.0298098251
				30:leaf=0.0291402787
booster[71]:
0:leaf=-0.0342982598
booster[72]:
0:[f22851<69.5] yes=1,no=2,missing=1
	1:[f24210<42.5] yes=3,no=4,missing=3
		3:leaf=-0.0341500305
		4:leaf=0.0158781745
	2:[f18771<3.5] yes=5,no=6,missing=6
		5:[f25825<32.5] yes=7,no=8,missing=8
			7:leaf=-0.0293977037
			8:leaf=0.00220864289
		6:[f6722<58.5] yes=9,no=10,missing=10
			9:[f26470<119.5] yes=11,no=12,missing=12
				11:leaf=0.0695866942
				12:leaf=-0.0226066597
			10:[f15259<34.5] yes=13,no=14,missing=13
				13:leaf=-0.0301368386
				14:leaf=0.0480559878
booster[73]:
0:[f1160<298.5] yes=1,no=2,missing=1
	1:[f24172<56] yes=3,no=4,missing=3
		3:leaf=-0.0338483453
		4:leaf=0.00217484497
	2:[f21032<31.5] yes=5,no=6,missing=6
		5:[f18248<4] yes=7,no=8,missing=7
			7:[f660<27.5] yes=11,no=12,missing=11
				11:leaf=0.0916703865
				12:leaf=0.0193266962
			8:[f1994<79.5] yes=13,no=14,missing=14
				13:leaf=0.0357909277
				14:leaf=-0.0107210763
		6:[f18284<8.5] yes=9,no=10,missing=9
			9:[f14170<213.5] yes=15,no=16,missing=16
				15:leaf=0.0489795171
				16:leaf=-0.0197892189
			10:[f18550<67.5] yes=17,no=18,missing=18
				17:leaf=0.0769827589
				18:leaf=-0.00715100206
booster[74]:
0:[f14757<66.5] yes=1,no=2,missing=1
	1:[f6047<25.5] yes=3,no=4,missing=3
		3:[f453<48.5] yes=7,no=8,missing=8
			7:leaf=-0.030631138
			8:leaf=0.00615574187
		4:[f29972<169.5] yes=9,no=10,missing=10
			9:[f17575<10.5] yes=15,no=16,missing=15
				15:leaf=0.0694059879
				16:leaf=-0.00460570306
			10:leaf=-0.00996679906
	2:[f12020<177.5] yes=5,no=6,missing=5
		5:[f24960<48.5] yes=11,no=12,missing=11
			11:[f19854<83.5] yes=17,no=18,missing=17
				17:leaf=-0.0273282472
				18:leaf=0.0813196898
			12:[f4406<114] yes=19,no=20,missing=20
				19:leaf=-0.0337972045
				20:leaf=0.003069486
		6:[f18536<17] yes=13,no=14,missing=14
			13:[f14907<35.5] yes=21,no=22,missing=22
				21:leaf=-5.83717774e-05
				22:leaf=0.084607318
			14:[f6859<66.5] yes=23,no=24,missing=24
				23:leaf=-0.0264871959
				24:leaf=0.0739775822
booster[75]:
0:[f8682<63.5] yes=1,no=2,missing=1
	1:[f21361<172.5] yes=3,no=4,missing=3
		3:[f30472<4.5] yes=7,no=8,missing=7
			7:leaf=0.0636694506
			8:[f2460<90.5] yes=15,no=16,missing=15
				15:leaf=-0.0315148123
				16:leaf=0.0140081579
		4:[f1349<70.5] yes=9,no=10,missing=9
			9:[f6605<5] yes=17,no=18,missing=18
				17:leaf=0.014015601
				18:leaf=0.0903107524
			10:leaf=-0.0187935047
	2:[f28609<74.5] yes=5,no=6,missing=6
		5:[f2178<38] yes=11,no=12,missing=11
			11:[f23561<162.5] yes=19,no=20,missing=19
				19:leaf=-0.0302347895
				20:leaf=0.0577583164
			12:[f1421<55.5] yes=21,no=22,missing=22
				21:leaf=-0.00895226933
				22:leaf=0.0768715143
		6:[f14923<108.5] yes=13,no=14,missing=13
			13:[f8425<15.5] yes=23,no=24,missing=24
				23:leaf=0.0249830689
				24:leaf=-0.0325927623
			14:[f2550<114.5] yes=25,no=26,missing=25
				25:leaf=-0.0225232057
				26:leaf=0.0740607008
booster[76]:
0:[f21136<1.5] yes=1,no=2,missing=2
	1:[f22857<6.5] yes=3,no=4,missing=4
		3:[f9132<48.5] yes=7,no=8,missing=8
			7:leaf=-0.0227270387
			8:[f4120<107.5] yes=15,no=16,missing=15
				15:leaf=0.0833160728
				16:leaf=-0.0180031378
		4:[f32794<69.5] yes=9,no=10,missing=10
			9:leaf=0.0558570996
			10:leaf=-0.0311056413
	2:[f24457<10.5] yes=5,no=6,missing=5
		5:[f1005<77] yes=11,no=12,missing=12
			11:leaf=0.0751583278
			12:leaf=-0.0209732708
		6:[f485<381.5] yes=13,no=14,missing=13
			13:leaf=-0.0341558307
			14:[f22343<364.5] yes=17,no=18,missing=18
				17:leaf=0.0305253267
				18:leaf=-0.0217487849
booster[77]:
0:[f30743<98.5] yes=1,no=2,missing=1
	1:[f16051<86.5] yes=3,no=4,missing=3
		3:[f10267<110.5] yes=7,no=8,missing=7
			7:leaf=-0.0339467339
			8:[f1179<250.5] yes=15,no=16,missing=15
				15:leaf=0.0247063693
				16:leaf=-0.0187843181
		4:[f29855<42.5] yes=9,no=10,missing=10
			9:leaf=0.0522579104
			10:leaf=-0.0201847721
	2:[f29606<95.5] yes=5,no=6,missing=5
		5:[f18248<8.5] yes=11,no=12,missing=11
			11:[f27092<54.5] yes=17,no=18,missing=17
				17:leaf=-0.0317763351
				18:leaf=0.0189931355
			12:[f24748<327.5] yes=19,no=20,missing=19
				19:leaf=-0.0186118968
				20:leaf=0.0870652199
		6:[f20285<169.5] yes=13,no=14,missing=14
			13:[f23094<73.5] yes=21,no=22,missing=22
				21:leaf=-0.0246382076
				22:leaf=0.0594649687
			14:[f11852<214.5] yes=23,no=24,missing=24
				23:leaf=0.0492240973
				24:leaf=-0.0176080745
booster[78]:
0:[f21998<53.5] yes=1,no=2,missing=1
	1:[f27596<177.5] yes=3,no=4,missing=3
		3:[f458<9.5] yes=7,no=8,missing=7
			7:[f11974<251.5] yes=15,no=16,missing=16
				15:leaf=0.0139969299
				16:leaf=0.0682764649
			8:[f20247<83.5] yes=17,no=18,missing=17
				17:leaf=0.0761954784
				18:leaf=0.0149672553
		4:[f25403<223.5] yes=9,no=10,missing=10
			9:[f15194<119.5] yes=19,no=20,missing=20
				19:leaf=0.0139214089
				20:leaf=0.0874799415
			10:[f31061<38.5] yes=21,no=22,missing=22
				21:leaf=-0.0262384042
				22:leaf=0.0378698595
	2:[f25084<217.5] yes=5,no=6,missing=6
		5:[f9856<65.5] yes=11,no=12,missing=11
			11:leaf=0.0869478211
			12:leaf=0.0228548814
		6:[f16669<210.5] yes=13,no=14,missing=13
			13:[f25104<90.5] yes=23,no=24,missing=23
				23:leaf=0.00333923427
				24:leaf=-0.0342242196
			14:leaf=0.0292629004
booster[79]:
0:leaf=-0.0341615416
booster[80]:
0:[f2770<200.5] yes=1,no=2,missing=1
	1:leaf=-0.0340235494
	2:[f2290<58.5] yes=3,no=4,missing=4
		3:[f6722<58.5] yes=5,no=6,missing=6
			5:[f19433<10.5] yes=9,no=10,missing=10
				9:leaf=4.58034738e-05
				10:leaf=0.0704525262
			6:[f26630<124.5] yes=11,no=12,missing=12
				11:leaf=-0.0228821263
				12:leaf=0.00137843983
		4:[f8780<52.5] yes=7,no=8,missing=7
			7:[f32015<167] yes=13,no=14,missing=14
				13:leaf=0.0209064018
				14:leaf=-0.0316890068
			8:[f17188<259.5] yes=15,no=16,missing=16
				15:leaf=0.0683619156
				16:leaf=-0.0215194989
booster[81]:
0:[f11345<244.5] yes=1,no=2,missing=1
	1:[f5066<419.5] yes=3,no=4,missing=3
		3:[f12601<69.5] yes=7,no=8,missing=7
			7:leaf=-0.033946719
			8:[f2287<100] yes=13,no=14,missing=13
				13:leaf=0.0331605375
				14:leaf=-0.0235382281
		4:leaf=0.0258431472
	2:[f18306<22.5] yes=5,no=6,missing=6
		5:[f4343<40.5] yes=9,no=10,missing=9
			9:[f18085<19.5] yes=15,no=16,missing=15
				15:leaf=-0.0199659541
				16:leaf=0.0368492864
			10:[f10524<208.5] yes=17,no=18,missing=18
				17:leaf=0.0695670024
				18:leaf=-0.0263612419
		6:[f4629<196.5] yes=11,no=12,missing=11
			11:[f22107<369.5] yes=19,no=20,missing=19
				19:leaf=-0.0246717781
				20:leaf=0.0702578872
			12:[f19653<56.5] yes=21,no=22,missing=22
				21:leaf=0.0868304297
				22:leaf=0.00309276418
booster[82]:
0:[f14757<66.5] yes=1,no=2,missing=1
	1:[f21869<33.5] yes=3,no=4,missing=3
		3:leaf=-0.0302508511
		4:[f11791<876] yes=7,no=8,missing=8
			7:[f18612<31.5] yes=13,no=14,missing=13
				13:leaf=0.0752762035
				14:leaf=0.0275887083
			8:leaf=-0.0226637684
	2:[f12020<177.5] yes=5,no=6,missing=5
		5:[f24960<48.5] yes=9,no=10,missing=9
			9:[f32212<68.5] yes=15,no=16,missing=15
				15:leaf=-0.0309513193
				16:leaf=0.0688026771
			10:[f4406<114] yes=17,no=18,missing=18
				17:leaf=-0.0336504839
				18:leaf=0.0032074526
		6:[f21487<21.5] yes=11,no=12,missing=12
			11:[f18195<121] yes=19,no=20,missing=20
				19:leaf=0.0803610757
				20:leaf=-0.0214240551
			12:[f29403<198.5] yes=21,no=22,missing=21
				21:leaf=-0.0304042287
				22:leaf=0.0512450039
booster[83]:
0:[f8682<63.5] yes=1,no=2,missing=1
	1:[f21361<172.5] yes=3,no=4,missing=3
		3:[f30472<4.5] yes=7,no=8,missing=7
			7:leaf=0.0610212535
			8:[f2460<90.5] yes=15,no=16,missing=15
				15:leaf=-0.0312944017
				16:leaf=0.0139731523
		4:[f1349<70.5] yes=9,no=10,missing=9
			9:[f28<16] yes=17,no=18,missing=18
				17:leaf=0.0129534584
				18:leaf=0.0849639326
			10:leaf=-0.0186159369
	2:[f20505<73.5] yes=5,no=6,missing=5
		5:[f1421<57.5] yes=11,no=12,missing=12
			11:leaf=-0.0237421021
			12:[f8264<25.5] yes=19,no=20,missing=19
				19:leaf=-0.023393292
				20:leaf=0.0716496632
		6:[f14923<107.5] yes=13,no=14,missing=13
			13:[f25798<12.5] yes=21,no=22,missing=22
				21:leaf=0.0362186357
				22:leaf=-0.0293660462
			14:[f9611<58.5] yes=23,no=24,missing=23
				23:leaf=-0.0235972106
				24:leaf=0.0780531541
booster[84]:
0:[f21136<1.5] yes=1,no=2,missing=2
	1:[f22857<6.5] yes=3,no=4,missing=4
		3:[f29018<39.5] yes=7,no=8,missing=8
			7:leaf=-0.0223407075
			8:[f14250<79.5] yes=15,no=16,missing=15
				15:leaf=0.0769730955
				16:leaf=0.000459349685
		4:[f3201<101.5] yes=9,no=10,missing=10
			9:leaf=0.0539578907
			10:leaf=-0.0309217013
	2:[f24457<10.5] yes=5,no=6,missing=5
		5:[f1005<77] yes=11,no=12,missing=12
			11:leaf=0.0715786666
			12:leaf=-0.0207071453
		6:[f2653<189.5] yes=13,no=14,missing=13
			13:leaf=-0.0340262391
			14:[f22325<212.5] yes=17,no=18,missing=18
				17:leaf=0.0306011457
				18:leaf=-0.0216273461
booster[85]:
0:[f8198<132.5] yes=1,no=2,missing=1
	1:[f24132<279.5] yes=3,no=4,missing=3
		3:[f24218<94.5] yes=7,no=8,missing=7
			7:leaf=-0.0339690261
			8:leaf=-0.0069239391
		4:[f31894<88.5] yes=9,no=10,missing=9
			9:leaf=0.082212545
			10:leaf=-0.0272839703
	2:[f2866<73.5] yes=5,no=6,missing=5
		5:[f10529<117.5] yes=11,no=12,missing=12
			11:[f19421<40.5] yes=15,no=16,missing=16
				15:leaf=0.00715118041
				16:leaf=0.0624708347
			12:[f4737<75.5] yes=17,no=18,missing=18
				17:leaf=-0.0252996702
				18:leaf=0.0457693338
		6:[f26461<211.5] yes=13,no=14,missing=14
			13:[f11376<39.5] yes=19,no=20,missing=20
				19:leaf=-0.0275792647
				20:leaf=0.0739161372
			14:[f31866<48.5] yes=21,no=22,missing=22
				21:leaf=0.0664511994
				22:leaf=-0.0321395844
booster[86]:
0:[f21998<53.5] yes=1,no=2,missing=1
	1:[f27596<177.5] yes=3,no=4,missing=3
		3:[f9988<7.5] yes=7,no=8,missing=7
			7:[f30199<24.5] yes=15,no=16,missing=16
				15:leaf=0.0068212538
				16:leaf=0.062998727
			8:[f6942<1.5] yes=17,no=18,missing=17
				17:leaf=-0.024753321
				18:leaf=0.0687760562
		4:[f25403<223.5] yes=9,no=10,missing=10
			9:[f15194<119.5] yes=19,no=20,missing=20
				19:leaf=0.0132296914
				20:leaf=0.0809233263
			10:[f31061<38.5] yes=21,no=22,missing=22
				21:leaf=-0.025891386
				22:leaf=0.0357260518
	2:[f25084<217.5] yes=5,no=6,missing=6
		5:[f9803<81.5] yes=11,no=12,missing=12
			11:leaf=0.0822101086
			12:leaf=0.0212490875
		6:[f16669<210.5] yes=13,no=14,missing=13
			13:[f25104<90.5] yes=23,no=24,missing=23
				23:leaf=0.00328811212
				24:leaf=-0.03405964
			14:leaf=0.0283313226
booster[87]:
0:leaf=-0.0340290405
booster[88]:
0:[f2770<200.5] yes=1,no=2,missing=1
	1:leaf=-0.0338938311
	2:[f2290<55.5] yes=3,no=4,missing=4
		3:[f28174<139.5] yes=5,no=6,missing=5
			5:[f26585<63.5] yes=9,no=10,missing=9
				9:leaf=0.0799185932
				10:leaf=0.0130666504
			6:leaf=-0.00720523717
		4:[f6494<22.5] yes=7,no=8,missing=8
			7:[f30676<50.5] yes=11,no=12,missing=12
				11:leaf=0.037015114
				12:leaf=-0.0293284673
			8:[f22980<17.5] yes=13,no=14,missing=14
				13:leaf=-0.0170088019
				14:leaf=0.0526410006
booster[89]:
0:[f7818<127.5] yes=1,no=2,missing=1
	1:[f3686<119.5] yes=3,no=4,missing=3
		3:[f1779<104] yes=7,no=8,missing=7
			7:[f24130<124.5] yes=13,no=14,missing=13
				13:leaf=-0.0335974954
				14:leaf=0.0106939478
			8:leaf=0.0193181932
		4:leaf=0.0344251357
	2:[f19421<40.5] yes=5,no=6,missing=6
		5:[f18280<88.5] yes=9,no=10,missing=10
			9:[f20008<53.5] yes=15,no=16,missing=16
				15:leaf=0.0121602612
				16:leaf=0.0582313351
			10:[f14842<243.5] yes=17,no=18,missing=17
				17:leaf=-0.0261024497
				18:leaf=0.0583780557
		6:[f32469<291.5] yes=11,no=12,missing=11
			11:[f15303<49.5] yes=19,no=20,missing=19
				19:leaf=0.0392660387
				20:leaf=-0.0148043111
			12:[f3408<145.5] yes=21,no=22,missing=22
				21:leaf=0.0580990091
				22:leaf=-0.0205645971
booster[90]:
0:[f14757<66.5] yes=1,no=2,missing=1
	1:[f21869<33.5] yes=3,no=4,missing=3
		3:leaf=-0.0300124139
		4:[f11791<876] yes=7,no=8,missing=8
			7:[f18612<31.5] yes=13,no=14,missing=13
				13:leaf=0.0705469921
				14:leaf=0.0262702741
			8:leaf=-0.0224505402
	2:[f12020<177.5] yes=5,no=6,missing=5
		5:[f24960<48.5] yes=9,no=10,missing=9
			9:[f32212<68.5] yes=15,no=16,missing=15
				15:leaf=-0.0307337157
				16:leaf=0.0650758594
			10:[f4406<114] yes=17,no=18,missing=18
				17:leaf=-0.0335076004
				18:leaf=0.00315033249
		6:[f21487<21.5] yes=11,no=12,missing=12
			11:[f18195<121] yes=19,no=20,missing=20
				19:leaf=0.0754066035
				20:leaf=-0.0211773012
			12:[f11609<137.5] yes=21,no=22,missing=21
				21:leaf=-0.0301760118
				22:leaf=0.0509021617
booster[91]:
0:[f8682<63.5] yes=1,no=2,missing=1
	1:[f21361<172.5] yes=3,no=4,missing=3
		3:[f7620<7.5] yes=7,no=8,missing=8
			7:[f8353<54.5] yes=15,no=16,missing=16
				15:leaf=-0.0267416202
				16:leaf=0.0921967924
			8:[f16036<4.5] yes=17,no=18,missing=18
				17:leaf=0.030247841
				18:leaf=-0.0313827731
		4:[f1349<70.5] yes=9,no=10,missing=9
			9:[f6605<5] yes=19,no=20,missing=20
				19:leaf=0.0121288719
				20:leaf=0.0800226182
			10:leaf=-0.0183979254
	2:[f28609<74.5] yes=5,no=6,missing=6
		5:[f7837<52.5] yes=11,no=12,missing=11
			11:[f31666<6.5] yes=21,no=22,missing=22
				21:leaf=0.0230690707
				22:leaf=-0.0277929418
			12:[f1421<55.5] yes=23,no=24,missing=24
				23:leaf=-0.00881467108
				24:leaf=0.0664959997
		6:[f14923<108.5] yes=13,no=14,missing=13
			13:[f4071<76.5] yes=25,no=26,missing=26
				25:leaf=0.0252305083
				26:leaf=-0.0322972462
			14:[f2550<114.5] yes=27,no=28,missing=27
				27:leaf=-0.0221404359
				28:leaf=0.0651478246
booster[92]:
0:[f21136<1.5] yes=1,no=2,missing=2
	1:[f22857<6.5] yes=3,no=4,missing=4
		3:[f9132<48.5] yes=7,no=8,missing=8
			7:leaf=-0.0223854128
			8:[f4120<107.5] yes=15,no=16,missing=15
				15:leaf=0.0740451515
				16:leaf=-0.017720595
		4:[f32794<69.5] yes=9,no=10,missing=10
			9:leaf=0.0518678986
			10:leaf=-0.0307269096
	2:[f24457<10.5] yes=5,no=6,missing=5
		5:[f1005<77] yes=11,no=12,missing=12
			11:leaf=0.0681302845
			12:leaf=-0.0204569194
		6:[f485<381.5] yes=13,no=14,missing=13
			13:leaf=-0.0338948071
			14:[f23416<17.5] yes=17,no=18,missing=18
				17:leaf=0.0303732641
				18:leaf=-0.0214717239
booster[93]:
0:[f30743<98.5] yes=1,no=2,missing=1
	1:[f16051<86.5] yes=3,no=4,missing=3
		3:[f10267<110.5] yes=7,no=8,missing=7
			7:leaf=-0.0336646549
			8:[f18061<81.5] yes=15,no=16,missing=16
				15:leaf=0.024650367
				16:leaf=-0.0185479708
		4:[f3900<63.5] yes=9,no=10,missing=9
			9:leaf=0.0518309698
			10:leaf=-0.020156946
	2:[f1542<82.5] yes=5,no=6,missing=6
		5:[f18248<8.5] yes=11,no=12,missing=11
			11:[f26440<84.5] yes=17,no=18,missing=17
				17:leaf=-0.0316141658
				18:leaf=0.0188652128
			12:[f10124<29.5] yes=19,no=20,missing=20
				19:leaf=0.0742990449
				20:leaf=0.0142534263
		6:[f20705<118.5] yes=13,no=14,missing=14
			13:[f24241<64.5] yes=21,no=22,missing=22
				21:leaf=-0.0235752966
				22:leaf=0.0820147768
			14:[f12888<90.5] yes=23,no=24,missing=23
				23:leaf=-0.020400621
				24:leaf=0.0307006836
booster[94]:
0:[f21998<52.5] yes=1,no=2,missing=1
	1:[f27596<177.5] yes=3,no=4,missing=3
		3:[f9988<7.5] yes=7,no=8,missing=7
			7:[f24450<9.5] yes=15,no=16,missing=15
				15:leaf=-0.00102888304
				16:leaf=0.0499928594
			8:[f21060<95.5] yes=17,no=18,missing=17
				17:leaf=0.0657429472
				18:leaf=0.0027355107
		4:[f25403<223.5] yes=9,no=10,missing=10
			9:[f23343<61.5] yes=19,no=20,missing=20
				19:leaf=-0.00666946266
				20:leaf=0.0599813014
			10:[f31061<38.5] yes=21,no=22,missing=22
				21:leaf=-0.0255047046
				22:leaf=0.0338523202
	2:[f8476<281.5] yes=5,no=6,missing=5
		5:[f10384<61.5] yes=11,no=12,missing=11
			11:leaf=0.0760383531
			12:leaf=0.00462858891
		6:[f11463<72.5] yes=13,no=14,missing=14
			13:[f14449<146.5] yes=23,no=24,missing=24
				23:leaf=-0.0339431167
				24:leaf=0.00911786221
			14:[f13195<379.5] yes=25,no=26,missing=26
				25:leaf=0.0579339229
				26:leaf=-0.0148380296
booster[95]:
0:leaf=-0.0339011215
booster[96]:
0:[f2770<200.5] yes=1,no=2,missing=1
	1:leaf=-0.0337708555
	2:[f2290<58.5] yes=3,no=4,missing=4
		3:[f6722<58.5] yes=5,no=6,missing=6
			5:[f19433<10.5] yes=9,no=10,missing=10
				9:leaf=-0.000503613497
				10:leaf=0.0627042055
			6:[f18202<16.5] yes=11,no=12,missing=12
				11:leaf=0.00131385331
				12:leaf=-0.0230300371
		4:[f8780<52.5] yes=7,no=8,missing=7
			7:[f24676<322.5] yes=13,no=14,missing=13
				13:leaf=0.0205745921
				14:leaf=-0.0313795581
			8:[f17188<259.5] yes=15,no=16,missing=16
				15:leaf=0.0632839352
				16:leaf=-0.0214735419
booster[97]:
0:[f11345<244.5] yes=1,no=2,missing=1
	1:[f21151<166.5] yes=3,no=4,missing=3
		3:[f2652<145.5] yes=7,no=8,missing=7
			7:leaf=-0.033681009
			8:leaf=0.00409836881
		4:[f29217<29.5] yes=9,no=10,missing=10
			9:leaf=0.0547481775
			10:leaf=-0.023777537
	2:[f30263<66.5] yes=5,no=6,missing=5
		5:[f29354<56.5] yes=11,no=12,missing=12
			11:[f23234<41.5] yes=15,no=16,missing=16
				15:leaf=0.0213987008
				16:leaf=0.0615729466
			12:[f23923<39.5] yes=17,no=18,missing=18
				17:leaf=0.00156773662
				18:leaf=0.0462173782
		6:[f704<244.5] yes=13,no=14,missing=14
			13:[f17989<187.5] yes=19,no=20,missing=19
				19:leaf=-0.0334296823
				20:leaf=0.00554853119
			14:[f7149<65.5] yes=21,no=22,missing=22
				21:leaf=0.0723572448
				22:leaf=-0.00901853852
booster[98]:
0:[f29671<220.5] yes=1,no=2,missing=2
	1:[f32043<2.5] yes=3,no=4,missing=3
		3:[f16279<14.5] yes=7,no=8,missing=8
			7:leaf=-0.0276832227
			8:[f6673<53.5] yes=13,no=14,missing=13
				13:leaf=0.0571474098
				14:leaf=-0.0183212776
		4:[f1183<121.5] yes=9,no=10,missing=9
			9:[f2154<5.5] yes=15,no=16,missing=16
				15:leaf=0.0203636996
				16:leaf=-0.0332079791
			10:[f26832<47.5] yes=17,no=18,missing=18
				17:leaf=0.0720919371
				18:leaf=-0.0262939334
	2:[f4261<111.5] yes=5,no=6,missing=5
		5:[f15573<73.5] yes=11,no=12,missing=12
			11:[f27808<80.5] yes=19,no=20,missing=20
				19:leaf=-0.0337976106
				20:leaf=-0.00886353105
			12:[f14816<113.5] yes=21,no=22,missing=22
				21:leaf=0.0190635212
				22:leaf=-0.020513365
		6:leaf=0.05662008
booster[99]:
0:[f8682<63.5] yes=1,no=2,missing=1
	1:[f9332<219.5] yes=3,no=4,missing=3
		3:[f22809<5.5] yes=7,no=8,missing=8
			7:[f14929<26.5] yes=15,no=16,missing=16
				15:leaf=-0.0236362908
				16:leaf=0.0857259333
			8:[f16036<4.5] yes=17,no=18,missing=18
				17:leaf=0.029179953
				18:leaf=-0.0317971408
		4:[f3055<364.5] yes=9,no=10,missing=9
			9:[f3923<154.5] yes=19,no=20,missing=20
				19:leaf=0.0129196374
				20:leaf=0.0842216313
			10:leaf=-0.0251415577
	2:[f31757<94.5] yes=5,no=6,missing=5
		5:[f2550<67.5] yes=11,no=12,missing=11
			11:[f29402<10.5] yes=21,no=22,missing=22
				21:leaf=0.0541445874
				22:leaf=-0.0303127375
			12:[f29459<14.5] yes=23,no=24,missing=24
				23:leaf=-0.0157198198
				24:leaf=0.0615436472
		6:[f14739<53.5] yes=13,no=14,missing=13
			13:leaf=0.00405296031
			14:leaf=-0.0313266367
booster[100]:
0:[f21136<1.5] yes=1,no=2,missing=2
	1:[f22857<6.5] yes=3,no=4,missing=4
		3:[f9132<48.5] yes=7,no=8,missing=8
			7:leaf=-0.0221340153
			8:[f4120<107.5] yes=15,no=16,missing=15
				15:leaf=0.0704399794
				16:leaf=-0.0175514854
		4:[f30876<184.5] yes=9,no=10,missing=10
			9:leaf=0.0504361503
			10:leaf=-0.0305407234
	2:[f24457<10.5] yes=5,no=6,missing=5
		5:[f1005<77] yes=11,no=12,missing=12
			11:leaf=0.0650274679
			12:leaf=-0.0202220883
		6:[f2653<189.5] yes=13,no=14,missing=13
			13:leaf=-0.0337748677
			14:[f18840<101.5] yes=17,no=18,missing=17
				17:leaf=0.0304216538
				18:leaf=-0.0212903135
booster[101]:
0:[f30743<98.5] yes=1,no=2,missing=1
	1:[f16051<86.5] yes=3,no=4,missing=3
		3:[f10267<110.5] yes=7,no=8,missing=7
			7:leaf=-0.0335216522
			8:[f1472<80.5] yes=15,no=16,missing=16
				15:leaf=0.0246095378
				16:leaf=-0.0184717327
		4:[f23452<63.5] yes=9,no=10,missing=9
			9:leaf=0.0516165197
			10:leaf=-0.0201860238
	2:[f29606<94.5] yes=5,no=6,missing=5
		5:[f18248<8.5] yes=11,no=12,missing=11
			11:[f16068<87.5] yes=17,no=18,missing=17
				17:leaf=-0.0313590206
				18:leaf=0.0187070072
			12:[f26844<150] yes=19,no=20,missing=20
				19:leaf=-0.0225719102
				20:leaf=0.0772894099
		6:[f3115<13.5] yes=13,no=14,missing=14
			13:[f24158<32.5] yes=21,no=22,missing=22
				21:leaf=0.0623047277
				22:leaf=-0.0101915626
			14:[f14057<74.5] yes=23,no=24,missing=23
				23:leaf=0.0682030097
				24:leaf=-0.00167746563
booster[102]:
0:[f21998<53.5] yes=1,no=2,missing=1
	1:[f27596<177.5] yes=3,no=4,missing=3
		3:[f3488<46.5] yes=7,no=8,missing=7
			7:[f22337<49.5] yes=15,no=16,missing=15
				15:leaf=0.0406878404
				16:leaf=0.000148119667
			8:[f21435<492.5] yes=17,no=18,missing=17
				17:leaf=0.0620200634
				18:leaf=-0.00253386423
		4:[f25403<223.5] yes=9,no=10,missing=10
			9:[f15549<180.5] yes=19,no=20,missing=20
				19:leaf=0.00520818541
				20:leaf=0.0643433705
			10:[f31061<38.5] yes=21,no=22,missing=22
				21:leaf=-0.0251619928
				22:leaf=0.0322655588
	2:[f25084<217.5] yes=5,no=6,missing=6
		5:[f10591<80.5] yes=11,no=12,missing=11
			11:leaf=0.0748459473
			12:leaf=0.0167480242
		6:[f16669<210.5] yes=13,no=14,missing=13
			13:[f26140<77.5] yes=23,no=24,missing=24
				23:leaf=0.00351092755
				24:leaf=-0.0337608755
			14:leaf=0.0271985698
booster[103]:
0:leaf=-0.0337786078
booster[104]:
0:[f2770<200.5] yes=1,no=2,missing=1
	1:leaf=-0.0336517021
	2:[f2290<55.5] yes=3,no=4,missing=4
		3:[f28174<139.5] yes=5,no=6,missing=5
			5:[f26585<63.5] yes=9,no=10,missing=9
				9:leaf=0.071617499
				10:leaf=0.0109632136
			6:leaf=-0.00763333589
		4:[f6494<22.5] yes=7,no=8,missing=8
			7:[f30676<50.5] yes=11,no=12,missing=12
				11:leaf=0.0336633734
				12:leaf=-0.0289891642
			8:[f22980<17.5] yes=13,no=14,missing=14
				13:leaf=-0.0168051682
				14:leaf=0.0476490222
booster[105]:
0:[f1160<298.5] yes=1,no=2,missing=1
	1:[f24128<57.5] yes=3,no=4,missing=3
		3:leaf=-0.0333203599
		4:leaf=0.00168046087
	2:[f19421<38.5] yes=5,no=6,missing=6
		5:[f19979<88.5] yes=7,no=8,missing=8
			7:[f30397<2.5] yes=11,no=12,missing=12
				11:leaf=-0.0196644608
				12:leaf=0.0506440327
			8:[f388<174.5] yes=13,no=14,missing=14
				13:leaf=-0.0314025059
				14:leaf=0.0101111289
		6:[f21032<31.5] yes=9,no=10,missing=10
			9:[f17748<127.5] yes=15,no=16,missing=16
				15:leaf=-0.00811622571
				16:leaf=0.0475799665
			10:[f27383<41.5] yes=17,no=18,missing=18
				17:leaf=-0.0167160034
				18:leaf=0.0585186668
booster[106]:
0:[f29671<220.5] yes=1,no=2,missing=2
	1:[f32043<2.5] yes=3,no=4,missing=3
		3:[f16279<14.5] yes=7,no=8,missing=8
			7:leaf=-0.0274407547
			8:[f6673<53.5] yes=13,no=14,missing=13
				13:leaf=0.0539475232
				14:leaf=-0.0179419667
		4:[f1183<121.5] yes=9,no=10,missing=9
			9:[f2154<5.5] yes=15,no=16,missing=16
				15:leaf=0.0197670255
				16:leaf=-0.0330430232
			10:[f26832<47.5] yes=17,no=18,missing=18
				17:leaf=0.0687247515
				18:leaf=-0.0260182451
	2:[f4261<111.5] yes=5,no=6,missing=5
		5:[f15573<73.5] yes=11,no=12,missing=12
			11:[f27808<80.5] yes=19,no=20,missing=20
				19:leaf=-0.0336777829
				20:leaf=-0.00867762137
			12:[f8214<44.5] yes=21,no=22,missing=21
				21:leaf=0.0190720316
				22:leaf=-0.0203207862
		6:leaf=0.0541304685
booster[107]:
0:[f8682<63.5] yes=1,no=2,missing=1
	1:[f9332<219.5] yes=3,no=4,missing=3
		3:[f22809<5.5] yes=7,no=8,missing=8
			7:[f14929<26.5] yes=15,no=16,missing=16
				15:leaf=-0.0233005844
				16:leaf=0.0808739513
			8:[f16036<4.5] yes=17,no=18,missing=18
				17:leaf=0.0281611513
				18:leaf=-0.0316040814
		4:[f3055<364.5] yes=9,no=10,missing=9
			9:[f3923<155.5] yes=19,no=20,missing=20
				19:leaf=0.0148477433
				20:leaf=0.0807300657
			10:leaf=-0.0249178354
	2:[f1897<80.5] yes=5,no=6,missing=6
		5:[f2126<31.5] yes=11,no=12,missing=12
			11:[f4191<23.5] yes=21,no=22,missing=21
				21:leaf=0.056630265
				22:leaf=-0.0286597461
			12:[f16904<47.5] yes=23,no=24,missing=24
				23:leaf=-0.0242053699
				24:leaf=0.0619887151
		6:[f32302<47] yes=13,no=14,missing=14
			13:leaf=0.0438673049
			14:[f30053<479.5] yes=25,no=26,missing=25
				25:leaf=-0.0320239514
				26:leaf=0.0084616961
booster[108]:
0:[f21136<1.5] yes=1,no=2,missing=2
	1:[f11688<10.5] yes=3,no=4,missing=4
		3:[f22767<2.5] yes=7,no=8,missing=7
			7:[f32245<67.5] yes=13,no=14,missing=14
				13:leaf=-0.0254813917
				14:leaf=0.00268607656
			8:[f22772<3.5] yes=15,no=16,missing=16
				15:leaf=0.067369163
				16:leaf=-0.0175601915
		4:leaf=-0.0296043251
	2:[f24457<10.5] yes=5,no=6,missing=5
		5:[f1005<77] yes=9,no=10,missing=10
			9:leaf=0.0620593317
			10:leaf=-0.0199775454
		6:[f485<381.5] yes=11,no=12,missing=11
			11:leaf=-0.0336528867
			12:[f12716<139.5] yes=17,no=18,missing=17
				17:leaf=0.0302110314
				18:leaf=-0.0210703705
booster[109]:
0:[f11182<183.5] yes=1,no=2,missing=1
	1:leaf=-0.0334668122
	2:[f23664<87.5] yes=3,no=4,missing=3
		3:[f18248<6] yes=5,no=6,missing=5
			5:[f25280<51.5] yes=9,no=10,missing=9
				9:leaf=-0.0278191045
				10:leaf=0.0186699778
			6:[f146<359.5] yes=11,no=12,missing=12
				11:leaf=-0.00477140537
				12:leaf=0.0780583695
		4:[f18323<51.5] yes=7,no=8,missing=8
			7:[f2984<61.5] yes=13,no=14,missing=13
				13:leaf=-0.0114987567
				14:leaf=0.0303793885
			8:[f27741<245.5] yes=15,no=16,missing=16
				15:leaf=0.0755240694
				16:leaf=-0.0247691255
booster[110]:
0:[f21998<52.5] yes=1,no=2,missing=1
	1:[f27596<177.5] yes=3,no=4,missing=3
		3:[f9988<7.5] yes=7,no=8,missing=7
			7:[f30199<24.5] yes=15,no=16,missing=16
				15:leaf=0.00554685155
				16:leaf=0.0537070483
			8:[f6942<1.5] yes=17,no=18,missing=17
				17:leaf=-0.023153469
				18:leaf=0.0575830862
		4:[f30593<52.5] yes=9,no=10,missing=10
			9:[f5943<198.5] yes=19,no=20,missing=20
				19:leaf=0.0461274311
				20:leaf=-0.0185154639
			10:[f14868<59.5] yes=21,no=22,missing=22
				21:leaf=0.0804188102
				22:leaf=-0.00370848388
	2:[f8476<281.5] yes=5,no=6,missing=5
		5:[f31985<2.5] yes=11,no=12,missing=12
			11:leaf=-0.00454167416
			12:leaf=0.071734108
		6:[f11463<72.5] yes=13,no=14,missing=14
			13:[f14449<146.5] yes=23,no=24,missing=24
				23:leaf=-0.033663135
				24:leaf=0.00903378427
			14:[f13195<379.5] yes=25,no=26,missing=26
				25:leaf=0.0540486313
				26:leaf=-0.0143841486
booster[111]:
0:leaf=-0.0336603671
booster[112]:
0:[f2770<200.5] yes=1,no=2,missing=1
	1:leaf=-0.0335375406
	2:[f2290<58.5] yes=3,no=4,missing=4
		3:[f6722<58.5] yes=5,no=6,missing=6
			5:[f24204<7.5] yes=9,no=10,missing=10
				9:leaf=-0.0120222485
				10:leaf=0.0553774834
			6:[f5820<5.5] yes=11,no=12,missing=12
				11:leaf=-0.0231066868
				12:leaf=0.00120897579
		4:[f8780<52.5] yes=7,no=8,missing=7
			7:[f23583<207.5] yes=13,no=14,missing=14
				13:leaf=0.0200290792
				14:leaf=-0.0310560241
			8:[f17188<259.5] yes=15,no=16,missing=16
				15:leaf=0.0590388142
				16:leaf=-0.0213594418
booster[113]:
0:[f7818<127.5] yes=1,no=2,missing=1
	1:[f3686<119.5] yes=3,no=4,missing=3
		3:[f1779<104] yes=7,no=8,missing=7
			7:[f24130<124.5] yes=13,no=14,missing=13
				13:leaf=-0.0332586132
				14:leaf=0.00944521651
			8:leaf=0.0168585163
		4:leaf=0.030807646
	2:[f25554<44.5] yes=5,no=6,missing=6
		5:[f26774<56.5] yes=9,no=10,missing=10
			9:[f32261<74.5] yes=15,no=16,missing=15
				15:leaf=0.00784197915
				16:leaf=0.0466566123
			10:[f18704<218.5] yes=17,no=18,missing=17
				17:leaf=-0.0151042193
				18:leaf=0.0701932982
		6:[f3661<125.5] yes=11,no=12,missing=12
			11:[f9755<7.5] yes=19,no=20,missing=20
				19:leaf=0.0457452685
				20:leaf=-0.0242454093
			12:[f28606<54.5] yes=21,no=22,missing=22
				21:leaf=0.0616691038
				22:leaf=-0.0257844608
booster[114]:
0:[f29671<220.5] yes=1,no=2,missing=2
	1:[f32043<2.5] yes=3,no=4,missing=3
		3:[f16279<14.5] yes=7,no=8,missing=8
			7:leaf=-0.0272019152
			8:[f6673<53.5] yes=13,no=14,missing=13
				13:leaf=0.0510478392
				14:leaf=-0.0176144578
		4:[f4173<97.5] yes=9,no=10,missing=10
			9:[f2154<5.5] yes=15,no=16,missing=16
				15:leaf=0.0193341542
				16:leaf=-0.0329037048
			10:[f24578<85] yes=17,no=18,missing=17
				17:leaf=0.0652399957
				18:leaf=-0.0257560499
	2:[f4261<111.5] yes=5,no=6,missing=5
		5:[f15573<73.5] yes=11,no=12,missing=12
			11:[f27808<80.5] yes=19,no=20,missing=20
				19:leaf=-0.0335618854
				20:leaf=-0.00846873317
			12:[f6198<453.5] yes=21,no=22,missing=22
				21:leaf=0.0190668218
				22:leaf=-0.0201505013
		6:leaf=0.0520795658
booster[115]:
0:[f31763<61.5] yes=1,no=2,missing=1
	1:[f21943<56.5] yes=3,no=4,missing=3
		3:[f17877<4.5] yes=7,no=8,missing=8
			7:leaf=0.050537955
			8:leaf=-0.03231645
		4:[f23794<20.5] yes=9,no=10,missing=10
			9:[f17525<11.5] yes=15,no=16,missing=16
				15:leaf=0.0419898033
				16:leaf=-0.0293367114
			10:[f22837<4.5] yes=17,no=18,missing=18
				17:leaf=-0.0140081849
				18:leaf=0.0575500652
	2:[f9208<142.5] yes=5,no=6,missing=6
		5:[f4083<2.5] yes=11,no=12,missing=12
			11:[f12391<128.5] yes=19,no=20,missing=19
				19:leaf=-0.0221448429
				20:leaf=0.0917150825
			12:[f31499<181.5] yes=21,no=22,missing=22
				21:leaf=-0.0318949297
				22:leaf=0.0320811607
		6:[f11196<131.5] yes=13,no=14,missing=13
			13:[f418<108.5] yes=23,no=24,missing=23
				23:leaf=0.0048957034
				24:leaf=0.0827737525
			14:leaf=-0.021996934
booster[116]:
0:[f21136<1.5] yes=1,no=2,missing=2
	1:[f11688<10.5] yes=3,no=4,missing=4
		3:[f22767<2.5] yes=7,no=8,missing=7
			7:[f20465<59.5] yes=13,no=14,missing=14
				13:leaf=-0.0252499301
				14:leaf=0.00261540641
			8:[f22772<3.5] yes=15,no=16,missing=16
				15:leaf=0.0645385236
				16:leaf=-0.0173971877
		4:leaf=-0.0294056218
	2:[f24457<10.5] yes=5,no=6,missing=5
		5:[f1005<77] yes=9,no=10,missing=10
			9:leaf=0.0595155656
			10:leaf=-0.0197500363
		6:[f2653<189.5] yes=11,no=12,missing=11
			11:leaf=-0.0335415155
			12:[f8031<65] yes=17,no=18,missing=17
				17:leaf=0.0302518457
				18:leaf=-0.0209185574
booster[117]:
0:[f31815<285.5] yes=1,no=2,missing=1
	1:[f26904<237] yes=3,no=4,missing=3
		3:[f17626<143.5] yes=7,no=8,missing=7
			7:leaf=-0.033564534
			8:leaf=0.0093899807
		4:leaf=0.0392600559
	2:[f4795<94.5] yes=5,no=6,missing=6
		5:[f19016<54.5] yes=9,no=10,missing=9
			9:[f20046<144.5] yes=13,no=14,missing=14
				13:leaf=-0.00760371424
				14:leaf=-0.0305962935
			10:[f15542<127.5] yes=15,no=16,missing=16
				15:leaf=0.057270132
				16:leaf=0.00317355292
		6:[f12450<121.5] yes=11,no=12,missing=12
			11:[f28761<174.5] yes=17,no=18,missing=18
				17:leaf=0.043829713
				18:leaf=-0.0146189928
			12:[f13056<167.5] yes=19,no=20,missing=20
				19:leaf=0.0785396695
				20:leaf=-0.0161321051
booster[118]:
0:[f21998<53.5] yes=1,no=2,missing=1
	1:[f23362<184.5] yes=3,no=4,missing=3
		3:[f17416<11.5] yes=7,no=8,missing=7
			7:[f19876<22.5] yes=15,no=16,missing=16
				15:leaf=-0.0206187069
				16:leaf=0.0404671468
			8:[f11010<227.5] yes=17,no=18,missing=17
				17:leaf=0.0583590828
				18:leaf=-0.0212328844
		4:[f11805<83.5] yes=9,no=10,missing=9
			9:[f10642<63.5] yes=19,no=20,missing=19
				19:leaf=0.0295590404
				20:leaf=-0.0145103047
			10:[f15040<216.5] yes=21,no=22,missing=21
				21:leaf=-0.024539711
				22:leaf=0.0610808581
	2:[f25084<217.5] yes=5,no=6,missing=6
		5:[f18440<138.5] yes=11,no=12,missing=12
			11:leaf=0.0685754716
			12:leaf=0.0151963122
		6:[f16669<210.5] yes=13,no=14,missing=13
			13:[f16725<53.5] yes=23,no=24,missing=23
				23:leaf=-0.0334338136
				24:leaf=0.00476623885
			14:leaf=0.0259091333
booster[119]:
0:leaf=-0.0335467532
booster[120]:
0:[f2770<200.5] yes=1,no=2,missing=1
	1:leaf=-0.0334262997
	2:[f2290<55.5] yes=3,no=4,missing=4
		3:[f28174<139.5] yes=5,no=6,missing=5
			5:[f26585<63.5] yes=9,no=10,missing=9
				9:leaf=0.0654141456
				10:leaf=0.00942327362
			6:leaf=-0.00838891789
		4:[f6494<22.5] yes=7,no=8,missing=8
			7:[f31355<58] yes=11,no=12,missing=12
				11:leaf=0.0307076778
				12:leaf=-0.0289249774
			8:[f22980<17.5] yes=13,no=14,missing=14
				13:leaf=-0.0165723376
				14:leaf=0.0437269025
booster[121]:
0:[f14335<321.5] yes=1,no=2,missing=1
	1:[f13539<121.5] yes=3,no=4,missing=3
		3:leaf=-0.0331851281
		4:leaf=0.0168754589
	2:[f25554<44.5] yes=5,no=6,missing=6
		5:[f7600<111.5] yes=7,no=8,missing=7
			7:[f29214<29.5] yes=11,no=12,missing=12
				11:leaf=0.0595452823
				12:leaf=0.0169861186
			8:[f13421<66.5] yes=13,no=14,missing=13
				13:leaf=-0.0058931997
				14:leaf=0.0461603254
		6:[f10952<118.5] yes=9,no=10,missing=10
			9:[f13794<52.5] yes=15,no=16,missing=16
				15:leaf=0.027885003
				16:leaf=-0.0326023921
			10:[f19986<124.5] yes=17,no=18,missing=18
				17:leaf=0.033596959
				18:leaf=-0.0313030742
booster[122]:
0:[f29671<220.5] yes=1,no=2,missing=2
	1:[f32043<2.5] yes=3,no=4,missing=3
		3:[f16279<14.5] yes=7,no=8,missing=8
			7:leaf=-0.026959544
			8:[f4541<142.5] yes=13,no=14,missing=14
				13:leaf=0.0508900136
				14:leaf=-0.00400094548
		4:[f1183<121.5] yes=9,no=10,missing=9
			9:[f2154<5.5] yes=15,no=16,missing=16
				15:leaf=0.0188782103
				16:leaf=-0.0327186696
			10:[f26832<47.5] yes=17,no=18,missing=18
				17:leaf=0.0635022819
				18:leaf=-0.0255306661
	2:[f30605<133] yes=5,no=6,missing=5
		5:[f15573<73.5] yes=11,no=12,missing=12
			11:[f27808<80.5] yes=19,no=20,missing=20
				19:leaf=-0.0334503874
				20:leaf=-0.00830450188
			12:[f2968<61.5] yes=21,no=22,missing=21
				21:leaf=0.0190631952
				22:leaf=-0.0199966747
		6:leaf=0.0499165505
booster[123]:
0:[f31763<61.5] yes=1,no=2,missing=1
	1:[f21943<56.5] yes=3,no=4,missing=3
		3:[f17877<4.5] yes=7,no=8,missing=8
			7:leaf=0.0485935807
			8:leaf=-0.0321353264
		4:[f23794<20.5] yes=9,no=10,missing=10
			9:[f17525<11.5] yes=15,no=16,missing=16
				15:leaf=0.0404199287
				16:leaf=-0.0290980991
			10:[f19446<108] yes=17,no=18,missing=18
				17:leaf=0.0556056388
				18:leaf=0.000828827149
	2:[f2444<136.5] yes=5,no=6,missing=6
		5:[f19486<2.5] yes=11,no=12,missing=12
			11:leaf=0.0328730904
			12:[f31499<181.5] yes=19,no=20,missing=20
				19:leaf=-0.032312125
				20:leaf=0.0311756805
		6:[f26989<119.5] yes=13,no=14,missing=14
			13:[f13407<55.5] yes=21,no=22,missing=22
				21:leaf=0.00327085587
				22:leaf=0.0854108259
			14:[f16807<125.5] yes=23,no=24,missing=24
				23:leaf=0.0251839105
				24:leaf=-0.0291564949
booster[124]:
0:[f21136<1.5] yes=1,no=2,missing=2
	1:[f11982<108.5] yes=3,no=4,missing=4
		3:[f18356<107.5] yes=7,no=8,missing=8
			7:leaf=-0.0252326839
			8:[f11688<10.5] yes=15,no=16,missing=16
				15:leaf=0.0618393309
				16:leaf=-0.0180426333
		4:[f1525<187.5] yes=9,no=10,missing=9
			9:leaf=-0.029078545
			10:leaf=0.00480275601
	2:[f24457<10.5] yes=5,no=6,missing=5
		5:[f1005<77] yes=11,no=12,missing=12
			11:leaf=0.0570932217
			12:leaf=-0.019565912
		6:[f485<381.5] yes=13,no=14,missing=13
			13:leaf=-0.0334274918
			14:[f32250<4.5] yes=17,no=18,missing=18
				17:leaf=0.030006893
				18:leaf=-0.0206657276
booster[125]:
0:[f11182<183.5] yes=1,no=2,missing=1
	1:leaf=-0.0332023054
	2:[f23664<87.5] yes=3,no=4,missing=3
		3:[f18248<6] yes=5,no=6,missing=5
			5:[f24519<129.5] yes=9,no=10,missing=10
				9:leaf=-0.0277374145
				10:leaf=0.0184295736
			6:[f146<359.5] yes=11,no=12,missing=12
				11:leaf=-0.00449857116
				12:leaf=0.0713504478
		4:[f18323<51.5] yes=7,no=8,missing=8
			7:[f20630<118.5] yes=13,no=14,missing=13
				13:leaf=-0.00801674742
				14:leaf=0.0424488671
			8:[f27741<245.5] yes=15,no=16,missing=16
				15:leaf=0.0686156079
				16:leaf=-0.0243626386
booster[126]:
0:[f13202<281.5] yes=1,no=2,missing=1
	1:[f5962<275.5] yes=3,no=4,missing=3
		3:[f22376<98.5] yes=7,no=8,missing=7
			7:[f1814<2.5] yes=13,no=14,missing=13
				13:leaf=0.0143363671
				14:leaf=0.0492055714
			8:[f30928<92.5] yes=15,no=16,missing=16
				15:leaf=-0.0163744166
				16:leaf=0.0398782827
		4:[f200<261.5] yes=9,no=10,missing=10
			9:[f20507<254.5] yes=17,no=18,missing=18
				17:leaf=-0.029657213
				18:leaf=0.0251980852
			10:[f25585<72.5] yes=19,no=20,missing=20
				19:leaf=-0.0197645184
				20:leaf=0.0768849626
	2:[f93<201.5] yes=5,no=6,missing=6
		5:[f9783<78.5] yes=11,no=12,missing=12
			11:leaf=-0.0333815478
			12:leaf=0.000429891923
		6:leaf=0.0564256236
booster[127]:
0:leaf=-0.0334365964
booster[128]:
0:[f2770<200.5] yes=1,no=2,missing=1
	1:leaf=-0.0333189331
	2:[f1648<122.5] yes=3,no=4,missing=3
		3:[f30146<26.5] yes=5,no=6,missing=6
			5:[f10746<73.5] yes=9,no=10,missing=9
				9:leaf=-0.0272986982
				10:leaf=0.0365831815
			6:[f24204<7.5] yes=11,no=12,missing=12
				11:leaf=-0.0137967775
				12:leaf=0.0485714264
		4:[f19063<15.5] yes=7,no=8,missing=7
			7:leaf=-0.0301210508
			8:leaf=0.033050403
booster[129]:
0:[f10113<61.5] yes=1,no=2,missing=1
	1:[f947<158.5] yes=3,no=4,missing=3
		3:[f24506<165.5] yes=7,no=8,missing=7
			7:[f18112<4.5] yes=15,no=16,missing=15
				15:leaf=-0.00423389301
				16:leaf=-0.0336085446
			8:leaf=0.0147125926
		4:[f15270<28.5] yes=9,no=10,missing=10
			9:leaf=0.0567888506
			10:leaf=-0.0246055387
	2:[f25554<44.5] yes=5,no=6,missing=6
		5:[f22807<3.5] yes=11,no=12,missing=12
			11:[f29354<52.5] yes=17,no=18,missing=18
				17:leaf=0.0432756878
				18:leaf=-0.0044626086
			12:[f7600<111.5] yes=19,no=20,missing=19
				19:leaf=0.0534068234
				20:leaf=0.020212356
		6:[f28455<170.5] yes=13,no=14,missing=14
			13:[f13794<51.5] yes=21,no=22,missing=22
				21:leaf=0.0442423075
				22:leaf=-0.0234120116
			14:[f18182<47.5] yes=23,no=24,missing=24
				23:leaf=0.04802249
				24:leaf=-0.00969950389
booster[130]:
0:[f29671<220.5] yes=1,no=2,missing=2
	1:[f11445<37.5] yes=3,no=4,missing=4
		3:[f5173<6.5] yes=7,no=8,missing=7
			7:leaf=0.0498191975
			8:[f29098<205.5] yes=13,no=14,missing=14
				13:leaf=-0.0325674787
				14:leaf=0.00261878897
		4:[f22534<16.5] yes=9,no=10,missing=9
			9:[f16074<173.5] yes=15,no=16,missing=16
				15:leaf=0.0561691709
				16:leaf=-0.0162716042
			10:[f7917<125.5] yes=17,no=18,missing=18
				17:leaf=-0.0307524409
				18:leaf=0.0363250114
	2:[f4261<111.5] yes=5,no=6,missing=5
		5:[f15573<73.5] yes=11,no=12,missing=12
			11:[f27808<80.5] yes=19,no=20,missing=20
				19:leaf=-0.0333416127
				20:leaf=-0.00807706267
			12:[f28996<94.5] yes=21,no=22,missing=21
				21:leaf=0.0190826599
				22:leaf=-0.0197790582
		6:leaf=0.0484269597
booster[131]:
0:[f31763<61.5] yes=1,no=2,missing=1
	1:[f21943<56.5] yes=3,no=4,missing=3
		3:[f17877<4.5] yes=7,no=8,missing=8
			7:[f6828<9] yes=15,no=16,missing=16
				15:leaf=0.0134277334
				16:leaf=0.0565244257
			8:leaf=-0.0319651365
		4:[f23794<20.5] yes=9,no=10,missing=10
			9:[f17525<11.5] yes=17,no=18,missing=18
				17:leaf=0.038976077
				18:leaf=-0.0288797151
			10:[f4786<160.5] yes=19,no=20,missing=20
				19:leaf=0.053924907
				20:leaf=0.00905577652
	2:[f2444<136.5] yes=5,no=6,missing=6
		5:[f6946<1.5] yes=11,no=12,missing=12
			11:[f32757<120.5] yes=21,no=22,missing=22
				21:leaf=-0.0202138033
				22:leaf=0.0664955601
			12:[f31499<181.5] yes=23,no=24,missing=24
				23:leaf=-0.0323403068
				24:leaf=0.0302879848
		6:[f26989<119.5] yes=13,no=14,missing=14
			13:[f13407<55.5] yes=25,no=26,missing=26
				25:leaf=0.00299859629
				26:leaf=0.0804461539
			14:[f13955<88.5] yes=27,no=28,missing=28
				27:leaf=0.0245130155
				28:leaf=-0.0289268699
booster[132]:
0:[f21136<1.5] yes=1,no=2,missing=2
	1:[f11688<10.5] yes=3,no=4,missing=4
		3:[f22767<2.5] yes=7,no=8,missing=7
			7:[f25731<123.5] yes=13,no=14,missing=13
				13:leaf=0.00205653044
				14:leaf=-0.0247894917
			8:[f22772<3.5] yes=15,no=16,missing=16
				15:leaf=0.0592218563
				16:leaf=-0.0170549098
		4:leaf=-0.0290258788
	2:[f24457<10.5] yes=5,no=6,missing=5
		5:[f1005<77] yes=9,no=10,missing=10
			9:leaf=0.0548206866
			10:leaf=-0.0193094108
		6:[f10273<56.5] yes=11,no=12,missing=11
			11:leaf=-0.0333315842
			12:[f3490<211.5] yes=17,no=18,missing=18
				17:leaf=0.0301454049
				18:leaf=-0.0203801747
booster[133]:
0:[f8198<132.5] yes=1,no=2,missing=1
	1:[f24132<279.5] yes=3,no=4,missing=3
		3:[f24218<94.5] yes=7,no=8,missing=7
			7:leaf=-0.0332457945
			8:leaf=-0.00522035128
		4:[f31894<88.5] yes=9,no=10,missing=9
			9:leaf=0.0729804859
			10:leaf=-0.0265205279
	2:[f3520<193.5] yes=5,no=6,missing=6
		5:[f10677<47.5] yes=11,no=12,missing=11
			11:[f10134<39.5] yes=15,no=16,missing=15
				15:leaf=-0.00674322387
				16:leaf=0.0305300467
			12:[f12570<303.5] yes=17,no=18,missing=17
				17:leaf=0.0589684322
				18:leaf=-0.0170773454
		6:[f17236<207.5] yes=13,no=14,missing=13
			13:[f1960<108] yes=19,no=20,missing=20
				19:leaf=-0.0325834975
				20:leaf=0.0350957736
			14:[f18612<54.5] yes=21,no=22,missing=22
				21:leaf=0.0703009143
				22:leaf=-0.0164984744
booster[134]:
0:[f6902<129.5] yes=1,no=2,missing=1
	1:[f23362<183.5] yes=3,no=4,missing=3
		3:[f17416<11.5] yes=7,no=8,missing=7
			7:[f22113<66.5] yes=11,no=12,missing=12
				11:leaf=-0.00599268172
				12:leaf=0.0557106175
			8:[f32785<253.5] yes=13,no=14,missing=13
				13:leaf=0.0536225438
				14:leaf=-0.015263712
		4:[f27741<242.5] yes=9,no=10,missing=10
			9:[f10642<63.5] yes=15,no=16,missing=15
				15:leaf=0.0296425428
				16:leaf=-0.00637865812
			10:[f21911<78.5] yes=17,no=18,missing=18
				17:leaf=-0.026044026
				18:leaf=0.0573669188
	2:[f7880<218.5] yes=5,no=6,missing=6
		5:leaf=-0.032975398
		6:leaf=0.00300585548
booster[135]:
0:leaf=-0.0333308168
booster[136]:
0:[f2770<200.5] yes=1,no=2,missing=1
	1:leaf=-0.0332139581
	2:[f2290<55.5] yes=3,no=4,missing=4
		3:[f5520<51.5] yes=5,no=6,missing=5
			5:[f27441<108.5] yes=9,no=10,missing=9
				9:leaf=0.0152394511
				10:leaf=0.0613740534
			6:leaf=-0.0101053463
		4:[f6494<22.5] yes=7,no=8,missing=8
			7:[f14075<212.5] yes=11,no=12,missing=11
				11:leaf=0.0355021954
				12:leaf=-0.0266112573
			8:[f22980<17.5] yes=13,no=14,missing=14
				13:leaf=-0.016407501
				14:leaf=0.0399111845
booster[137]:
0:[f7818<127.5] yes=1,no=2,missing=1
	1:[f3686<119.5] yes=3,no=4,missing=3
		3:[f1779<104] yes=7,no=8,missing=7
			7:[f24130<124.5] yes=13,no=14,missing=13
				13:leaf=-0.0328970701
				14:leaf=0.00774515746
			8:leaf=0.0158416219
		4:leaf=0.0290766302
	2:[f19421<40.5] yes=5,no=6,missing=6
		5:[f18280<89.5] yes=9,no=10,missing=10
			9:[f30497<98.5] yes=15,no=16,missing=16
				15:leaf=0.0409690775
				16:leaf=-0.00541752065
			10:[f14842<243.5] yes=17,no=18,missing=17
				17:leaf=-0.028725883
				18:leaf=0.0448071696
		6:[f32469<291.5] yes=11,no=12,missing=11
			11:[f15303<49.5] yes=19,no=20,missing=19
				19:leaf=0.0315368026
				20:leaf=-0.0159836002
			12:[f25424<223.5] yes=21,no=22,missing=22
				21:leaf=-0.0198001545
				22:leaf=0.0455008633
booster[138]:
0:[f29671<220.5] yes=1,no=2,missing=2
	1:[f11445<37.5] yes=3,no=4,missing=4
		3:[f5173<6.5] yes=7,no=8,missing=7
			7:leaf=0.0482474715
			8:[f21144<1.5] yes=13,no=14,missing=14
				13:leaf=0.00254190178
				14:leaf=-0.0324107483
		4:[f30208<13.5] yes=9,no=10,missing=9
			9:[f26787<165.5] yes=15,no=16,missing=15
				15:leaf=0.0437635668
				16:leaf=-0.0251898449
			10:leaf=-0.0294271447
	2:[f3194<167] yes=5,no=6,missing=5
		5:[f15573<73.5] yes=11,no=12,missing=12
			11:[f27808<80.5] yes=17,no=18,missing=18
				17:leaf=-0.0332395583
				18:leaf=-0.00779292639
			12:[f12021<81.5] yes=19,no=20,missing=19
				19:leaf=0.0190881547
				20:leaf=-0.0195940398
		6:leaf=0.0467383415
booster[139]:
0:[f11275<22.5] yes=1,no=2,missing=1
	1:[f6262<23.5] yes=3,no=4,missing=3
		3:[f10940<65.5] yes=7,no=8,missing=8
			7:[f15304<3.5] yes=15,no=16,missing=16
				15:leaf=0.0348385982
				16:leaf=-0.0317731388
			8:[f32502<34.5] yes=17,no=18,missing=18
				17:leaf=0.0534420051
				18:leaf=-0.0236720834
		4:[f32377<47.5] yes=9,no=10,missing=9
			9:[f649<14.5] yes=19,no=20,missing=19
				19:leaf=0.000145037484
				20:leaf=0.0522928201
			10:[f2126<64.5] yes=21,no=22,missing=22
				21:leaf=-0.0205859449
				22:leaf=0.0535195284
	2:[f2444<136.5] yes=5,no=6,missing=5
		5:[f13693<14.5] yes=11,no=12,missing=12
			11:[f2507<79.5] yes=23,no=24,missing=24
				23:leaf=-0.0174478348
				24:leaf=0.0619935766
			12:[f16210<330.5] yes=25,no=26,missing=25
				25:leaf=-0.0320986807
				26:leaf=0.0142882597
		6:[f26989<119.5] yes=13,no=14,missing=14
			13:[f3261<54.5] yes=27,no=28,missing=28
				27:leaf=0.0115101971
				28:leaf=0.0765134543
			14:[f16807<125.5] yes=29,no=30,missing=30
				29:leaf=0.0245084241
				30:leaf=-0.0287683122
booster[140]:
0:[f21136<1.5] yes=1,no=2,missing=2
	1:[f11982<108.5] yes=3,no=4,missing=4
		3:[f18356<107.5] yes=7,no=8,missing=8
			7:leaf=-0.0247441232
			8:[f11688<10.5] yes=15,no=16,missing=16
				15:leaf=0.0571344234
				16:leaf=-0.0176342446
		4:[f3997<263.5] yes=9,no=10,missing=10
			9:leaf=-0.0287414007
			10:leaf=0.00454641692
	2:[f24457<10.5] yes=5,no=6,missing=5
		5:[f1005<77] yes=11,no=12,missing=12
			11:leaf=0.0527304634
			12:leaf=-0.01905871
		6:[f2653<189.5] yes=13,no=14,missing=13
			13:leaf=-0.033221025
			14:[f32178<196.5] yes=17,no=18,missing=17
				17:leaf=0.0298364963
				18:leaf=-0.020231558
booster[141]:
0:[f11182<183.5] yes=1,no=2,missing=1
	1:leaf=-0.0329708643
	2:[f23664<87.5] yes=3,no=4,missing=3
		3:[f18248<6] yes=5,no=6,missing=5
			5:[f5344<26.5] yes=9,no=10,missing=10
				9:leaf=-0.0276633501
				10:leaf=0.0181376301
			6:[f146<359.5] yes=11,no=12,missing=12
				11:leaf=-0.00445406977
				12:leaf=0.0663373694
		4:[f18323<51.5] yes=7,no=8,missing=8
			7:[f27791<71.5] yes=13,no=14,missing=14
				13:leaf=0.0225012228
				14:leaf=-0.0126955081
			8:[f17897<444.5] yes=15,no=16,missing=15
				15:leaf=0.0635120943
				16:leaf=-0.0179433562
booster[142]:
0:[f1533<169.5] yes=1,no=2,missing=1
	1:[f23362<183.5] yes=3,no=4,missing=3
		3:[f17416<10.5] yes=7,no=8,missing=7
			7:[f18979<173] yes=15,no=16,missing=15
				15:leaf=0.0335290469
				16:leaf=-0.0269620251
			8:[f32785<253.5] yes=17,no=18,missing=17
				17:leaf=0.050793644
				18:leaf=-0.0106369266
		4:[f48<700.5] yes=9,no=10,missing=9
			9:[f21056<375.5] yes=19,no=20,missing=20
				19:leaf=0.0256223679
				20:leaf=-0.0109415837
			10:[f4087<83.5] yes=21,no=22,missing=22
				21:leaf=0.0534666516
				22:leaf=-0.0280753039
	2:[f8210<80.5] yes=5,no=6,missing=6
		5:[f8861<103.5] yes=11,no=12,missing=11
			11:[f31461<25.5] yes=23,no=24,missing=24
				23:leaf=0.00109563256
				24:leaf=-0.0335207023
			12:leaf=0.028639853
		6:[f28109<331.5] yes=13,no=14,missing=14
			13:[f2173<32.5] yes=25,no=26,missing=26
				25:leaf=-0.0195143837
				26:leaf=0.0544389859
			14:[f14058<334.5] yes=27,no=28,missing=28
				27:leaf=-0.0288153682
				28:leaf=0.0174331442
booster[143]:
0:leaf=-0.0332290381
booster[144]:
0:[f2770<200.5] yes=1,no=2,missing=1
	1:leaf=-0.0331159383
	2:[f1648<122.5] yes=3,no=4,missing=3
		3:[f2290<55.5] yes=5,no=6,missing=6
			5:[f5520<51.5] yes=9,no=10,missing=9
				9:leaf=0.0571424551
				10:leaf=-0.010003644
			6:[f5168<35.5] yes=11,no=12,missing=12
				11:leaf=-0.0283435788
				12:leaf=0.0288738068
		4:[f19063<15.5] yes=7,no=8,missing=7
			7:leaf=-0.0298943445
			8:leaf=0.0314405859
booster[145]:
0:[f14335<321.5] yes=1,no=2,missing=1
	1:[f13539<121.5] yes=3,no=4,missing=3
		3:leaf=-0.0328420475
		4:leaf=0.0166619886
	2:[f18376<57.5] yes=5,no=6,missing=6
		5:[f25940<35.5] yes=7,no=8,missing=8
			7:[f26718<6.5] yes=11,no=12,missing=12
				11:leaf=0.0481905118
				12:leaf=0.00897977408
			8:[f27808<74.5] yes=13,no=14,missing=14
				13:leaf=0.0512941033
				14:leaf=0.00438187458
		6:[f9965<10.5] yes=9,no=10,missing=10
			9:[f10767<133.5] yes=15,no=16,missing=16
				15:leaf=-0.0187178329
				16:leaf=0.0597758442
			10:[f22290<181.5] yes=17,no=18,missing=18
				17:leaf=-0.0224910174
				18:leaf=0.0407382883
booster[146]:
0:[f29671<220.5] yes=1,no=2,missing=2
	1:[f11445<37.5] yes=3,no=4,missing=4
		3:[f5173<6.5] yes=7,no=8,missing=7
			7:leaf=0.0466931164
			8:[f29185<1.5] yes=13,no=14,missing=14
				13:leaf=0.00252111815
				14:leaf=-0.0322617441
		4:[f31457<31.5] yes=9,no=10,missing=10
			9:[f29902<14.5] yes=15,no=16,missing=15
				15:leaf=0.0438650474
				16:leaf=-0.0130343232
			10:leaf=-0.0292137861
	2:[f30605<133] yes=5,no=6,missing=5
		5:[f15573<73.5] yes=11,no=12,missing=12
			11:[f27808<80.5] yes=17,no=18,missing=18
				17:leaf=-0.0331394337
				18:leaf=-0.00753860129
			12:[f28879<317.5] yes=19,no=20,missing=20
				19:leaf=0.0191008057
				20:leaf=-0.0194435604
		6:leaf=0.0449584983
booster[147]:
0:[f31763<61.5] yes=1,no=2,missing=1
	1:[f21943<56.5] yes=3,no=4,missing=3
		3:[f17877<4.5] yes=7,no=8,missing=8
			7:[f3031<13] yes=15,no=16,missing=16
				15:leaf=0.0114184869
				16:leaf=0.0546304882
			8:leaf=-0.0316498578
		4:[f2736<39.5] yes=9,no=10,missing=9
			9:[f17334<119.5] yes=17,no=18,missing=18
				17:leaf=0.038724605
				18:leaf=-0.0289944597
			10:[f2154<17.5] yes=19,no=20,missing=20
				19:leaf=0.0197025221
				20:leaf=0.0524067506
	2:[f2444<136.5] yes=5,no=6,missing=6
		5:[f19486<2.5] yes=11,no=12,missing=12
			11:leaf=0.0327565782
			12:[f31499<181.5] yes=21,no=22,missing=22
				21:leaf=-0.0318536833
				22:leaf=0.0284975376
		6:[f30714<153.5] yes=13,no=14,missing=14
			13:[f17787<128.5] yes=23,no=24,missing=24
				23:leaf=-0.0177051108
				24:leaf=0.0673358887
			14:[f31957<167.5] yes=25,no=26,missing=25
				25:leaf=-0.00230227062
				26:leaf=-0.027643783
booster[148]:
0:[f21136<1.5] yes=1,no=2,missing=2
	1:[f11688<10.5] yes=3,no=4,missing=4
		3:[f22767<2.5] yes=7,no=8,missing=7
			7:[f8458<222.5] yes=13,no=14,missing=14
				13:leaf=-0.0243577212
				14:leaf=0.00159296836
			8:[f15089<34.5] yes=15,no=16,missing=16
				15:leaf=0.0555569939
				16:leaf=-0.00541522121
		4:leaf=-0.0286370348
	2:[f24457<10.5] yes=5,no=6,missing=5
		5:[f1005<77] yes=9,no=10,missing=10
			9:leaf=0.0512539484
			10:leaf=-0.0188165829
		6:[f10273<56.5] yes=11,no=12,missing=11
			11:leaf=-0.0331309214
			12:[f11410<81] yes=17,no=18,missing=18
				17:leaf=0.0298552141
				18:leaf=-0.0198940132
booster[149]:
0:[f31815<282.5] yes=1,no=2,missing=1
	1:[f19023<191.5] yes=3,no=4,missing=3
		3:leaf=-0.0331012905
		4:[f29009<26.5] yes=7,no=8,missing=8
			7:leaf=0.0429304764
			8:leaf=-0.0205745827
	2:[f28184<75.5] yes=5,no=6,missing=6
		5:[f25550<49.5] yes=9,no=10,missing=10
			9:[f19661<38.5] yes=13,no=14,missing=14
				13:leaf=0.0314001553
				14:leaf=-0.0142384712
			10:[f9722<156.5] yes=15,no=16,missing=15
				15:leaf=0.0537595972
				16:leaf=-0.0269139148
		6:[f31441<23.5] yes=11,no=12,missing=12
			11:[f7425<42.5] yes=17,no=18,missing=18
				17:leaf=0.0513703972
				18:leaf=-0.0173468012
			12:[f22757<8.5] yes=19,no=20,missing=19
				19:leaf=-0.0210501421
				20:leaf=0.0343684852
booster[150]:
0:[f13202<281.5] yes=1,no=2,missing=1
	1:[f5962<275.5] yes=3,no=4,missing=3
		3:[f22376<98.5] yes=7,no=8,missing=7
			7:[f1814<2.5] yes=13,no=14,missing=13
				13:leaf=0.0128382137
				14:leaf=0.043125581
			8:[f30928<92.5] yes=15,no=16,missing=16
				15:leaf=-0.0160986092
				16:leaf=0.0349149443
		4:[f200<275.5] yes=9,no=10,missing=10
			9:[f20507<254.5] yes=17,no=18,missing=18
				17:leaf=-0.0292583015
				18:leaf=0.0258655474
			10:[f31775<22.5] yes=19,no=20,missing=19
				19:leaf=-0.0172314756
				20:leaf=0.080787383
	2:[f93<201.5] yes=5,no=6,missing=6
		5:[f12284<94.5] yes=11,no=12,missing=12
			11:leaf=-0.0330403969
			12:leaf=-0.000277290179
		6:leaf=0.0516960658
booster[151]:
0:leaf=-0.033131931
booster[152]:
0:[f10474<127.5] yes=1,no=2,missing=1
	1:[f79<479.5] yes=3,no=4,missing=3
		3:leaf=-0.033047121
		4:leaf=0.00262480066
	2:[f1648<122.5] yes=5,no=6,missing=5
		5:[f13117<70.5] yes=7,no=8,missing=8
			7:[f15021<57.5] yes=11,no=12,missing=12
				11:leaf=0.0444553234
				12:leaf=-0.022594884
			8:[f14609<118.5] yes=13,no=14,missing=14
				13:leaf=-0.0286416374
				14:leaf=0.0311388504
		6:[f11357<186.5] yes=9,no=10,missing=10
			9:leaf=-0.029313663
			10:leaf=0.0207358915
booster[153]:
0:[f1195<102.5] yes=1,no=2,missing=1
	1:leaf=-0.0326824002
	2:[f14855<37.5] yes=3,no=4,missing=4
		3:[f4474<183.5] yes=5,no=6,missing=5
			5:[f25691<47.5] yes=9,no=10,missing=10
				9:leaf=0.0165499728
				10:leaf=-0.0159554034
			6:[f15223<106.5] yes=11,no=12,missing=12
				11:leaf=0.0680271611
				12:leaf=-0.0193541348
		4:[f19809<81.5] yes=7,no=8,missing=8
			7:[f17898<153.5] yes=13,no=14,missing=14
				13:leaf=0.0386409983
				14:leaf=-0.0163235497
			8:[f20028<242.5] yes=15,no=16,missing=15
				15:leaf=-0.0182259474
				16:leaf=0.0573616326
booster[154]:
0:[f29671<220.5] yes=1,no=2,missing=2
	1:[f17410<77.5] yes=3,no=4,missing=3
		3:[f6517<26.5] yes=7,no=8,missing=8
			7:leaf=-0.0292551424
			8:[f6673<53.5] yes=13,no=14,missing=13
				13:leaf=0.0425799638
				14:leaf=-0.0181536395
		4:[f25056<146.5] yes=9,no=10,missing=9
			9:leaf=-0.0321623534
			10:[f11930<24] yes=15,no=16,missing=16
				15:leaf=0.047074426
				16:leaf=-0.0221701358
	2:[f4261<111.5] yes=5,no=6,missing=5
		5:[f15573<73.5] yes=11,no=12,missing=12
			11:[f22517<70.5] yes=17,no=18,missing=17
				17:leaf=-0.0330486856
				18:leaf=-0.0077824234
			12:[f1508<44.5] yes=19,no=20,missing=20
				19:leaf=-0.0191949364
				20:leaf=0.019086618
		6:leaf=0.0440482013
booster[155]:
0:[f31763<61.5] yes=1,no=2,missing=1
	1:[f25440<47.5] yes=3,no=4,missing=3
		3:[f29732<72.5] yes=7,no=8,missing=8
			7:leaf=-0.0315957256
			8:[f20926<50.5] yes=15,no=16,missing=15
				15:leaf=0.0496043153
				16:leaf=-0.0170899443
		4:[f2126<31.5] yes=9,no=10,missing=10
			9:[f12940<19.5] yes=17,no=18,missing=17
				17:leaf=0.0483205654
				18:leaf=-0.0323095992
			10:[f23044<111.5] yes=19,no=20,missing=19
				19:leaf=0.0507686548
				20:leaf=-0.00434501981
	2:[f2444<136.5] yes=5,no=6,missing=6
		5:[f6946<1.5] yes=11,no=12,missing=12
			11:[f32757<120.5] yes=21,no=22,missing=22
				21:leaf=-0.0193647258
				22:leaf=0.0638784617
			12:[f31499<181.5] yes=23,no=24,missing=24
				23:leaf=-0.0319073871
				24:leaf=0.0277264677
		6:[f30714<153.5] yes=13,no=14,missing=14
			13:[f19012<259.5] yes=25,no=26,missing=26
				25:leaf=-0.0139449984
				26:leaf=0.0652279556
			14:[f9569<88.5] yes=27,no=28,missing=27
				27:leaf=-0.00224926416
				28:leaf=-0.0274366643
booster[156]:
0:[f28835<3.5] yes=1,no=2,missing=2
	1:[f31609<72.5] yes=3,no=4,missing=4
		3:[f12282<10.5] yes=7,no=8,missing=8
			7:[f3826<82.5] yes=9,no=10,missing=10
				9:leaf=0.00214412529
				10:leaf=-0.023292711
			8:[f10698<1.5] yes=11,no=12,missing=12
				11:leaf=-0.00991342962
				12:leaf=0.0543727614
		4:leaf=-0.0309072044
	2:[f30577<295.5] yes=5,no=6,missing=5
		5:leaf=-0.0330469422
		6:leaf=0.025167143
booster[157]:
0:[f11182<183.5] yes=1,no=2,missing=1
	1:leaf=-0.0327475965
	2:[f29606<94.5] yes=3,no=4,missing=3
		3:[f18248<7] yes=5,no=6,missing=5
			5:[f22633<37.5] yes=9,no=10,missing=9
				9:leaf=-0.0276049692
				10:leaf=0.0178321432
			6:[f29590<39.5] yes=11,no=12,missing=12
				11:leaf=0.0611143298
				12:leaf=-0.0168670584
		4:[f3115<13.5] yes=7,no=8,missing=8
			7:[f4091<232.5] yes=13,no=14,missing=13
				13:leaf=0.0498100966
				14:leaf=-0.0106445756
			8:[f13903<231.5] yes=15,no=16,missing=16
				15:leaf=0.0557315722
				16:leaf=-0.00309889973
booster[158]:
0:[f6902<129.5] yes=1,no=2,missing=1
	1:[f19790<241.5] yes=3,no=4,missing=3
		3:[f12778<15.5] yes=7,no=8,missing=7
			7:[f3860<21.5] yes=11,no=12,missing=12
				11:leaf=0.0342561565
				12:leaf=-0.0214745142
			8:[f10605<100.5] yes=13,no=14,missing=13
				13:leaf=0.0472513251
				14:leaf=-0.0243717451
		4:[f27741<242.5] yes=9,no=10,missing=10
			9:[f20381<171.5] yes=15,no=16,missing=16
				15:leaf=0.035563346
				16:leaf=-0.00110027019
