booster[0]:
0:[f22851<70.5] yes=1,no=2,missing=1
	1:[f16037<1.5] yes=3,no=4,missing=3
		3:[f26<275.5] yes=7,no=8,missing=8
			7:leaf=0.0634596646
			8:leaf=-0.0192000493
		4:leaf=-0.0355861895
	2:[f30048<63.5] yes=5,no=6,missing=5
		5:[f16058<273.5] yes=9,no=10,missing=10
			9:leaf=0.0171325859
			10:leaf=0.200680792
		6:[f19438<79.5] yes=11,no=12,missing=12
			11:[f5011<22.5] yes=13,no=14,missing=13
				13:leaf=0.139224723
				14:leaf=-0.0210087318
			12:[f31751<48.5] yes=15,no=16,missing=15
				15:leaf=-0.0218113512
				16:leaf=0.0628551915
booster[1]:
0:[f24965<89.5] yes=1,no=2,missing=1
	1:[f4393<75.5] yes=3,no=4,missing=3
		3:[f6719<77.5] yes=7,no=8,missing=7
			7:[f12888<103.5] yes=15,no=16,missing=15
				15:leaf=-0.035370674
				16:leaf=0.00727364654
			8:leaf=0.0498094633
		4:[f27911<7.5] yes=9,no=10,missing=10
			9:[f1027<291.5] yes=17,no=18,missing=18
				17:leaf=0.14706485
				18:leaf=0.0304695498
			10:[f100<405.5] yes=19,no=20,missing=20
				19:leaf=-0.00366599322
				20:leaf=-0.0206862334
	2:[f18376<57.5] yes=5,no=6,missing=6
		5:[f32869<129.5] yes=11,no=12,missing=12
			11:[f17433<13.5] yes=21,no=22,missing=21
				21:leaf=0.0569990352
				22:leaf=0.19422175
			12:[f25940<35.5] yes=23,no=24,missing=24
				23:leaf=0.0471123457
				24:leaf=0.154858559
		6:[f27369<44.5] yes=13,no=14,missing=14
			13:[f21850<65.5] yes=25,no=26,missing=26
				25:leaf=0.0110044666
				26:leaf=0.168134138
			14:[f25563<29.5] yes=27,no=28,missing=28
				27:leaf=0.0637343675
				28:leaf=-0.0218253043
booster[2]:
0:[f7852<27.5] yes=1,no=2,missing=2
	1:[f19119<51.5] yes=3,no=4,missing=3
		3:[f2597<10.5] yes=7,no=8,missing=7
			7:leaf=0.0294261407
			8:leaf=-0.0297285803
		4:[f14462<40.5] yes=9,no=10,missing=10
			9:[f19672<22.5] yes=15,no=16,missing=15
				15:leaf=0.208178267
				16:leaf=0.0524766184
			10:leaf=0.0157289989
	2:[f12237<116.5] yes=5,no=6,missing=5
		5:[f14868<79.5] yes=11,no=12,missing=12
			11:[f9342<84.5] yes=17,no=18,missing=17
				17:leaf=-0.0334318988
				18:leaf=0.0555584133
			12:[f27177<33.5] yes=19,no=20,missing=20
				19:leaf=0.103659555
				20:leaf=-0.0272766389
		6:[f16962<72] yes=13,no=14,missing=13
			13:[f7185<34.5] yes=21,no=22,missing=21
				21:leaf=0.0262942687
				22:leaf=0.181490049
			14:[f6679<89.5] yes=23,no=24,missing=23
				23:leaf=-0.0294199102
				24:leaf=0.0765120611
booster[3]:
0:[f20360<316.5] yes=1,no=2,missing=1
	1:[f21286<80.5] yes=3,no=4,missing=3
		3:[f1836<16] yes=7,no=8,missing=8
			7:[f645<12.5] yes=13,no=14,missing=13
				13:leaf=-0.0195400491
				14:leaf=0.172062382
			8:[f31499<180.5] yes=15,no=16,missing=15
				15:leaf=-0.029234862
				16:leaf=0.0877441689
		4:leaf=0.216069534
	2:[f13120<413.5] yes=5,no=6,missing=5
		5:[f521<9.5] yes=9,no=10,missing=9
			9:leaf=0.0631110817
			10:leaf=0.237173319
		6:[f2440<29.5] yes=11,no=12,missing=12
			11:leaf=0.0602251664
			12:leaf=-0.0202980284
booster[4]:
0:[f21136<1.5] yes=1,no=2,missing=2
	1:[f32035<39.5] yes=3,no=4,missing=4
		3:[f20671<80.5] yes=7,no=8,missing=7
			7:[f857<46.5] yes=15,no=16,missing=16
				15:leaf=-0.0226444397
				16:leaf=0.00646570325
			8:[f6061<107.5] yes=17,no=18,missing=17
				17:leaf=0.0449990332
				18:leaf=0.223250747
		4:[f22580<14.5] yes=9,no=10,missing=10
			9:leaf=0.038189128
			10:leaf=-0.032568682
	2:[f24457<10.5] yes=5,no=6,missing=5
		5:[f6262<92.5] yes=11,no=12,missing=11
			11:leaf=-0.0248365309
			12:leaf=0.135964185
		6:[f23909<525.5] yes=13,no=14,missing=13
			13:[f10956<200] yes=19,no=20,missing=19
				19:leaf=-0.0355854556
				20:leaf=0.000620553619
			14:[f901<197.5] yes=21,no=22,missing=22
				21:leaf=0.0550546646
				22:leaf=-0.0180320144
booster[5]:
0:[f2528<369.5] yes=1,no=2,missing=1
	1:[f3389<147.5] yes=3,no=4,missing=3
		3:[f27808<74.5] yes=7,no=8,missing=7
			7:[f31125<186.5] yes=11,no=12,missing=11
				11:leaf=-0.0296498779
				12:leaf=0.0652136654
			8:[f20737<279.5] yes=13,no=14,missing=14
				13:leaf=0.141367599
				14:leaf=-0.0170267448
		4:[f23664<98.5] yes=9,no=10,missing=9
			9:[f8765<288.5] yes=15,no=16,missing=15
				15:leaf=0.0275462847
				16:leaf=0.160693914
			10:[f9984<126.5] yes=17,no=18,missing=18
				17:leaf=0.0511787906
				18:leaf=-0.021732565
	2:[f30201<42.5] yes=5,no=6,missing=5
		5:leaf=0.0122317197
		6:leaf=0.225944087
booster[6]:
0:[f8680<38.5] yes=1,no=2,missing=1
	1:[f24104<142.5] yes=3,no=4,missing=3
		3:[f14938<16.5] yes=7,no=8,missing=8
			7:[f19111<4.5] yes=15,no=16,missing=15
				15:leaf=0.0886625126
				16:leaf=-0.0213557053
			8:[f9783<141] yes=17,no=18,missing=17
				17:leaf=0.23929435
				18:leaf=0.0532522239
		4:[f14727<67.5] yes=9,no=10,missing=10
			9:[f30676<18] yes=19,no=20,missing=20
				19:leaf=0.0249248259
				20:leaf=-0.0269725043
			10:leaf=0.127327919
	2:[f25941<70.5] yes=5,no=6,missing=6
		5:[f9640<19.5] yes=11,no=12,missing=11
			11:[f26965<54.5] yes=21,no=22,missing=22
				21:leaf=0.0209775232
				22:leaf=0.199159354
			12:[f1335<73] yes=23,no=24,missing=23
				23:leaf=-0.00836724974
				24:leaf=0.150051713
		6:[f17431<15.5] yes=13,no=14,missing=13
			13:[f32111<20.5] yes=25,no=26,missing=26
				25:leaf=0.0531601235
				26:leaf=0.189438894
			14:[f19939<16.5] yes=27,no=28,missing=28
				27:leaf=0.114300974
				28:leaf=-0.0150113925
booster[7]:
0:leaf=-0.0355983973
booster[8]:
0:[f22851<69.5] yes=1,no=2,missing=1
	1:[f30763<135.5] yes=3,no=4,missing=3
		3:leaf=-0.0354058594
		4:leaf=0.00255381945
	2:[f2290<58.5] yes=5,no=6,missing=6
		5:[f23690<56.5] yes=7,no=8,missing=8
			7:[f8410<77.5] yes=11,no=12,missing=12
				11:leaf=-0.0198548175
				12:leaf=0.146183461
			8:[f21654<17.5] yes=13,no=14,missing=14
				13:leaf=-0.0228543319
				14:leaf=0.0228412021
		6:[f27284<56.5] yes=9,no=10,missing=10
			9:[f29902<44.5] yes=15,no=16,missing=16
				15:leaf=0.0225523598
				16:leaf=-0.0319397002
			10:leaf=0.0612590052
booster[9]:
0:[f8377<173.5] yes=1,no=2,missing=1
	1:[f14909<175.5] yes=3,no=4,missing=3
		3:leaf=-0.0351942405
		4:leaf=0.0155586703
	2:[f21032<31.5] yes=5,no=6,missing=5
		5:[f18248<3.5] yes=7,no=8,missing=7
			7:leaf=0.188618958
			8:[f1335<45.5] yes=11,no=12,missing=11
				11:leaf=0.0618529804
				12:leaf=-0.0142824491
		6:[f30422<94.5] yes=9,no=10,missing=9
			9:[f8991<14.5] yes=13,no=14,missing=14
				13:leaf=0.0687260926
				14:leaf=-0.0171239432
			10:[f23217<35.5] yes=15,no=16,missing=15
				15:leaf=0.157626793
				16:leaf=0.0159386937
booster[10]:
0:[f7852<27.5] yes=1,no=2,missing=2
	1:[f9627<15.5] yes=3,no=4,missing=3
		3:leaf=-0.0296142548
		4:[f17395<28.5] yes=7,no=8,missing=8
			7:[f4690<4.5] yes=13,no=14,missing=14
				13:leaf=0.0448850468
				14:leaf=0.171926916
			8:leaf=-0.0208437536
	2:[f12237<116.5] yes=5,no=6,missing=5
		5:[f14868<79.5] yes=9,no=10,missing=10
			9:[f9342<78.5] yes=15,no=16,missing=15
				15:leaf=-0.0333677493
				16:leaf=0.0411720835
			10:[f22251<93.5] yes=17,no=18,missing=18
				17:leaf=0.0958068371
				18:leaf=-0.0250266902
		6:[f18196<54] yes=11,no=12,missing=11
			11:[f8983<58.5] yes=19,no=20,missing=20
				19:leaf=0.153735265
				20:leaf=0.00545212673
			12:[f32148<59.5] yes=21,no=22,missing=22
				21:leaf=-0.028034484
				22:leaf=0.0293977801
booster[11]:
0:[f20360<316.5] yes=1,no=2,missing=1
	1:[f21286<80.5] yes=3,no=4,missing=3
		3:[f30428<3.5] yes=7,no=8,missing=7
			7:[f9332<126] yes=11,no=12,missing=12
				11:leaf=-0.0195360053
				12:leaf=0.15253818
			8:[f16037<386] yes=13,no=14,missing=14
				13:leaf=-0.0286423098
				14:leaf=0.103584699
		4:leaf=0.17837894
	2:[f11496<105.5] yes=5,no=6,missing=6
		5:[f165<10] yes=9,no=10,missing=10
			9:leaf=0.0222074185
			10:[f31615<41.5] yes=15,no=16,missing=15
				15:leaf=0.192507371
				16:leaf=0.0528591312
		6:leaf=-0.019928867
booster[12]:
0:[f21136<1.5] yes=1,no=2,missing=2
	1:[f32035<39.5] yes=3,no=4,missing=4
		3:[f20671<80.5] yes=7,no=8,missing=7
			7:[f12181<243.5] yes=15,no=16,missing=16
				15:leaf=-0.0225589219
				16:leaf=0.00648758188
			8:[f19950<100.5] yes=17,no=18,missing=18
				17:leaf=0.18376644
				18:leaf=0.0281894132
		4:[f22580<14.5] yes=9,no=10,missing=10
			9:leaf=0.0367392264
			10:leaf=-0.0323438458
	2:[f24457<10.5] yes=5,no=6,missing=5
		5:[f6262<92.5] yes=11,no=12,missing=11
			11:leaf=-0.0246324874
			12:leaf=0.124872327
		6:[f23909<525.5] yes=13,no=14,missing=13
			13:[f10956<200] yes=19,no=20,missing=19
				19:leaf=-0.0354037806
				20:leaf=0.000683592109
			14:[f4492<71.5] yes=21,no=22,missing=22
				21:leaf=-0.0183569845
				22:leaf=0.0550611578
booster[13]:
0:[f8634<394.5] yes=1,no=2,missing=1
	1:[f3389<147.5] yes=3,no=4,missing=3
		3:[f27808<74.5] yes=7,no=8,missing=7
			7:[f27456<304.5] yes=13,no=14,missing=13
				13:leaf=-0.0292532332
				14:leaf=0.0777421445
			8:[f20737<279.5] yes=15,no=16,missing=16
				15:leaf=0.123997681
				16:leaf=-0.0167371389
		4:[f23664<98.5] yes=9,no=10,missing=9
			9:[f21485<28.5] yes=17,no=18,missing=18
				17:leaf=0.0119930189
				18:leaf=0.136817008
			10:[f28661<110.5] yes=19,no=20,missing=19
				19:leaf=0.0564915612
				20:leaf=-0.0184217263
	2:[f18248<25] yes=5,no=6,missing=5
		5:[f2189<87.5] yes=11,no=12,missing=11
			11:leaf=-0.0221519582
			12:leaf=0.0190233141
		6:leaf=0.189642712
booster[14]:
0:[f8680<38.5] yes=1,no=2,missing=1
	1:[f24104<142.5] yes=3,no=4,missing=3
		3:[f12778<14.5] yes=7,no=8,missing=7
			7:[f16778<16.5] yes=15,no=16,missing=16
				15:leaf=0.0908652022
				16:leaf=-0.019071715
			8:[f23907<257] yes=17,no=18,missing=17
				17:leaf=0.192361608
				18:leaf=0.00114530604
		4:[f26486<64.5] yes=9,no=10,missing=10
			9:[f6172<122.5] yes=19,no=20,missing=20
				19:leaf=-0.0271087866
				20:leaf=0.027761396
			10:leaf=0.118505709
	2:[f26605<101.5] yes=5,no=6,missing=5
		5:[f9428<62.5] yes=11,no=12,missing=11
			11:[f15049<62.5] yes=21,no=22,missing=21
				21:leaf=0.138034046
				22:leaf=0.00456861407
			12:[f27383<2.5] yes=23,no=24,missing=23
				23:leaf=0.0706225708
				24:leaf=-0.0268367827
		6:[f25677<8.5] yes=13,no=14,missing=14
			13:[f27688<407.5] yes=25,no=26,missing=26
				25:leaf=0.0852911994
				26:leaf=-0.0246430598
			14:[f23951<102.5] yes=27,no=28,missing=27
				27:leaf=0.107059941
				28:leaf=0.0227287374
booster[15]:
0:leaf=-0.035415981
booster[16]:
0:[f22851<69.5] yes=1,no=2,missing=1
	1:[f30763<135.5] yes=3,no=4,missing=3
		3:leaf=-0.0352290794
		4:leaf=0.00249690749
	2:[f2290<58.5] yes=5,no=6,missing=6
		5:[f6246<95.5] yes=7,no=8,missing=8
			7:leaf=-0.0232256781
			8:[f23690<57.5] yes=11,no=12,missing=12
				11:leaf=0.125765368
				12:leaf=-0.00821100548
		6:[f27284<56.5] yes=9,no=10,missing=10
			9:[f29902<44.5] yes=13,no=14,missing=14
				13:leaf=0.0220881589
				14:leaf=-0.0317205526
			10:leaf=0.0584933609
booster[17]:
0:[f8377<173.5] yes=1,no=2,missing=1
	1:[f14909<175.5] yes=3,no=4,missing=3
		3:leaf=-0.0350086354
		4:leaf=0.0148855466
	2:[f18376<56.5] yes=5,no=6,missing=6
		5:[f24613<135.5] yes=7,no=8,missing=8
			7:[f25941<63.5] yes=11,no=12,missing=12
				11:leaf=0.0653158054
				12:leaf=-0.0157266464
			8:[f30263<66.5] yes=13,no=14,missing=13
				13:leaf=0.120779321
				14:leaf=-0.00520940963
		6:[f17635<19.5] yes=9,no=10,missing=10
			9:[f13312<23.5] yes=15,no=16,missing=16
				15:leaf=0.101866961
				16:leaf=-0.0155678689
			10:[f25563<29.5] yes=17,no=18,missing=18
				17:leaf=0.0742211863
				18:leaf=-0.019709073
booster[18]:
0:[f7852<27.5] yes=1,no=2,missing=2
	1:[f16415<16.5] yes=3,no=4,missing=3
		3:[f31013<1.5] yes=7,no=8,missing=8
			7:leaf=0.00562836556
			8:leaf=-0.0289631225
		4:[f17395<28.5] yes=9,no=10,missing=10
			9:[f28170<38.5] yes=15,no=16,missing=16
				15:leaf=0.153517827
				16:leaf=0.0457768068
			10:leaf=-0.0217682216
	2:[f12237<116.5] yes=5,no=6,missing=5
		5:[f14868<79.5] yes=11,no=12,missing=12
			11:[f9342<78.5] yes=17,no=18,missing=17
				17:leaf=-0.0331380963
				18:leaf=0.0391463712
			12:[f27177<33.5] yes=19,no=20,missing=20
				19:leaf=0.0871938765
				20:leaf=-0.026897192
		6:[f18196<54] yes=13,no=14,missing=13
			13:[f8104<74.5] yes=21,no=22,missing=22
				21:leaf=0.132952288
				22:leaf=-0.0111164004
			14:[f26773<108.5] yes=23,no=24,missing=23
				23:leaf=-0.0279530771
				24:leaf=0.0293531194
booster[19]:
0:[f9338<61.5] yes=1,no=2,missing=1
	1:[f31499<180.5] yes=3,no=4,missing=3
		3:[f19923<2.5] yes=7,no=8,missing=8
			7:[f13001<61.5] yes=15,no=16,missing=16
				15:leaf=-0.017016178
				16:leaf=0.126656204
			8:[f2460<90.5] yes=17,no=18,missing=17
				17:leaf=-0.031880796
				18:leaf=0.0275585577
		4:[f31801<109.5] yes=9,no=10,missing=10
			9:leaf=0.148964569
			10:leaf=-0.0230541974
	2:[f8547<69.5] yes=5,no=6,missing=5
		5:[f2178<50.5] yes=11,no=12,missing=11
			11:[f4295<27.5] yes=19,no=20,missing=19
				19:leaf=0.104662567
				20:leaf=-0.0114197191
			12:[f30187<64.5] yes=21,no=22,missing=22
				21:leaf=-0.00290504121
				22:leaf=0.160482183
		6:[f9590<133.5] yes=13,no=14,missing=14
			13:[f3494<344] yes=23,no=24,missing=24
				23:leaf=-0.0326416828
				24:leaf=0.00343970698
			14:leaf=0.0752544478
booster[20]:
0:[f21136<1.5] yes=1,no=2,missing=2
	1:[f32035<39.5] yes=3,no=4,missing=4
		3:[f20671<80.5] yes=7,no=8,missing=7
			7:[f8449<139.5] yes=15,no=16,missing=16
				15:leaf=0.00653092749
				16:leaf=-0.0223793294
			8:[f8112<26.5] yes=17,no=18,missing=18
				17:leaf=0.0276264679
				18:leaf=0.157781735
		4:[f22580<14.5] yes=9,no=10,missing=10
			9:leaf=0.035385862
			10:leaf=-0.0321243182
	2:[f24457<10.5] yes=5,no=6,missing=5
		5:[f6262<92.5] yes=11,no=12,missing=11
			11:leaf=-0.0243251976
			12:leaf=0.116692036
		6:[f23909<525.5] yes=13,no=14,missing=13
			13:[f10956<200] yes=19,no=20,missing=19
				19:leaf=-0.0352294408
				20:leaf=0.000823379087
			14:[f8195<183.5] yes=21,no=22,missing=21
				21:leaf=0.0549628437
				22:leaf=-0.0186141618
booster[21]:
0:[f30743<98.5] yes=1,no=2,missing=1
	1:[f9198<252.5] yes=3,no=4,missing=3
		3:[f29001<136.5] yes=7,no=8,missing=7
			7:[f10267<110.5] yes=13,no=14,missing=13
				13:leaf=-0.0351665467
				14:leaf=-0.00917206332
			8:leaf=0.00686811237
		4:leaf=0.038257651
	2:[f20058<139.5] yes=5,no=6,missing=5
		5:[f28605<107.5] yes=9,no=10,missing=9
			9:[f10695<30.5] yes=15,no=16,missing=16
				15:leaf=-0.000566179107
				16:leaf=0.121601477
			10:[f20705<118.5] yes=17,no=18,missing=18
				17:leaf=0.0856912211
				18:leaf=-0.00437918492
		6:[f9580<84.5] yes=11,no=12,missing=12
			11:leaf=-0.00958939176
			12:[f6720<39.5] yes=19,no=20,missing=20
				19:leaf=0.0265614577
				20:leaf=0.166433677
booster[22]:
0:[f7793<86.5] yes=1,no=2,missing=1
	1:[f19630<277.5] yes=3,no=4,missing=3
		3:[f15467<1.5] yes=7,no=8,missing=7
			7:[f5079<30] yes=15,no=16,missing=15
				15:leaf=0.0969876572
				16:leaf=-0.0177685898
			8:[f19846<127.5] yes=17,no=18,missing=17
				17:leaf=0.156783819
				18:leaf=-0.0146167828
		4:[f30182<64.5] yes=9,no=10,missing=9
			9:leaf=0.0619147606
			10:[f1622<179] yes=19,no=20,missing=20
				19:leaf=-0.0305773467
				20:leaf=0.0118465545
	2:[f11230<117.5] yes=5,no=6,missing=6
		5:[f14620<97] yes=11,no=12,missing=12
			11:[f9528<27.5] yes=21,no=22,missing=22
				21:leaf=0.0392569192
				22:leaf=-0.0288450159
			12:leaf=0.126794457
		6:[f29168<44.5] yes=13,no=14,missing=14
			13:[f14804<58.5] yes=23,no=24,missing=24
				23:leaf=0.117084183
				24:leaf=-0.00497287977
			14:[f23951<102.5] yes=25,no=26,missing=25
				25:leaf=0.139987782
				26:leaf=0.0245895404
booster[23]:
0:leaf=-0.0352387056
booster[24]:
0:[f22851<69.5] yes=1,no=2,missing=1
	1:[f30763<135.5] yes=3,no=4,missing=3
		3:leaf=-0.0350569151
		4:leaf=0.00242564594
	2:[f2290<58.5] yes=5,no=6,missing=6
		5:[f26389<162.5] yes=7,no=8,missing=7
			7:[f6138<24.5] yes=11,no=12,missing=12
				11:leaf=-0.0205835123
				12:leaf=0.113586374
			8:[f628<102.5] yes=13,no=14,missing=13
				13:leaf=-0.0240597501
				14:leaf=0.0224474724
		6:[f27284<56.5] yes=9,no=10,missing=10
			9:[f32462<127.5] yes=15,no=16,missing=16
				15:leaf=0.0219645984
				16:leaf=-0.0315481871
			10:leaf=0.0557368249
booster[25]:
0:[f1160<296.5] yes=1,no=2,missing=1
	1:leaf=-0.0347914621
	2:[f18376<56.5] yes=3,no=4,missing=4
		3:[f13222<42.5] yes=5,no=6,missing=5
			5:[f21485<28.5] yes=9,no=10,missing=10
				9:leaf=0.0582426786
				10:leaf=-0.00688027591
			6:[f19421<40.5] yes=11,no=12,missing=11
				11:leaf=0.111277185
				12:leaf=0.0381571539
		4:[f17635<19.5] yes=7,no=8,missing=8
			7:[f13312<23.5] yes=13,no=14,missing=14
				13:leaf=0.0931961387
				14:leaf=-0.0144138765
			8:[f22290<181.5] yes=15,no=16,missing=16
				15:leaf=-0.0153679922
				16:leaf=0.0932978839
booster[26]:
0:[f28701<120.5] yes=1,no=2,missing=1
	1:[f14757<66.5] yes=3,no=4,missing=3
		3:[f90<58.5] yes=7,no=8,missing=7
			7:[f25809<76] yes=15,no=16,missing=16
				15:leaf=-0.0317288525
				16:leaf=0.00571190193
			8:[f4313<107.5] yes=17,no=18,missing=18
				17:leaf=0.103292681
				18:leaf=-0.00927198678
		4:[f15402<60.5] yes=9,no=10,missing=9
			9:[f14581<109.5] yes=19,no=20,missing=19
				19:leaf=-0.0328991972
				20:leaf=0.0578023493
			10:[f2857<102.5] yes=21,no=22,missing=21
				21:leaf=0.028021805
				22:leaf=0.116610728
	2:[f5655<47.5] yes=5,no=6,missing=6
		5:[f32023<29.5] yes=11,no=12,missing=11
			11:leaf=0.00343001052
			12:[f27386<144.5] yes=23,no=24,missing=24
				23:leaf=0.139299452
				24:leaf=0.0121434955
		6:[f18349<85.5] yes=13,no=14,missing=14
			13:leaf=-0.030585587
			14:leaf=0.0523655899
booster[27]:
0:[f9338<61.5] yes=1,no=2,missing=1
	1:[f31499<180.5] yes=3,no=4,missing=3
		3:[f19923<2.5] yes=7,no=8,missing=8
			7:[f13001<61.5] yes=15,no=16,missing=16
				15:leaf=-0.0167592466
				16:leaf=0.116781741
			8:[f21122<180.5] yes=17,no=18,missing=17
				17:leaf=-0.0312172286
				18:leaf=0.0411223285
		4:[f31801<109.5] yes=9,no=10,missing=10
			9:leaf=0.132450998
			10:leaf=-0.0228532702
	2:[f8547<69.5] yes=5,no=6,missing=5
		5:[f7837<52.5] yes=11,no=12,missing=11
			11:[f44<262] yes=19,no=20,missing=20
				19:leaf=-0.0269491654
				20:leaf=0.0836334527
			12:[f6571<3.5] yes=21,no=22,missing=21
				21:leaf=-0.0185388755
				22:leaf=0.133356079
		6:[f23183<83] yes=13,no=14,missing=13
			13:[f19214<24.5] yes=23,no=24,missing=24
				23:leaf=0.00347390003
				24:leaf=-0.0324639343
			14:leaf=0.0729504824
booster[28]:
0:[f21136<1.5] yes=1,no=2,missing=2
	1:[f32035<39.5] yes=3,no=4,missing=4
		3:[f15379<126.5] yes=7,no=8,missing=7
			7:leaf=-0.0243695937
			8:[f11982<108.5] yes=15,no=16,missing=16
				15:leaf=0.140994355
				16:leaf=0.00084259198
		4:[f14326<72.5] yes=9,no=10,missing=10
			9:leaf=0.0342711508
			10:leaf=-0.0319531523
	2:[f24457<10.5] yes=5,no=6,missing=5
		5:[f6262<92.5] yes=11,no=12,missing=11
			11:leaf=-0.0240973514
			12:leaf=0.108654812
		6:[f23909<525.5] yes=13,no=14,missing=13
			13:[f10956<200] yes=17,no=18,missing=17
				17:leaf=-0.0350591652
				18:leaf=0.000965483836
			14:[f13106<153] yes=19,no=20,missing=20
				19:leaf=0.054879766
				20:leaf=-0.0188262332
booster[29]:
0:[f30743<98.5] yes=1,no=2,missing=1
	1:[f9198<252.5] yes=3,no=4,missing=3
		3:[f29001<136.5] yes=7,no=8,missing=7
			7:[f10267<110.5] yes=13,no=14,missing=13
				13:leaf=-0.0349886455
				14:leaf=-0.00903314259
			8:leaf=0.00678590545
		4:leaf=0.0368071906
	2:[f2866<76.5] yes=5,no=6,missing=5
		5:[f648<69.5] yes=9,no=10,missing=10
			9:[f23126<35.5] yes=15,no=16,missing=16
				15:leaf=-0.0038240701
				16:leaf=0.134780183
			10:[f23217<39.5] yes=17,no=18,missing=17
				17:leaf=-0.00663575018
				18:leaf=0.0921086073
		6:[f10808<106.5] yes=11,no=12,missing=11
			11:[f18248<6046] yes=19,no=20,missing=20
				19:leaf=0.136766031
				20:leaf=-0.0240689833
			12:leaf=-0.0294203926
booster[30]:
0:[f7793<86.5] yes=1,no=2,missing=1
	1:[f19630<277.5] yes=3,no=4,missing=3
		3:[f23171<26.5] yes=7,no=8,missing=7
			7:[f7361<42.5] yes=15,no=16,missing=15
				15:leaf=0.115775011
				16:leaf=0.0114733577
			8:[f19237<124.5] yes=17,no=18,missing=18
				17:leaf=0.1401667
				18:leaf=0.00313938875
		4:[f30182<64.5] yes=9,no=10,missing=9
			9:leaf=0.0586370304
			10:[f19796<51.5] yes=19,no=20,missing=20
				19:leaf=0.011834926
				20:leaf=-0.0303866062
	2:[f11230<117.5] yes=5,no=6,missing=6
		5:[f14620<97] yes=11,no=12,missing=12
			11:[f9528<27.5] yes=21,no=22,missing=22
				21:leaf=0.0369146354
				22:leaf=-0.0285319481
			12:leaf=0.114488058
		6:[f29168<44.5] yes=13,no=14,missing=14
			13:[f8320<29.5] yes=23,no=24,missing=24
				23:leaf=-0.0155664906
				24:leaf=0.0583711006
			14:[f2861<133.5] yes=25,no=26,missing=25
				25:leaf=0.1247392
				26:leaf=0.0242793076
booster[31]:
0:leaf=-0.0350669026
booster[32]:
0:[f22851<69.5] yes=1,no=2,missing=1
	1:[f15851<133.5] yes=3,no=4,missing=3
		3:leaf=-0.0348929539
		4:leaf=0.00249052956
	2:[f2290<58.5] yes=5,no=6,missing=6
		5:[f8050<44.5] yes=7,no=8,missing=8
			7:[f6138<25.5] yes=11,no=12,missing=12
				11:leaf=0.0138984947
				12:leaf=0.105702847
			8:leaf=-0.0235096253
		6:[f27284<56.5] yes=9,no=10,missing=10
			9:[f29902<44.5] yes=13,no=14,missing=14
				13:leaf=0.0216739364
				14:leaf=-0.031341441
			10:leaf=0.0533404648
booster[33]:
0:[f29915<54.5] yes=1,no=2,missing=1
	1:[f29664<133.5] yes=3,no=4,missing=3
		3:[f3313<213.5] yes=7,no=8,missing=7
			7:[f2981<172.5] yes=15,no=16,missing=15
				15:leaf=-0.0344559066
				16:leaf=0.0076024835
			8:[f21878<181.5] yes=17,no=18,missing=18
				17:leaf=0.0610117726
				18:leaf=-0.0246261675
		4:[f22891<49.5] yes=9,no=10,missing=10
			9:[f3584<95.5] yes=19,no=20,missing=19
				19:leaf=0.00927930046
				20:leaf=-0.0257458109
			10:[f1940<185] yes=21,no=22,missing=21
				21:leaf=0.0065155495
				22:leaf=0.105226353
	2:[f29354<57.5] yes=5,no=6,missing=5
		5:[f7346<85.5] yes=11,no=12,missing=11
			11:[f14855<37.5] yes=23,no=24,missing=23
				23:leaf=0.0402521566
				24:leaf=0.111333475
			12:[f18248<19.5] yes=25,no=26,missing=25
				25:leaf=0.0721231773
				26:leaf=-0.0246710442
		6:[f23923<39.5] yes=13,no=14,missing=14
			13:[f6573<117.5] yes=27,no=28,missing=28
				27:leaf=0.0459375121
				28:leaf=-0.0126471119
			14:[f9017<139.5] yes=29,no=30,missing=29
				29:leaf=0.0237112343
				30:leaf=0.114894368
booster[34]:
0:[f2178<42.5] yes=1,no=2,missing=1
	1:[f9627<15.5] yes=3,no=4,missing=3
		3:leaf=-0.0325993374
		4:[f8206<42.5] yes=7,no=8,missing=7
			7:[f30208<12.5] yes=13,no=14,missing=13
				13:leaf=0.115408286
				14:leaf=-0.00734230503
			8:leaf=-0.0262125991
	2:[f8403<43.5] yes=5,no=6,missing=6
		5:[f5221<148] yes=9,no=10,missing=9
			9:[f32088<126.5] yes=15,no=16,missing=15
				15:leaf=-0.034074828
				16:leaf=0.0147441244
			10:leaf=0.0701277107
		6:[f11706<21.5] yes=11,no=12,missing=12
			11:[f31920<84.5] yes=17,no=18,missing=17
				17:leaf=0.00651925616
				18:leaf=0.106025726
			12:[f6859<54.5] yes=19,no=20,missing=20
				19:leaf=-0.0311907791
				20:leaf=0.0972569659
booster[35]:
0:[f9338<61.5] yes=1,no=2,missing=1
	1:[f31499<180.5] yes=3,no=4,missing=3
		3:[f19923<2.5] yes=7,no=8,missing=8
			7:[f13001<61.5] yes=15,no=16,missing=16
				15:leaf=-0.0164897796
				16:leaf=0.108108051
			8:[f2460<90.5] yes=17,no=18,missing=17
				17:leaf=-0.0313769244
				18:leaf=0.0273849797
		4:[f31801<109.5] yes=9,no=10,missing=10
			9:leaf=0.119824946
			10:leaf=-0.0225959327
	2:[f8547<69.5] yes=5,no=6,missing=5
		5:[f21028<22.5] yes=11,no=12,missing=12
			11:[f19728<148] yes=19,no=20,missing=19
				19:leaf=0.00639554625
				20:leaf=-0.0220324192
			12:[f9201<97] yes=21,no=22,missing=22
				21:leaf=0.11788407
				22:leaf=-0.0134008778
		6:[f9055<165.5] yes=13,no=14,missing=14
			13:[f13793<306] yes=23,no=24,missing=24
				23:leaf=-0.0322885737
				24:leaf=0.00352385943
			14:leaf=0.0731322616
booster[36]:
0:[f21136<1.5] yes=1,no=2,missing=2
	1:[f32035<39.5] yes=3,no=4,missing=4
		3:[f15379<126.5] yes=7,no=8,missing=7
			7:leaf=-0.0241383687
			8:[f11982<108.5] yes=15,no=16,missing=16
				15:leaf=0.125430346
				16:leaf=0.000948269211
		4:[f6987<28.5] yes=9,no=10,missing=10
			9:leaf=0.0344318561
			10:leaf=-0.031779483
	2:[f24457<10.5] yes=5,no=6,missing=5
		5:[f6262<92.5] yes=11,no=12,missing=11
			11:leaf=-0.0239035189
			12:leaf=0.10087283
		6:[f23909<525.5] yes=13,no=14,missing=13
			13:[f10956<200] yes=17,no=18,missing=17
				17:leaf=-0.0348951183
				18:leaf=0.00106013857
			14:[f3532<123.5] yes=19,no=20,missing=19
				19:leaf=0.0547522977
				20:leaf=-0.0190040655
booster[37]:
0:[f8198<132.5] yes=1,no=2,missing=1
	1:[f2706<118.5] yes=3,no=4,missing=3
		3:[f621<266.5] yes=7,no=8,missing=7
			7:leaf=-0.0347424261
			8:leaf=0.0184134245
		4:leaf=0.0383674316
	2:[f2866<76.5] yes=5,no=6,missing=5
		5:[f4737<76.5] yes=9,no=10,missing=10
			9:[f25884<15.5] yes=13,no=14,missing=13
				13:leaf=0.0802866071
				14:leaf=-0.00570824416
			10:[f439<214.5] yes=15,no=16,missing=16
				15:leaf=0.126001656
				16:leaf=-0.0275812019
		6:[f32401<179.5] yes=11,no=12,missing=11
			11:[f18248<6046] yes=17,no=18,missing=18
				17:leaf=0.124826126
				18:leaf=-0.0238273758
			12:[f11964<449] yes=19,no=20,missing=20
				19:leaf=0.0258994661
				20:leaf=-0.0293697733
booster[38]:
0:[f7793<86.5] yes=1,no=2,missing=1
	1:[f19630<277.5] yes=3,no=4,missing=3
		3:[f23466<2.5] yes=7,no=8,missing=7
			7:[f27022<84.5] yes=15,no=16,missing=16
				15:leaf=-0.0168725196
				16:leaf=0.0543946065
			8:[f1186<102] yes=17,no=18,missing=18
				17:leaf=0.120524667
				18:leaf=0.0112063177
		4:[f30182<64.5] yes=9,no=10,missing=9
			9:leaf=0.0555212609
			10:[f267<21] yes=19,no=20,missing=19
				19:leaf=-0.0301735364
				20:leaf=0.0119670788
	2:[f11230<117.5] yes=5,no=6,missing=6
		5:[f14620<97] yes=11,no=12,missing=12
			11:[f23433<21.5] yes=21,no=22,missing=22
				21:leaf=0.0521383211
				22:leaf=-0.0270000007
			12:leaf=0.104185037
		6:[f29168<44.5] yes=13,no=14,missing=14
			13:[f14804<58.5] yes=23,no=24,missing=24
				23:leaf=0.101278707
				24:leaf=-0.00505913189
			14:[f30173<275.5] yes=25,no=26,missing=26
				25:leaf=0.101817951
				26:leaf=0.000537119282
booster[39]:
0:leaf=-0.0349018723
booster[40]:
0:[f22851<69.5] yes=1,no=2,missing=1
	1:[f15851<133.5] yes=3,no=4,missing=3
		3:leaf=-0.0347335786
		4:leaf=0.00250531477
	2:[f1648<122.5] yes=5,no=6,missing=5
		5:[f6246<95.5] yes=7,no=8,missing=8
			7:leaf=-0.0262114052
			8:[f31189<125.5] yes=11,no=12,missing=12
				11:leaf=-0.00212566438
				12:leaf=0.0939143077
		6:[f21144<31.5] yes=9,no=10,missing=10
			9:leaf=-0.0311326571
			10:[f13915<71.5] yes=13,no=14,missing=14
				13:leaf=0.0621659197
				14:leaf=-0.018049797
booster[41]:
0:[f8377<173.5] yes=1,no=2,missing=1
	1:[f14909<175.5] yes=3,no=4,missing=3
		3:leaf=-0.0345100611
		4:leaf=0.0122776246
	2:[f19421<40.5] yes=5,no=6,missing=5
		5:[f30106<31.5] yes=7,no=8,missing=8
			7:[f641<115.5] yes=11,no=12,missing=12
				11:leaf=0.0201383736
				12:leaf=0.0932800099
			8:[f25491<41.5] yes=13,no=14,missing=14
				13:leaf=0.0731955618
				14:leaf=-0.0052743908
		6:[f4629<195.5] yes=9,no=10,missing=9
			9:[f28361<66.5] yes=15,no=16,missing=15
				15:leaf=-0.00508445036
				16:leaf=0.0647841096
			10:[f6326<202.5] yes=17,no=18,missing=18
				17:leaf=-0.0204688888
				18:leaf=0.124685414
booster[42]:
0:[f2178<42.5] yes=1,no=2,missing=1
	1:[f9627<15.5] yes=3,no=4,missing=3
		3:leaf=-0.0323785059
		4:[f8206<42.5] yes=7,no=8,missing=7
			7:[f30208<12.5] yes=13,no=14,missing=13
				13:leaf=0.103289105
				14:leaf=-0.00711877877
			8:leaf=-0.0259326305
	2:[f8403<43.5] yes=5,no=6,missing=6
		5:[f26920<113.5] yes=9,no=10,missing=9
			9:[f4406<88] yes=15,no=16,missing=16
				15:leaf=-0.0342781208
				16:leaf=-0.00700543448
			10:[f31091<47.5] yes=17,no=18,missing=18
				17:leaf=-0.0181856528
				18:leaf=0.082302697
		6:[f11706<21.5] yes=11,no=12,missing=12
			11:[f31920<84.5] yes=19,no=20,missing=19
				19:leaf=0.00627330458
				20:leaf=0.0965455174
			12:[f6859<54.5] yes=21,no=22,missing=22
				21:leaf=-0.0309328102
				22:leaf=0.0912365615
booster[43]:
0:[f9338<61.5] yes=1,no=2,missing=1
	1:[f31499<180.5] yes=3,no=4,missing=3
		3:[f19923<2.5] yes=7,no=8,missing=8
			7:[f13001<61.5] yes=15,no=16,missing=16
				15:leaf=-0.0162268132
				16:leaf=0.100013405
			8:[f2460<90.5] yes=17,no=18,missing=17
				17:leaf=-0.0311212838
				18:leaf=0.0263770744
		4:[f31801<109.5] yes=9,no=10,missing=10
			9:leaf=0.109307557
			10:leaf=-0.0223380104
	2:[f31763<58.5] yes=5,no=6,missing=5
		5:[f2178<49.5] yes=11,no=12,missing=11
			11:[f4369<24.5] yes=19,no=20,missing=20
				19:leaf=0.0827169344
				20:leaf=-0.0130416779
			12:[f5891<47.5] yes=21,no=22,missing=22
				21:leaf=0.00444084918
				22:leaf=0.108317524
		6:[f19658<171.5] yes=13,no=14,missing=14
			13:leaf=-0.0319038592
			14:leaf=0.0183801893
booster[44]:
0:[f21136<1.5] yes=1,no=2,missing=2
	1:[f22857<6.5] yes=3,no=4,missing=4
		3:[f1542<84.5] yes=7,no=8,missing=8
			7:leaf=-0.0238073207
			8:[f10453<13.5] yes=15,no=16,missing=16
				15:leaf=0.117002845
				16:leaf=0.00450593559
		4:[f11785<73.5] yes=9,no=10,missing=10
			9:leaf=0.0574337877
			10:leaf=-0.031978894
	2:[f24457<10.5] yes=5,no=6,missing=5
		5:[f6262<92.5] yes=11,no=12,missing=11
			11:leaf=-0.0236812383
			12:leaf=0.0943563059
		6:[f23909<525.5] yes=13,no=14,missing=13
			13:[f28903<1.5] yes=17,no=18,missing=17
				17:leaf=0.000962639519
				18:leaf=-0.0347391255
			14:[f15398<122.5] yes=19,no=20,missing=20
				19:leaf=-0.0191667862
				20:leaf=0.0546102077
booster[45]:
0:[f30743<98.5] yes=1,no=2,missing=1
	1:[f9198<252.5] yes=3,no=4,missing=3
		3:[f29001<136.5] yes=7,no=8,missing=7
			7:[f10267<110.5] yes=13,no=14,missing=13
				13:leaf=-0.0346593782
				14:leaf=-0.00856825802
			8:leaf=0.00672711991
		4:leaf=0.0345688462
	2:[f20058<132.5] yes=5,no=6,missing=5
		5:[f15924<74.5] yes=9,no=10,missing=9
			9:[f10134<39.5] yes=15,no=16,missing=15
				15:leaf=-0.00641925493
				16:leaf=0.0720563754
			10:[f5661<50.5] yes=17,no=18,missing=18
				17:leaf=-0.0165037215
				18:leaf=0.0651668459
		6:[f3866<89.5] yes=11,no=12,missing=12
			11:[f18248<8] yes=19,no=20,missing=19
				19:leaf=-0.00865493156
				20:leaf=0.116214812
			12:leaf=-0.0235901028
booster[46]:
0:[f7793<86.5] yes=1,no=2,missing=1
	1:[f19630<277.5] yes=3,no=4,missing=3
		3:[f15467<1.5] yes=7,no=8,missing=7
			7:[f5079<30] yes=15,no=16,missing=15
				15:leaf=0.0794351771
				16:leaf=-0.0184682105
			8:[f19846<127.5] yes=17,no=18,missing=17
				17:leaf=0.106491059
				18:leaf=-0.0148096317
		4:[f30182<64.5] yes=9,no=10,missing=9
			9:leaf=0.0530539863
			10:[f25<111] yes=19,no=20,missing=19
				19:leaf=-0.0299380682
				20:leaf=0.0119457999
	2:[f11230<114.5] yes=5,no=6,missing=6
		5:[f15181<66.5] yes=11,no=12,missing=12
			11:[f23433<21.5] yes=21,no=22,missing=22
				21:leaf=0.0521062687
				22:leaf=-0.0293439627
			12:[f12920<171.5] yes=23,no=24,missing=23
				23:leaf=0.120090462
				24:leaf=-0.0235555954
		6:[f25677<8.5] yes=13,no=14,missing=14
			13:[f8298<35.5] yes=25,no=26,missing=25
				25:leaf=0.0635502487
				26:leaf=-0.0246464871
			14:[f7394<103.5] yes=27,no=28,missing=27
				27:leaf=0.0777145103
				28:leaf=-0.00464331405
booster[47]:
0:leaf=-0.0347422101
booster[48]:
0:[f22851<69.5] yes=1,no=2,missing=1
	1:[f25920<177] yes=3,no=4,missing=4
		3:leaf=-0.0345823839
		4:leaf=0.00264673168
	2:[f1648<122.5] yes=5,no=6,missing=5
		5:[f6246<95.5] yes=7,no=8,missing=8
			7:leaf=-0.025957983
			8:[f7434<35.5] yes=11,no=12,missing=11
				11:leaf=0.084191367
				12:leaf=-0.0216794796
		6:[f21144<31.5] yes=9,no=10,missing=10
			9:leaf=-0.0308625791
			10:[f21539<30.5] yes=13,no=14,missing=14
				13:leaf=0.0602134243
				14:leaf=-0.0179354399
booster[49]:
0:[f1160<296.5] yes=1,no=2,missing=1
	1:leaf=-0.0342998579
	2:[f32261<74.5] yes=3,no=4,missing=4
		3:[f6825<38.5] yes=5,no=6,missing=6
			5:[f23592<196.5] yes=9,no=10,missing=9
				9:leaf=-0.0135721173
				10:leaf=0.0803947523
			6:[f27856<138.5] yes=11,no=12,missing=11
				11:leaf=-0.0226907544
				12:leaf=0.0518163778
		4:[f30211<84.5] yes=7,no=8,missing=8
			7:[f19421<40.5] yes=13,no=14,missing=13
				13:leaf=0.0798385441
				14:leaf=0.0275549386
			8:[f16561<162.5] yes=15,no=16,missing=16
				15:leaf=0.0443746299
				16:leaf=-0.0301945694
booster[50]:
0:[f2178<42.5] yes=1,no=2,missing=1
	1:[f9627<15.5] yes=3,no=4,missing=3
		3:leaf=-0.0321625434
		4:[f8206<42.5] yes=7,no=8,missing=7
			7:[f30208<12.5] yes=13,no=14,missing=13
				13:leaf=0.0935155973
				14:leaf=-0.00686223805
			8:leaf=-0.0256852321
	2:[f8403<43.5] yes=5,no=6,missing=6
		5:[f26920<113.5] yes=9,no=10,missing=9
			9:[f4406<88] yes=15,no=16,missing=16
				15:leaf=-0.0341077223
				16:leaf=-0.00691066077
			10:[f31091<47.5] yes=17,no=18,missing=18
				17:leaf=-0.0179893989
				18:leaf=0.077901803
		6:[f11706<21.5] yes=11,no=12,missing=12
			11:[f31920<84.5] yes=19,no=20,missing=19
				19:leaf=0.00607035588
				20:leaf=0.0887322649
			12:[f6859<54.5] yes=21,no=22,missing=22
				21:leaf=-0.0306880996
				22:leaf=0.0854544789
booster[51]:
0:[f9338<61.5] yes=1,no=2,missing=1
	1:[f6036<91.5] yes=3,no=4,missing=3
		3:[f21122<179.5] yes=7,no=8,missing=7
			7:[f16037<386] yes=15,no=16,missing=16
				15:leaf=-0.0311637558
				16:leaf=0.0754250512
			8:[f12418<146.5] yes=17,no=18,missing=17
				17:leaf=0.114143841
				18:leaf=-0.0201002248
		4:[f2596<44.5] yes=9,no=10,missing=9
			9:[f2192<47.5] yes=19,no=20,missing=20
				19:leaf=0.111824088
				20:leaf=-0.0200880747
			10:[f1197<44] yes=21,no=22,missing=22
				21:leaf=0.00338258059
				22:leaf=-0.0277393553
	2:[f31763<58.5] yes=5,no=6,missing=5
		5:[f2178<50.5] yes=11,no=12,missing=11
			11:[f1086<17.5] yes=23,no=24,missing=23
				23:leaf=0.082771875
				24:leaf=-0.00619521411
			12:[f20460<35] yes=25,no=26,missing=26
				25:leaf=-0.00522257108
				26:leaf=0.0979449376
		6:[f16994<153.5] yes=13,no=14,missing=13
			13:leaf=-0.0316857733
			14:leaf=0.0182956383
booster[52]:
0:[f21136<1.5] yes=1,no=2,missing=2
	1:[f32035<39.5] yes=3,no=4,missing=4
		3:[f15379<126.5] yes=7,no=8,missing=7
			7:leaf=-0.0237374306
			8:[f19950<102] yes=15,no=16,missing=16
				15:leaf=0.103927135
				16:leaf=0.000600193802
		4:[f30673<122.5] yes=9,no=10,missing=9
			9:leaf=-0.031479422
			10:leaf=0.0333915614
	2:[f24457<10.5] yes=5,no=6,missing=5
		5:[f6262<92.5] yes=11,no=12,missing=11
			11:leaf=-0.0234246701
			12:leaf=0.0892412588
		6:[f14240<238.5] yes=13,no=14,missing=13
			13:[f10956<200] yes=17,no=18,missing=17
				17:leaf=-0.0345873833
				18:leaf=0.00601638295
			14:[f6709<114.5] yes=19,no=20,missing=20
				19:leaf=0.0546094142
				20:leaf=-0.0192133021
booster[53]:
0:[f8198<132.5] yes=1,no=2,missing=1
	1:[f2706<118.5] yes=3,no=4,missing=3
		3:[f21260<374.5] yes=7,no=8,missing=8
			7:leaf=-0.0344181135
			8:leaf=0.0181679651
		4:leaf=0.0359601118
	2:[f2866<76.5] yes=5,no=6,missing=5
		5:[f10134<39.5] yes=9,no=10,missing=9
			9:[f3439<73.5] yes=13,no=14,missing=14
				13:leaf=-0.0222755224
				14:leaf=0.0551676452
			10:[f2711<54.5] yes=15,no=16,missing=16
				15:leaf=0.0636553168
				16:leaf=-0.0108420998
		6:[f15284<252.5] yes=11,no=12,missing=11
			11:[f18248<6046] yes=17,no=18,missing=18
				17:leaf=0.101252481
				18:leaf=-0.0234762691
			12:leaf=-0.029067548
booster[54]:
0:[f17754<105.5] yes=1,no=2,missing=1
	1:[f6654<346] yes=3,no=4,missing=3
		3:[f22849<1.5] yes=7,no=8,missing=8
			7:[f2942<9] yes=15,no=16,missing=16
				15:leaf=0.0178712048
				16:leaf=-0.0233493391
			8:[f29366<90.5] yes=17,no=18,missing=17
				17:leaf=0.0993062183
				18:leaf=0.0350139178
		4:[f5182<76.5] yes=9,no=10,missing=10
			9:leaf=-0.0301035829
			10:leaf=0.0259917863
	2:[f10104<102.5] yes=5,no=6,missing=5
		5:[f29877<52.5] yes=11,no=12,missing=11
			11:[f24593<45.5] yes=19,no=20,missing=20
				19:leaf=-0.00748291379
				20:leaf=0.0806616396
			12:[f20405<3.5] yes=21,no=22,missing=22
				21:leaf=0.0577342398
				22:leaf=-0.0305160005
		6:[f25677<8.5] yes=13,no=14,missing=14
			13:[f27688<407.5] yes=23,no=24,missing=24
				23:leaf=0.0674245283
				24:leaf=-0.0242520906
			14:[f24427<231.5] yes=25,no=26,missing=25
				25:leaf=0.070459649
				26:leaf=0.00629871339
booster[55]:
0:leaf=-0.0345884226
booster[56]:
0:[f22851<69.5] yes=1,no=2,missing=1
	1:[f16388<4.5] yes=3,no=4,missing=4
		3:leaf=0.00275537721
		4:leaf=-0.0344366021
	2:[f26804<28.5] yes=5,no=6,missing=6
		5:[f28086<42.5] yes=7,no=8,missing=8
			7:[f30871<258.5] yes=11,no=12,missing=12
				11:leaf=0.0776211917
				12:leaf=-0.0120052742
			8:leaf=-0.0244878158
		6:[f10674<23.5] yes=9,no=10,missing=10
			9:leaf=0.046564009
			10:leaf=-0.0311856735
booster[57]:
0:[f7468<96.5] yes=1,no=2,missing=1
	1:[f25638<158.5] yes=3,no=4,missing=3
		3:leaf=-0.0343066119
		4:[f12025<378.5] yes=7,no=8,missing=8
			7:leaf=0.0596606061
			8:leaf=-0.0266973414
	2:[f18376<57.5] yes=5,no=6,missing=6
		5:[f23234<40.5] yes=9,no=10,missing=10
			9:[f21485<28.5] yes=13,no=14,missing=14
				13:leaf=0.0436438099
				14:leaf=-0.0151919695
			10:[f30263<66.5] yes=15,no=16,missing=15
				15:leaf=0.0713822767
				16:leaf=-0.00759265013
		6:[f27369<46.5] yes=11,no=12,missing=12
			11:[f3553<201.5] yes=17,no=18,missing=18
				17:leaf=-0.000798618188
				18:leaf=0.107724868
			12:[f22290<181.5] yes=19,no=20,missing=20
				19:leaf=-0.0234721769
				20:leaf=0.0512300208
booster[58]:
0:[f2178<42.5] yes=1,no=2,missing=1
	1:[f9627<15.5] yes=3,no=4,missing=3
		3:leaf=-0.0319429971
		4:[f8206<42.5] yes=7,no=8,missing=7
			7:[f32250<29.5] yes=13,no=14,missing=13
				13:leaf=0.0843843445
				14:leaf=-0.0195664968
			8:leaf=-0.0255017057
	2:[f8403<43.5] yes=5,no=6,missing=6
		5:[f26920<113.5] yes=9,no=10,missing=9
			9:[f4406<88] yes=15,no=16,missing=16
				15:leaf=-0.0339412801
				16:leaf=-0.00670790346
			10:[f31091<47.5] yes=17,no=18,missing=18
				17:leaf=-0.0177578088
				18:leaf=0.0738830715
		6:[f11706<21.5] yes=11,no=12,missing=12
			11:[f30997<25.5] yes=19,no=20,missing=19
				19:leaf=0.0820591599
				20:leaf=0.0052366904
			12:[f6859<54.5] yes=21,no=22,missing=22
				21:leaf=-0.030467499
				22:leaf=0.0804261714
booster[59]:
0:[f9338<61.5] yes=1,no=2,missing=1
	1:[f6036<91.5] yes=3,no=4,missing=3
		3:[f21122<179.5] yes=7,no=8,missing=7
			7:[f16037<386] yes=15,no=16,missing=16
				15:leaf=-0.0309150852
				16:leaf=0.0722999796
			8:[f12418<146.5] yes=17,no=18,missing=17
				17:leaf=0.105380028
				18:leaf=-0.0198078137
		4:[f2596<44.5] yes=9,no=10,missing=9
			9:[f2192<47.5] yes=19,no=20,missing=20
				19:leaf=0.102578595
				20:leaf=-0.0198064744
			10:[f1704<68.5] yes=21,no=22,missing=22
				21:leaf=0.00337310671
				22:leaf=-0.0274506733
	2:[f8547<80.5] yes=5,no=6,missing=5
		5:[f1597<130] yes=11,no=12,missing=11
			11:[f28019<61] yes=23,no=24,missing=24
				23:leaf=-0.0196668562
				24:leaf=0.0873279497
			12:[f1664<323] yes=25,no=26,missing=26
				25:leaf=-0.0279909354
				26:leaf=0.0674036369
		6:[f21173<332.5] yes=13,no=14,missing=14
			13:leaf=-0.0316130333
			14:leaf=0.0296981465
booster[60]:
0:[f21136<1.5] yes=1,no=2,missing=2
	1:[f22857<6.5] yes=3,no=4,missing=4
		3:[f1542<84.5] yes=7,no=8,missing=8
			7:leaf=-0.0232775863
			8:[f10453<13.5] yes=15,no=16,missing=16
				15:leaf=0.0989256576
				16:leaf=0.004238036
		4:[f11785<73.5] yes=9,no=10,missing=10
			9:leaf=0.0528696552
			10:leaf=-0.0316552408
	2:[f24457<10.5] yes=5,no=6,missing=5
		5:[f6262<92.5] yes=11,no=12,missing=11
			11:leaf=-0.0231775045
			12:leaf=0.0842024907
		6:[f15183<121.5] yes=13,no=14,missing=13
			13:[f10956<200] yes=17,no=18,missing=17
				17:leaf=-0.0344395787
				18:leaf=0.00259478344
			14:[f5716<40.5] yes=19,no=20,missing=20
				19:leaf=0.054375235
				20:leaf=-0.019130446
booster[61]:
0:[f30743<98.5] yes=1,no=2,missing=1
	1:[f9198<252.5] yes=3,no=4,missing=3
		3:[f5815<108.5] yes=7,no=8,missing=7
			7:[f13526<102.5] yes=13,no=14,missing=14
				13:leaf=-0.0343515612
				14:leaf=-0.00425192108
			8:[f13393<216.5] yes=15,no=16,missing=16
				15:leaf=0.0244557057
				16:leaf=-0.0222498681
		4:leaf=0.0325376317
	2:[f2866<76.5] yes=5,no=6,missing=5
		5:[f4645<49.5] yes=9,no=10,missing=10
			9:[f19421<41.5] yes=17,no=18,missing=17
				17:leaf=0.0128310472
				18:leaf=0.0800921991
			10:[f7219<46.5] yes=19,no=20,missing=20
				19:leaf=-0.0205280073
				20:leaf=0.0666324496
		6:[f10808<106.5] yes=11,no=12,missing=11
			11:[f18248<6046] yes=21,no=22,missing=22
				21:leaf=0.0926751718
				22:leaf=-0.0232585855
			12:leaf=-0.029172359
booster[62]:
0:[f21998<53.5] yes=1,no=2,missing=1
	1:[f21021<156.5] yes=3,no=4,missing=3
		3:[f23276<1.5] yes=7,no=8,missing=8
			7:[f26232<209] yes=13,no=14,missing=14
				13:leaf=-0.0285972282
				14:leaf=0.0773425624
			8:[f6425<351.5] yes=15,no=16,missing=15
				15:leaf=0.0860770717
				16:leaf=-0.00438279565
		4:[f11244<358.5] yes=9,no=10,missing=10
			9:[f8392<159.5] yes=17,no=18,missing=17
				17:leaf=0.00360623142
				18:leaf=0.0721282661
			10:[f2795<59.5] yes=19,no=20,missing=19
				19:leaf=0.10889484
				20:leaf=-0.00112041319
	2:[f31659<113.5] yes=5,no=6,missing=6
		5:leaf=0.0779296458
		6:[f25284<69.5] yes=11,no=12,missing=11
			11:[f4725<57.5] yes=21,no=22,missing=22
				21:leaf=-0.0344021581
				22:leaf=-0.000503412564
			12:leaf=0.0169369373
booster[63]:
0:leaf=-0.0344402231
booster[64]:
0:[f22851<69.5] yes=1,no=2,missing=1
	1:[f16388<4.5] yes=3,no=4,missing=4
		3:leaf=0.00281134364
		4:leaf=-0.0342922136
	2:[f1648<122.5] yes=5,no=6,missing=5
		5:[f6246<95.5] yes=7,no=8,missing=8
			7:leaf=-0.0256007016
			8:[f6138<25.5] yes=11,no=12,missing=12
				11:leaf=0.0112123685
				12:leaf=0.0773017034
		6:[f21144<31.5] yes=9,no=10,missing=10
			9:leaf=-0.03060624
			10:[f25038<56.5] yes=13,no=14,missing=14
				13:leaf=0.0603895411
				14:leaf=-0.0186994504
booster[65]:
0:[f8377<173.5] yes=1,no=2,missing=1
	1:[f14909<175.5] yes=3,no=4,missing=3
		3:leaf=-0.0340528451
		4:leaf=0.011278729
	2:[f19421<40.5] yes=5,no=6,missing=5
		5:[f30211<84.5] yes=7,no=8,missing=8
			7:[f32261<74.5] yes=11,no=12,missing=12
				11:leaf=0.0120783402
				12:leaf=0.0695839673
			8:[f18248<25.5] yes=13,no=14,missing=13
				13:leaf=0.0629369617
				14:leaf=-0.0270891078
		6:[f4629<195.5] yes=9,no=10,missing=9
			9:[f26133<151.5] yes=15,no=16,missing=16
				15:leaf=0.0401720256
				16:leaf=-0.0109524373
			10:[f6326<202.5] yes=17,no=18,missing=18
				17:leaf=-0.0207500253
				18:leaf=0.10220968
booster[66]:
0:[f2178<42.5] yes=1,no=2,missing=1
	1:[f9627<15.5] yes=3,no=4,missing=3
		3:leaf=-0.0317325592
		4:[f8206<42.5] yes=7,no=8,missing=7
			7:[f10397<44.5] yes=13,no=14,missing=13
				13:leaf=0.00994993094
				14:leaf=0.0819850266
			8:leaf=-0.0252778493
	2:[f8403<43.5] yes=5,no=6,missing=6
		5:[f26920<113.5] yes=9,no=10,missing=9
			9:[f4406<88] yes=15,no=16,missing=16
				15:leaf=-0.0337802954
				16:leaf=-0.00651436625
			10:[f31091<47.5] yes=17,no=18,missing=18
				17:leaf=-0.0175711866
				18:leaf=0.0701990575
		6:[f11706<21.5] yes=11,no=12,missing=12
			11:[f31920<84.5] yes=19,no=20,missing=19
				19:leaf=0.00460478757
				20:leaf=0.0759304464
			12:[f4261<104.5] yes=21,no=22,missing=22
				21:leaf=-0.0302243251
				22:leaf=0.0763821974
booster[67]:
0:[f9338<61.5] yes=1,no=2,missing=1
	1:[f6036<91.5] yes=3,no=4,missing=3
		3:[f2460<90.5] yes=7,no=8,missing=7
			7:[f16037<386] yes=15,no=16,missing=16
				15:leaf=-0.0307972319
				16:leaf=0.0687129945
			8:[f24145<164.5] yes=17,no=18,missing=18
				17:leaf=0.106603384
				18:leaf=-0.0218172055
		4:[f8993<18.5] yes=9,no=10,missing=10
			9:[f21975<41.5] yes=19,no=20,missing=20
				19:leaf=0.0929315388
				20:leaf=-0.0214999188
			10:leaf=-0.0276739746
	2:[f31763<58.5] yes=5,no=6,missing=5
		5:[f7837<52.5] yes=11,no=12,missing=11
			11:[f44<262] yes=21,no=22,missing=22
				21:leaf=-0.0276627429
				22:leaf=0.0609659776
			12:[f20929<6.5] yes=23,no=24,missing=24
				23:leaf=-0.00154105294
				24:leaf=0.0812746957
		6:[f8303<181.5] yes=13,no=14,missing=14
			13:leaf=-0.0313161053
			14:leaf=0.0179559439
booster[68]:
0:[f21136<1.5] yes=1,no=2,missing=2
	1:[f32035<39.5] yes=3,no=4,missing=4
		3:[f15379<126.5] yes=7,no=8,missing=7
			7:leaf=-0.0233505722
			8:[f19950<102] yes=15,no=16,missing=16
				15:leaf=0.089376159
				16:leaf=0.000540253648
		4:[f5675<40] yes=9,no=10,missing=10
			9:leaf=-0.0310946796
			10:leaf=0.0326596424
	2:[f24457<10.5] yes=5,no=6,missing=5
		5:[f6262<92.5] yes=11,no=12,missing=11
			11:leaf=-0.0229510572
			12:leaf=0.0797167346
		6:[f15991<247.5] yes=13,no=14,missing=13
			13:[f10956<200] yes=17,no=18,missing=17
				17:leaf=-0.0342975184
				18:leaf=0.00413586618
			14:[f24027<211.5] yes=19,no=20,missing=19
				19:leaf=0.0541899912
				20:leaf=-0.0190149527
booster[69]:
0:[f30743<98.5] yes=1,no=2,missing=1
	1:[f9198<252.5] yes=3,no=4,missing=3
		3:[f11646<184.5] yes=7,no=8,missing=8
			7:[f18693<146.5] yes=13,no=14,missing=13
				13:leaf=-0.034091033
				14:leaf=-0.00169629755
			8:leaf=0.00650475034
		4:leaf=0.0314203389
	2:[f2866<76.5] yes=5,no=6,missing=5
		5:[f648<69.5] yes=9,no=10,missing=10
			9:[f6697<194.5] yes=15,no=16,missing=16
				15:leaf=-0.00940715335
				16:leaf=0.0961846262
			10:[f15924<74.5] yes=17,no=18,missing=17
				17:leaf=0.025278639
				18:leaf=-0.016705662
		6:[f10808<106.5] yes=11,no=12,missing=11
			11:[f18248<6046] yes=19,no=20,missing=20
				19:leaf=0.0853791833
				20:leaf=-0.0230296832
			12:leaf=-0.0289080534
booster[70]:
0:[f21998<53.5] yes=1,no=2,missing=1
	1:[f27596<177.5] yes=3,no=4,missing=3
		3:[f458<9.5] yes=7,no=8,missing=7
			7:[f30199<24.5] yes=15,no=16,missing=16
				15:leaf=0.0152048729
				16:leaf=0.0719921961
			8:[f20247<83.5] yes=17,no=18,missing=17
				17:leaf=0.0838109329
				18:leaf=0.0141993985
		4:[f25403<223.5] yes=9,no=10,missing=10
			9:[f12402<139.5] yes=19,no=20,missing=19
				19:leaf=0.00468936143
				20:leaf=0.080408968
			10:[f3756<187.5] yes=21,no=22,missing=22
				21:leaf=-0.0216336828
				22:leaf=0.0406964347
	2:[f31659<113.5] yes=5,no=6,missing=6
		5:[f25572<57.5] yes=11,no=12,missing=11
			11:leaf=0.0836767331
			12:leaf=0.0220080316
		6:[f16669<210.5] yes=13,no=14,missing=13
			13:[f4725<57.5] yes=23,no=24,missing=24
				23:leaf=-0.034252964
				24:leaf=0.00280002854
			14:leaf=0.0198238622
booster[71]:
0:leaf=-0.0342972502
booster[72]:
0:[f22851<69.5] yes=1,no=2,missing=1
	1:[f16388<4.5] yes=3,no=4,missing=4
		3:leaf=0.0028522939
		4:leaf=-0.0341550298
	2:[f26804<28.5] yes=5,no=6,missing=6
		5:[f28086<42.5] yes=7,no=8,missing=8
			7:[f5340<24.5] yes=11,no=12,missing=12
				11:leaf=0.0684688985
				12:leaf=-0.00673761219
			8:leaf=-0.024225628
		6:[f19674<17.5] yes=9,no=10,missing=9
			9:leaf=-0.0309162457
			10:leaf=0.0445835739
booster[73]:
0:[f1160<296.5] yes=1,no=2,missing=1
	1:leaf=-0.033836063
	2:[f14855<37.5] yes=3,no=4,missing=3
		3:[f4474<183.5] yes=5,no=6,missing=5
			5:[f19421<37.5] yes=9,no=10,missing=9
				9:leaf=0.0278967712
				10:leaf=-0.0133310258
			6:[f32236<29.5] yes=11,no=12,missing=12
				11:leaf=0.0973439515
				12:leaf=-0.00854396541
		4:[f30263<66.5] yes=7,no=8,missing=7
			7:[f10707<39.5] yes=13,no=14,missing=13
				13:leaf=0.0650039017
				14:leaf=0.0070253266
			8:[f7906<425.5] yes=15,no=16,missing=16
				15:leaf=-0.0279486999
				16:leaf=0.0557495058
booster[74]:
0:[f2178<42.5] yes=1,no=2,missing=1
	1:[f9627<15.5] yes=3,no=4,missing=3
		3:leaf=-0.0315335132
		4:[f19553<29.5] yes=7,no=8,missing=8
			7:[f30208<12.5] yes=13,no=14,missing=13
				13:leaf=0.0758101717
				14:leaf=-0.0184049383
			8:[f15449<107] yes=15,no=16,missing=16
				15:leaf=-0.0280308109
				16:leaf=0.0466653407
	2:[f8403<43.5] yes=5,no=6,missing=6
		5:[f26920<113.5] yes=9,no=10,missing=9
			9:[f4406<88] yes=17,no=18,missing=18
				17:leaf=-0.0336235464
				18:leaf=-0.00629480602
			10:[f19394<18.5] yes=19,no=20,missing=20
				19:leaf=0.0645216405
				20:leaf=-0.0111925388
		6:[f11706<21.5] yes=11,no=12,missing=12
			11:[f30997<25.5] yes=21,no=22,missing=21
				21:leaf=0.0709024742
				22:leaf=0.00371290813
			12:[f6859<54.5] yes=23,no=24,missing=24
				23:leaf=-0.0299728047
				24:leaf=0.0723160729
booster[75]:
0:[f8682<63.5] yes=1,no=2,missing=1
	1:[f23364<207.5] yes=3,no=4,missing=3
		3:[f22809<5.5] yes=7,no=8,missing=8
			7:[f5368<40.5] yes=15,no=16,missing=16
				15:leaf=0.0700240657
				16:leaf=-0.0279533789
			8:[f5677<65.5] yes=17,no=18,missing=17
				17:leaf=-0.0328740813
				18:leaf=0.0417909697
		4:[f3055<363.5] yes=9,no=10,missing=9
			9:[f11320<24.5] yes=19,no=20,missing=20
				19:leaf=-0.00231903978
				20:leaf=0.0975610465
			10:[f19726<243.5] yes=21,no=22,missing=21
				21:leaf=0.011444794
				22:leaf=-0.0288471375
	2:[f20505<77.5] yes=5,no=6,missing=5
		5:[f9350<97.5] yes=11,no=12,missing=11
			11:[f12715<40] yes=23,no=24,missing=23
				23:leaf=0.0530741774
				24:leaf=-0.0299704596
			12:[f30854<220.5] yes=25,no=26,missing=26
				25:leaf=0.0751830265
				26:leaf=-0.0128304278
		6:[f5994<118] yes=13,no=14,missing=14
			13:[f8112<20.5] yes=27,no=28,missing=28
				27:leaf=0.0244986359
				28:leaf=-0.0324550644
			14:leaf=0.0605678856
booster[76]:
0:[f21136<1.5] yes=1,no=2,missing=2
	1:[f22857<6.5] yes=3,no=4,missing=4
		3:[f1542<84.5] yes=7,no=8,missing=8
			7:leaf=-0.0228300914
			8:[f10453<13.5] yes=15,no=16,missing=16
				15:leaf=0.086210914
				16:leaf=0.0037094173
		4:[f19257<72] yes=9,no=10,missing=10
			9:leaf=-0.0313212872
			10:leaf=0.0486332178
	2:[f24457<10.5] yes=5,no=6,missing=5
		5:[f6262<92.5] yes=11,no=12,missing=11
			11:leaf=-0.0227196496
			12:leaf=0.0755843595
		6:[f23909<525.5] yes=13,no=14,missing=13
			13:[f28903<1.5] yes=17,no=18,missing=17
				17:leaf=0.00280396757
				18:leaf=-0.0341601893
			14:[f798<116.5] yes=19,no=20,missing=20
				19:leaf=0.0537732244
				20:leaf=-0.0190615542
booster[77]:
0:[f8198<132.5] yes=1,no=2,missing=1
	1:[f2706<118.5] yes=3,no=4,missing=3
		3:[f21260<374.5] yes=7,no=8,missing=8
			7:leaf=-0.0339743271
			8:leaf=0.018232761
		4:leaf=0.0340771414
	2:[f2866<76.5] yes=5,no=6,missing=5
		5:[f10134<39.5] yes=9,no=10,missing=9
			9:[f16416<133.5] yes=13,no=14,missing=14
				13:leaf=-0.021856701
				14:leaf=0.0492109917
			10:[f19574<40.5] yes=15,no=16,missing=15
				15:leaf=0.051833678
				16:leaf=-0.016458964
		6:[f15284<252.5] yes=11,no=12,missing=11
			11:[f18248<6046] yes=17,no=18,missing=18
				17:leaf=0.0797100291
				18:leaf=-0.0227845497
			12:leaf=-0.0289322007
booster[78]:
0:[f21998<53.5] yes=1,no=2,missing=1
	1:[f27596<177.5] yes=3,no=4,missing=3
		3:[f458<9.5] yes=7,no=8,missing=7
			7:[f11974<251.5] yes=13,no=14,missing=14
				13:leaf=0.0144622428
				14:leaf=0.0673920363
			8:[f20247<83.5] yes=15,no=16,missing=15
				15:leaf=0.0774132684
				16:leaf=0.0136379944
		4:[f25403<223.5] yes=9,no=10,missing=10
			9:[f21100<158.5] yes=17,no=18,missing=18
				17:leaf=0.0104739275
				18:leaf=0.084548898
			10:[f3756<187.5] yes=19,no=20,missing=20
				19:leaf=-0.0212412719
				20:leaf=0.0383390263
	2:[f30829<326.5] yes=5,no=6,missing=6
		5:leaf=0.0697266534
		6:[f30359<84.5] yes=11,no=12,missing=11
			11:[f32148<74.5] yes=21,no=22,missing=22
				21:leaf=-0.0341233127
				22:leaf=-0.00554525061
			12:leaf=0.0222695675
booster[79]:
0:leaf=-0.0341599509
booster[80]:
0:[f22851<69.5] yes=1,no=2,missing=1
	1:[f16345<2.5] yes=3,no=4,missing=4
		3:leaf=0.00287216878
		4:leaf=-0.03402327
	2:[f1648<122.5] yes=5,no=6,missing=5
		5:[f6246<95.5] yes=7,no=8,missing=8
			7:leaf=-0.0251488183
			8:[f7434<35.5] yes=11,no=12,missing=11
				11:leaf=0.0640400946
				12:leaf=-0.022385031
		6:[f21144<31.5] yes=9,no=10,missing=10
			9:leaf=-0.030341886
			10:[f25038<56.5] yes=13,no=14,missing=14
				13:leaf=0.0569948331
				14:leaf=-0.0185608938
booster[81]:
0:[f7468<96.5] yes=1,no=2,missing=1
	1:[f25638<158.5] yes=3,no=4,missing=3
		3:leaf=-0.0339068472
		4:[f12025<378.5] yes=7,no=8,missing=8
			7:[f14758<237] yes=13,no=14,missing=13
				13:leaf=0.0136653176
				14:leaf=0.0683816746
			8:leaf=-0.0267550554
	2:[f29354<58.5] yes=5,no=6,missing=5
		5:[f17604<112.5] yes=9,no=10,missing=10
			9:[f26718<6.5] yes=15,no=16,missing=16
				15:leaf=0.0713387877
				16:leaf=0.0172020774
			10:[f8998<62.5] yes=17,no=18,missing=18
				17:leaf=0.0120957689
				18:leaf=0.0789253488
		6:[f23853<489.5] yes=11,no=12,missing=11
			11:[f22496<66.5] yes=19,no=20,missing=20
				19:leaf=0.0690949187
				20:leaf=-0.00453453558
			12:[f28346<42.5] yes=21,no=22,missing=22
				21:leaf=0.0946113095
				22:leaf=-0.00817618892
booster[82]:
0:[f2178<42.5] yes=1,no=2,missing=1
	1:[f9627<15.5] yes=3,no=4,missing=3
		3:leaf=-0.0313329995
		4:[f8206<42.5] yes=7,no=8,missing=7
			7:[f4125<47.5] yes=13,no=14,missing=13
				13:leaf=-0.00920554064
				14:leaf=0.0692665279
			8:leaf=-0.024927089
	2:[f8403<43.5] yes=5,no=6,missing=6
		5:[f26920<113.5] yes=9,no=10,missing=9
			9:[f4406<88] yes=15,no=16,missing=16
				15:leaf=-0.0334718935
				16:leaf=-0.00600954518
			10:[f19394<18.5] yes=17,no=18,missing=18
				17:leaf=0.0615368374
				18:leaf=-0.0109775048
		6:[f11706<21.5] yes=11,no=12,missing=12
			11:[f8989<54.5] yes=19,no=20,missing=19
				19:leaf=-0.0033567606
				20:leaf=0.0649963021
			12:[f4261<104.5] yes=21,no=22,missing=22
				21:leaf=-0.0297363289
				22:leaf=0.0691165105
booster[83]:
0:[f8682<63.5] yes=1,no=2,missing=1
	1:[f23364<207.5] yes=3,no=4,missing=3
		3:[f22809<5.5] yes=7,no=8,missing=8
			7:[f5368<40.5] yes=15,no=16,missing=16
				15:leaf=0.0664174482
				16:leaf=-0.0277032256
			8:[f5677<65.5] yes=17,no=18,missing=17
				17:leaf=-0.0326905921
				18:leaf=0.0406974144
		4:[f3055<363.5] yes=9,no=10,missing=9
			9:[f11740<25.5] yes=19,no=20,missing=20
				19:leaf=-0.00298123271
				20:leaf=0.0909817889
			10:[f25597<145.5] yes=21,no=22,missing=21
				21:leaf=0.0115487026
				22:leaf=-0.0286552552
	2:[f20505<77.5] yes=5,no=6,missing=5
		5:[f9350<97.5] yes=11,no=12,missing=11
			11:[f8792<21.5] yes=23,no=24,missing=23
				23:leaf=0.0524214879
				24:leaf=-0.0297988262
			12:[f30854<220.5] yes=25,no=26,missing=26
				25:leaf=0.0701812133
				26:leaf=-0.0126030939
		6:[f5994<118] yes=13,no=14,missing=14
			13:[f8112<20.5] yes=27,no=28,missing=28
				27:leaf=0.0239536166
				28:leaf=-0.0322708227
			14:leaf=0.0577594042
booster[84]:
0:[f21136<1.5] yes=1,no=2,missing=2
	1:[f32035<39.5] yes=3,no=4,missing=4
		3:[f15379<126.5] yes=7,no=8,missing=7
			7:leaf=-0.0229554512
			8:[f19950<102] yes=15,no=16,missing=16
				15:leaf=0.0789016113
				16:leaf=0.00038982986
		4:[f28790<44.5] yes=9,no=10,missing=9
			9:leaf=-0.0306873918
			10:leaf=0.0318692513
	2:[f24457<10.5] yes=5,no=6,missing=5
		5:[f6262<92.5] yes=11,no=12,missing=11
			11:leaf=-0.0224861596
			12:leaf=0.0715857446
		6:[f15183<121.5] yes=13,no=14,missing=13
			13:[f29704<152.5] yes=17,no=18,missing=17
				17:leaf=-0.0340318345
				18:leaf=0.00370035926
			14:[f4424<76.5] yes=19,no=20,missing=20
				19:leaf=0.0536472015
				20:leaf=-0.0189944468
booster[85]:
0:[f30743<98.5] yes=1,no=2,missing=1
	1:[f9198<252.5] yes=3,no=4,missing=3
		3:[f11646<184.5] yes=7,no=8,missing=8
			7:[f18693<146.5] yes=13,no=14,missing=13
				13:leaf=-0.0338072591
				14:leaf=-0.00165048661
			8:leaf=0.0066864579
		4:leaf=0.0300544389
	2:[f29606<95.5] yes=5,no=6,missing=5
		5:[f26845<83.5] yes=9,no=10,missing=9
			9:[f19702<91.5] yes=15,no=16,missing=16
				15:leaf=0.028463861
				16:leaf=-0.0300932396
			10:[f18248<7] yes=17,no=18,missing=17
				17:leaf=-0.006187669
				18:leaf=0.0822186247
		6:[f5686<59.5] yes=11,no=12,missing=11
			11:[f520<290.5] yes=19,no=20,missing=20
				19:leaf=-0.019230213
				20:leaf=0.094391942
			12:[f11315<109.5] yes=21,no=22,missing=22
				21:leaf=-0.0139163807
				22:leaf=0.0338653177
booster[86]:
0:[f21998<53.5] yes=1,no=2,missing=1
	1:[f27596<177.5] yes=3,no=4,missing=3
		3:[f5740<2.5] yes=7,no=8,missing=7
			7:[f3977<294.5] yes=15,no=16,missing=16
				15:leaf=-0.0116826827
				16:leaf=0.0468198843
			8:[f6880<72.5] yes=17,no=18,missing=18
				17:leaf=0.0659002811
				18:leaf=-0.00136815698
		4:[f25403<223.5] yes=9,no=10,missing=10
			9:[f12402<139.5] yes=19,no=20,missing=19
				19:leaf=0.00387714105
				20:leaf=0.0712033436
			10:[f15602<93.5] yes=21,no=22,missing=22
				21:leaf=-0.0323658697
				22:leaf=0.00553639047
	2:[f31659<113.5] yes=5,no=6,missing=6
		5:[f7272<66.5] yes=11,no=12,missing=12
			11:leaf=0.0752594396
			12:leaf=0.0186978932
		6:[f31168<215.5] yes=13,no=14,missing=14
			13:[f25017<75.5] yes=23,no=24,missing=23
				23:leaf=-0.000682030572
				24:leaf=-0.0339392424
			14:[f3784<133.5] yes=25,no=26,missing=26
				25:leaf=-0.012103389
				26:leaf=0.0355945639
booster[87]:
0:leaf=-0.0340276919
booster[88]:
0:[f22851<69.5] yes=1,no=2,missing=1
	1:[f16345<2.5] yes=3,no=4,missing=4
		3:leaf=0.00295526022
		4:leaf=-0.0338945314
	2:[f1648<122.5] yes=5,no=6,missing=5
		5:[f6246<95.5] yes=7,no=8,missing=8
			7:leaf=-0.0249019582
			8:[f26737<50.5] yes=11,no=12,missing=12
				11:leaf=-0.0224035997
				12:leaf=0.0601242259
		6:[f21144<31.5] yes=9,no=10,missing=10
			9:leaf=-0.0301303491
			10:[f28311<115.5] yes=13,no=14,missing=14
				13:leaf=0.0551699325
				14:leaf=-0.0184129309
booster[89]:
0:[f1160<296.5] yes=1,no=2,missing=1
	1:leaf=-0.0335391387
	2:[f25554<44.5] yes=3,no=4,missing=4
		3:[f27429<59.5] yes=5,no=6,missing=5
			5:[f30263<66.5] yes=9,no=10,missing=9
				9:leaf=0.0599209927
				10:leaf=-0.0100643188
			6:[f5133<194.5] yes=11,no=12,missing=11
				11:leaf=-0.0082282424
				12:leaf=0.0496114679
		4:[f7226<253] yes=7,no=8,missing=8
			7:[f14885<35.5] yes=13,no=14,missing=13
				13:leaf=0.0485842116
				14:leaf=-0.0194297321
			8:leaf=0.0670300797
booster[90]:
0:[f2178<42.5] yes=1,no=2,missing=1
	1:[f9627<15.5] yes=3,no=4,missing=3
		3:leaf=-0.0311288461
		4:[f8206<42.5] yes=7,no=8,missing=7
			7:[f19852<61.5] yes=13,no=14,missing=13
				13:leaf=-0.00178003695
				14:leaf=0.06606213
			8:leaf=-0.0246656369
	2:[f8403<43.5] yes=5,no=6,missing=6
		5:[f26920<113.5] yes=9,no=10,missing=9
			9:[f4406<88] yes=15,no=16,missing=16
				15:leaf=-0.0333238803
				16:leaf=-0.00578234857
			10:[f19394<18.5] yes=17,no=18,missing=18
				17:leaf=0.0590610057
				18:leaf=-0.0107784476
		6:[f11706<21.5] yes=11,no=12,missing=12
			11:[f31920<84.5] yes=19,no=20,missing=19
				19:leaf=0.00217128661
				20:leaf=0.0632690266
			12:[f22912<112.5] yes=21,no=22,missing=22
				21:leaf=-0.0294968132
				22:leaf=0.0659049153
booster[91]:
0:[f8682<63.5] yes=1,no=2,missing=1
	1:[f23364<207.5] yes=3,no=4,missing=3
		3:[f22809<5.5] yes=7,no=8,missing=8
			7:[f5368<40.5] yes=15,no=16,missing=16
				15:leaf=0.0628236011
				16:leaf=-0.0274299253
			8:[f5677<65.5] yes=17,no=18,missing=17
				17:leaf=-0.0325099491
				18:leaf=0.0393145643
		4:[f3055<363.5] yes=9,no=10,missing=9
			9:[f22892<48.5] yes=19,no=20,missing=20
				19:leaf=0.00437319139
				20:leaf=0.0880383849
			10:[f7765<127.5] yes=21,no=22,missing=21
				21:leaf=0.0116340369
				22:leaf=-0.0284490027
	2:[f20505<77.5] yes=5,no=6,missing=5
		5:[f9350<98.5] yes=11,no=12,missing=11
			11:[f4828<25.5] yes=23,no=24,missing=23
				23:leaf=0.0535919853
				24:leaf=-0.0297666341
			12:[f30854<220.5] yes=25,no=26,missing=26
				25:leaf=0.065952301
				26:leaf=-0.0124169951
		6:[f5994<118] yes=13,no=14,missing=14
			13:[f29732<75.5] yes=27,no=28,missing=27
				27:leaf=-0.0320820324
				28:leaf=0.0242091138
			14:leaf=0.0553300269
booster[92]:
0:[f21136<1.5] yes=1,no=2,missing=2
	1:[f22857<6.5] yes=3,no=4,missing=4
		3:[f1542<84.5] yes=7,no=8,missing=8
			7:leaf=-0.022401398
			8:[f18720<45.5] yes=15,no=16,missing=16
				15:leaf=0.0769565925
				16:leaf=0.00306681241
		4:[f11785<73.5] yes=9,no=10,missing=10
			9:leaf=0.045759391
			10:leaf=-0.0309906453
	2:[f24457<10.5] yes=5,no=6,missing=5
		5:[f6262<92.5] yes=11,no=12,missing=11
			11:leaf=-0.0222558938
			12:leaf=0.0683635026
		6:[f14240<238.5] yes=13,no=14,missing=13
			13:[f14541<244.5] yes=17,no=18,missing=17
				17:leaf=-0.0339032076
				18:leaf=0.00487405015
			14:[f915<258] yes=19,no=20,missing=20
				19:leaf=0.0533307567
				20:leaf=-0.0188999642
booster[93]:
0:[f30743<98.5] yes=1,no=2,missing=1
	1:[f9198<252.5] yes=3,no=4,missing=3
		3:[f5815<108.5] yes=7,no=8,missing=7
			7:[f13526<102.5] yes=13,no=14,missing=14
				13:leaf=-0.0337831266
				14:leaf=-0.00328842457
			8:[f7024<124.5] yes=15,no=16,missing=16
				15:leaf=0.0244291406
				16:leaf=-0.0214542132
		4:leaf=0.029276805
	2:[f23664<89.5] yes=5,no=6,missing=5
		5:[f18248<8.5] yes=9,no=10,missing=9
			9:[f14907<75.5] yes=17,no=18,missing=17
				17:leaf=-0.0315543078
				18:leaf=0.0172925107
			10:[f13221<158.5] yes=19,no=20,missing=19
				19:leaf=-0.0204196405
				20:leaf=0.080434151
		6:[f28946<160.5] yes=11,no=12,missing=12
			11:[f13285<14.5] yes=21,no=22,missing=22
				21:leaf=-0.0155626647
				22:leaf=0.0722714067
			12:[f11315<110.5] yes=23,no=24,missing=24
				23:leaf=-0.0167017765
				24:leaf=0.0267108958
booster[94]:
0:[f21998<52.5] yes=1,no=2,missing=1
	1:[f27596<177.5] yes=3,no=4,missing=3
		3:[f9988<7.5] yes=7,no=8,missing=7
			7:[f30199<24.5] yes=15,no=16,missing=16
				15:leaf=0.00543795852
				16:leaf=0.0611559562
			8:[f6942<1.5] yes=17,no=18,missing=17
				17:leaf=-0.0222864114
				18:leaf=0.0650998503
		4:[f25403<223.5] yes=9,no=10,missing=10
			9:[f21100<158.5] yes=19,no=20,missing=20
				19:leaf=0.00915185735
				20:leaf=0.0746560544
			10:[f15602<93.5] yes=21,no=22,missing=22
				21:leaf=-0.0321390778
				22:leaf=0.00564020826
	2:[f12793<203.5] yes=5,no=6,missing=6
		5:[f7934<54.5] yes=11,no=12,missing=12
			11:leaf=0.0152235432
			12:leaf=0.0739829391
		6:[f30359<84.5] yes=13,no=14,missing=13
			13:[f10441<42.5] yes=23,no=24,missing=24
				23:leaf=0.0120068602
				24:leaf=-0.0335253701
			14:[f494<117.5] yes=25,no=26,missing=26
				25:leaf=0.0529248156
				26:leaf=-0.0145539753
booster[95]:
0:leaf=-0.0339001715
booster[96]:
0:[f22851<69.5] yes=1,no=2,missing=1
	1:[f16345<2.5] yes=3,no=4,missing=4
		3:leaf=0.00296783913
		4:leaf=-0.0337711126
	2:[f26804<28.5] yes=5,no=6,missing=6
		5:[f14149<56.5] yes=7,no=8,missing=7
			7:[f28096<169.5] yes=11,no=12,missing=11
				11:leaf=0.0597481392
				12:leaf=-0.00842941739
			8:[f15194<22.5] yes=13,no=14,missing=14
				13:leaf=-0.0277400129
				14:leaf=0.0196084958
		6:[f19674<17.5] yes=9,no=10,missing=9
			9:leaf=-0.0305300485
			10:leaf=0.0412049778
booster[97]:
0:[f7818<127.5] yes=1,no=2,missing=1
	1:[f941<159.5] yes=3,no=4,missing=3
		3:[f20615<283.5] yes=7,no=8,missing=7
			7:[f2778<97.5] yes=15,no=16,missing=16
				15:leaf=-0.0337370224
				16:leaf=-0.00433755293
			8:leaf=0.0168711655
		4:[f3208<378.5] yes=9,no=10,missing=10
			9:leaf=0.048918847
			10:[f1581<295] yes=17,no=18,missing=18
				17:leaf=-0.0215693731
				18:leaf=-0.00474443939
	2:[f25554<44.5] yes=5,no=6,missing=6
		5:[f15256<63.5] yes=11,no=12,missing=12
			11:[f30106<31.5] yes=19,no=20,missing=20
				19:leaf=0.0536362268
				20:leaf=0.0167631246
			12:[f4629<196] yes=21,no=22,missing=21
				21:leaf=-0.0261684675
				22:leaf=0.0689923465
		6:[f28269<137.5] yes=13,no=14,missing=14
			13:[f8983<47.5] yes=23,no=24,missing=24
				23:leaf=0.0101210773
				24:leaf=-0.0301661659
			14:leaf=0.0595678091
booster[98]:
0:[f2178<42.5] yes=1,no=2,missing=1
	1:[f9627<15.5] yes=3,no=4,missing=3
		3:leaf=-0.0309342146
		4:[f19553<29.5] yes=7,no=8,missing=8
			7:[f9585<52.5] yes=13,no=14,missing=13
				13:leaf=0.0635307506
				14:leaf=-0.0196631495
			8:[f15449<107] yes=15,no=16,missing=16
				15:leaf=-0.0280137807
				16:leaf=0.0416444167
	2:[f8403<43.5] yes=5,no=6,missing=6
		5:[f26920<113.5] yes=9,no=10,missing=9
			9:[f4406<88] yes=17,no=18,missing=18
				17:leaf=-0.0331800468
				18:leaf=-0.00550778257
			10:[f19394<18.5] yes=19,no=20,missing=20
				19:leaf=0.0567478538
				20:leaf=-0.0105287591
		6:[f11706<21.5] yes=11,no=12,missing=12
			11:[f24558<38.5] yes=21,no=22,missing=22
				21:leaf=0.0570479147
				22:leaf=-0.0102848243
			12:[f6859<54.5] yes=23,no=24,missing=24
				23:leaf=-0.0292235874
				24:leaf=0.063059099
booster[99]:
0:[f8682<63.5] yes=1,no=2,missing=1
	1:[f23364<207.5] yes=3,no=4,missing=3
		3:[f22809<5.5] yes=7,no=8,missing=8
			7:[f29521<43.5] yes=15,no=16,missing=16
				15:leaf=0.0601504482
				16:leaf=-0.0273240488
			8:[f5677<65.5] yes=17,no=18,missing=17
				17:leaf=-0.0323318951
				18:leaf=0.038301412
		4:[f3055<363.5] yes=9,no=10,missing=9
			9:[f29897<18] yes=19,no=20,missing=20
				19:leaf=-0.00358544267
				20:leaf=0.0803327486
			10:[f17323<99.5] yes=21,no=22,missing=22
				21:leaf=0.0116720665
				22:leaf=-0.028229719
	2:[f11848<122.5] yes=5,no=6,missing=6
		5:[f2178<51.5] yes=11,no=12,missing=11
			11:[f4845<25.5] yes=23,no=24,missing=23
				23:leaf=0.0498668626
				24:leaf=-0.018255271
			12:[f31214<83.5] yes=25,no=26,missing=26
				25:leaf=0.0649311393
				26:leaf=-0.0190800726
		6:[f14923<107.5] yes=13,no=14,missing=13
			13:[f9729<78.5] yes=27,no=28,missing=27
				27:leaf=0.0196904
				28:leaf=-0.0321154185
			14:[f9820<17.5] yes=29,no=30,missing=30
				29:leaf=0.0674364343
				30:leaf=-0.00778546045
booster[100]:
0:[f21136<1.5] yes=1,no=2,missing=2
	1:[f31345<60.5] yes=3,no=4,missing=4
		3:[f15379<126.5] yes=7,no=8,missing=7
			7:leaf=-0.0247564949
			8:[f11982<108.5] yes=15,no=16,missing=16
				15:leaf=0.0724627897
				16:leaf=-0.00578974979
		4:[f14902<14.5] yes=9,no=10,missing=10
			9:leaf=-0.0299176387
			10:leaf=0.00637022825
	2:[f24457<10.5] yes=5,no=6,missing=5
		5:[f6262<92.5] yes=11,no=12,missing=11
			11:leaf=-0.0219785199
			12:leaf=0.0654154792
		6:[f23909<525.5] yes=13,no=14,missing=13
			13:[f28903<1.5] yes=17,no=18,missing=17
				17:leaf=0.00415967451
				18:leaf=-0.0337769389
			14:[f1149<201] yes=19,no=20,missing=20
				19:leaf=0.0529733896
				20:leaf=-0.0189145468
booster[101]:
0:[f8198<132.5] yes=1,no=2,missing=1
	1:[f2706<118.5] yes=3,no=4,missing=3
		3:[f21260<374.5] yes=7,no=8,missing=7
			7:leaf=-0.0335624032
			8:leaf=0.0239469763
		4:leaf=0.0320223942
	2:[f2866<76.5] yes=5,no=6,missing=5
		5:[f10134<39.5] yes=9,no=10,missing=9
			9:[f3439<73.5] yes=13,no=14,missing=14
				13:leaf=-0.0213262923
				14:leaf=0.0444650538
			10:[f19125<127.5] yes=15,no=16,missing=16
				15:leaf=0.0427291691
				16:leaf=-0.0216268636
		6:[f9722<157.5] yes=11,no=12,missing=11
			11:[f18248<6046] yes=17,no=18,missing=18
				17:leaf=0.0675349087
				18:leaf=-0.022166945
			12:leaf=-0.0293655861
booster[102]:
0:[f21998<52.5] yes=1,no=2,missing=1
	1:[f27596<177.5] yes=3,no=4,missing=3
		3:[f5740<2.5] yes=7,no=8,missing=7
			7:[f195<520.5] yes=15,no=16,missing=15
				15:leaf=0.00364456535
				16:leaf=0.0643366948
			8:[f30172<117.5] yes=17,no=18,missing=17
				17:leaf=0.0580755249
				18:leaf=-0.0278484002
		4:[f25403<223.5] yes=9,no=10,missing=10
			9:[f19574<35.5] yes=19,no=20,missing=19
				19:leaf=0.0067212549
				20:leaf=0.0690234005
			10:[f3756<187.5] yes=21,no=22,missing=22
				21:leaf=-0.0202428084
				22:leaf=0.0369895287
	2:[f12793<203.5] yes=5,no=6,missing=6
		5:[f7934<54.5] yes=11,no=12,missing=12
			11:leaf=0.0145606063
			12:leaf=0.0701110661
		6:[f29524<49.5] yes=13,no=14,missing=13
			13:[f5868<267.5] yes=23,no=24,missing=24
				23:leaf=0.00243459642
				24:leaf=-0.0337122455
			14:[f10205<28.5] yes=25,no=26,missing=26
				25:leaf=-0.0229212064
				26:leaf=0.0376851894
booster[103]:
0:leaf=-0.0337774642
booster[104]:
0:[f22851<69.5] yes=1,no=2,missing=1
	1:[f8472<8.5] yes=3,no=4,missing=4
		3:leaf=0.00300772116
		4:leaf=-0.0336540043
	2:[f1648<122.5] yes=5,no=6,missing=5
		5:[f31189<125.5] yes=7,no=8,missing=8
			7:[f11404<90.5] yes=11,no=12,missing=12
				11:leaf=0.0197737254
				12:leaf=-0.0274957847
			8:[f7645<177.5] yes=13,no=14,missing=14
				13:leaf=0.0566045828
				14:leaf=-0.0244936142
		6:[f21144<31.5] yes=9,no=10,missing=10
			9:leaf=-0.0298500117
			10:[f25038<56.5] yes=15,no=16,missing=16
				15:leaf=0.0526352711
				16:leaf=-0.0182754602
booster[105]:
0:[f1160<296.5] yes=1,no=2,missing=1
	1:leaf=-0.0332603864
	2:[f32261<74.5] yes=3,no=4,missing=4
		3:[f6825<38.5] yes=5,no=6,missing=6
			5:[f30510<68.5] yes=9,no=10,missing=10
				9:leaf=-0.00253864983
				10:leaf=0.0645018965
			6:[f27856<138.5] yes=11,no=12,missing=11
				11:leaf=-0.0239060428
				12:leaf=0.0385242626
		4:[f19979<88.5] yes=7,no=8,missing=8
			7:[f19421<40.5] yes=13,no=14,missing=13
				13:leaf=0.0492252968
				14:leaf=0.0171112884
			8:[f16461<55.5] yes=15,no=16,missing=16
				15:leaf=0.0190586355
				16:leaf=-0.0322150961
booster[106]:
0:[f29671<217.5] yes=1,no=2,missing=2
	1:[f32043<3.5] yes=3,no=4,missing=3
		3:[f16415<16.5] yes=7,no=8,missing=8
			7:[f3943<137.5] yes=13,no=14,missing=14
				13:leaf=-0.0295742899
				14:leaf=0.00466424553
			8:[f26787<164.5] yes=15,no=16,missing=15
				15:leaf=0.053194128
				16:leaf=-0.0223577414
		4:[f6573<94.5] yes=9,no=10,missing=10
			9:[f23466<4.5] yes=17,no=18,missing=17
				17:leaf=0.0235986337
				18:leaf=-0.0329644457
			10:leaf=0.0558720306
	2:[f16462<65.5] yes=5,no=6,missing=5
		5:[f9338<24.5] yes=11,no=12,missing=12
			11:leaf=0.0126876775
			12:[f1632<231.5] yes=19,no=20,missing=19
				19:leaf=-0.0331075229
				20:leaf=0.00137312303
		6:leaf=0.0569520071
booster[107]:
0:[f11275<22.5] yes=1,no=2,missing=1
	1:[f6262<24.5] yes=3,no=4,missing=3
		3:[f29533<48.5] yes=7,no=8,missing=7
			7:[f5315<13.5] yes=15,no=16,missing=16
				15:leaf=-0.0156681333
				16:leaf=0.0942310393
			8:[f9845<40.5] yes=17,no=18,missing=17
				17:leaf=-0.0260963272
				18:leaf=0.0427097045
		4:[f15059<86.5] yes=9,no=10,missing=9
			9:[f27383<2.5] yes=19,no=20,missing=20
				19:leaf=-0.00266842963
				20:leaf=0.0596662387
			10:[f8973<17.5] yes=21,no=22,missing=22
				21:leaf=-0.0268916134
				22:leaf=0.0106234867
	2:[f23364<206.5] yes=5,no=6,missing=5
		5:[f17399<2.5] yes=11,no=12,missing=12
			11:leaf=0.0370779485
			12:[f32221<282.5] yes=23,no=24,missing=24
				23:leaf=-0.0326230526
				24:leaf=0.00331661222
		6:[f31729<153.5] yes=13,no=14,missing=14
			13:[f12688<119.5] yes=25,no=26,missing=25
				25:leaf=-0.0180103909
				26:leaf=0.077354677
			14:[f17341<114.5] yes=27,no=28,missing=27
				27:leaf=-0.0303651616
				28:leaf=0.0159197189
booster[108]:
0:[f21136<1.5] yes=1,no=2,missing=2
	1:[f31345<60.5] yes=3,no=4,missing=4
		3:[f15379<126.5] yes=7,no=8,missing=7
			7:leaf=-0.0245224815
			8:[f11982<108.5] yes=15,no=16,missing=16
				15:leaf=0.0689462498
				16:leaf=-0.00566265266
		4:[f8829<233.5] yes=9,no=10,missing=10
			9:leaf=-0.0297169946
			10:leaf=0.00633480446
	2:[f24457<10.5] yes=5,no=6,missing=5
		5:[f6262<92.5] yes=11,no=12,missing=11
			11:leaf=-0.0217461083
			12:leaf=0.0627194867
		6:[f14240<238.5] yes=13,no=14,missing=13
			13:[f14541<244.5] yes=17,no=18,missing=17
				17:leaf=-0.0336613767
				18:leaf=0.00551004149
			14:[f25043<62] yes=19,no=20,missing=20
				19:leaf=0.0525610261
				20:leaf=-0.0187770408
booster[109]:
0:[f11859<266.5] yes=1,no=2,missing=1
	1:[f18992<244.5] yes=3,no=4,missing=3
		3:[f4737<74.5] yes=7,no=8,missing=7
			7:[f12878<155.5] yes=13,no=14,missing=13
				13:leaf=-0.0336331837
				14:leaf=-0.00140853948
			8:leaf=0.0419866331
		4:leaf=0.0632199422
	2:[f23664<89.5] yes=5,no=6,missing=5
		5:[f18248<11] yes=9,no=10,missing=9
			9:[f31993<178.5] yes=15,no=16,missing=16
				15:leaf=-0.0309801996
				16:leaf=0.0166745782
			10:[f2154<64.5] yes=17,no=18,missing=18
				17:leaf=-0.017923506
				18:leaf=0.0780797601
		6:[f27449<58.5] yes=11,no=12,missing=12
			11:[f29123<175.5] yes=19,no=20,missing=20
				19:leaf=0.0687110424
				20:leaf=-0.0144729763
			12:[f3115<12.5] yes=21,no=22,missing=22
				21:leaf=-0.0157045703
				22:leaf=0.0273478348
booster[110]:
0:[f21998<53.5] yes=1,no=2,missing=1
	1:[f23362<182.5] yes=3,no=4,missing=3
		3:[f23568<15.5] yes=7,no=8,missing=7
			7:[f6022<32.5] yes=15,no=16,missing=16
				15:leaf=0.00466031255
				16:leaf=0.0615863129
			8:[f1200<208.5] yes=17,no=18,missing=17
				17:leaf=0.0629898757
				18:leaf=-0.023960229
		4:[f16620<117.5] yes=9,no=10,missing=9
			9:[f22863<1.5] yes=19,no=20,missing=20
				19:leaf=0.056162674
				20:leaf=-0.00591121707
			10:[f20504<88.5] yes=21,no=22,missing=21
				21:leaf=-0.0128764035
				22:leaf=0.05789968
	2:[f30829<326.5] yes=5,no=6,missing=6
		5:[f19622<96.5] yes=11,no=12,missing=12
			11:leaf=0.0672438666
			12:leaf=0.0148423938
		6:[f8029<57.5] yes=13,no=14,missing=14
			13:leaf=-0.03327794
			14:[f7934<59.5] yes=23,no=24,missing=24
				23:leaf=-0.0145923346
				24:leaf=0.0451868959
booster[111]:
0:leaf=-0.0336597301
booster[112]:
0:[f22851<69.5] yes=1,no=2,missing=1
	1:[f8472<8.5] yes=3,no=4,missing=4
		3:leaf=0.00295333937
		4:leaf=-0.0335407257
	2:[f26804<28.5] yes=5,no=6,missing=6
		5:[f14688<17.5] yes=7,no=8,missing=8
			7:leaf=-0.0244402755
			8:[f3944<321.5] yes=11,no=12,missing=12
				11:leaf=0.0521940328
				12:leaf=-0.0171441995
		6:[f19674<17.5] yes=9,no=10,missing=9
			9:leaf=-0.0302126445
			10:leaf=0.0393712036
booster[113]:
0:[f29915<54.5] yes=1,no=2,missing=1
	1:[f28607<142.5] yes=3,no=4,missing=3
		3:[f22007<66.5] yes=7,no=8,missing=7
			7:leaf=-0.0335957035
			8:leaf=0.0229292419
		4:[f3522<73.5] yes=9,no=10,missing=10
			9:[f15139<145.5] yes=15,no=16,missing=16
				15:leaf=0.0221588425
				16:leaf=-0.0327937864
			10:[f28369<2.5] yes=17,no=18,missing=17
				17:leaf=0.0691177249
				18:leaf=-0.0122187659
	2:[f29354<57.5] yes=5,no=6,missing=5
		5:[f10693<48.5] yes=11,no=12,missing=12
			11:[f23234<40.5] yes=19,no=20,missing=20
				19:leaf=0.0100282356
				20:leaf=0.0530922264
			12:[f25130<100.5] yes=21,no=22,missing=22
				21:leaf=-0.0330984145
				22:leaf=0.00353962765
		6:[f23923<39.5] yes=13,no=14,missing=14
			13:[f23501<64.5] yes=23,no=24,missing=24
				23:leaf=-0.0232339613
				24:leaf=0.0129249692
			14:[f26739<163.5] yes=25,no=26,missing=26
				25:leaf=-0.0128022181
				26:leaf=0.0506998524
booster[114]:
0:[f29671<220.5] yes=1,no=2,missing=2
	1:[f32043<3.5] yes=3,no=4,missing=3
		3:[f16415<16.5] yes=7,no=8,missing=8
			7:[f7931<1.5] yes=15,no=16,missing=16
				15:leaf=0.00457898527
				16:leaf=-0.0293710716
			8:[f5574<151.5] yes=17,no=18,missing=18
				17:leaf=0.051710695
				18:leaf=-0.005525955
		4:[f6573<94.5] yes=9,no=10,missing=10
			9:[f23466<4.5] yes=19,no=20,missing=19
				19:leaf=0.0230996497
				20:leaf=-0.0327950045
			10:leaf=0.0530959517
	2:[f29321<146] yes=5,no=6,missing=5
		5:[f1632<231.5] yes=11,no=12,missing=11
			11:[f3153<446.5] yes=21,no=22,missing=21
				21:leaf=-0.03336161
				22:leaf=-0.000806616968
			12:leaf=0.00406888593
		6:[f10127<60.5] yes=13,no=14,missing=14
			13:leaf=0.0190407336
			14:leaf=0.064169772
booster[115]:
0:[f11275<22.5] yes=1,no=2,missing=1
	1:[f6262<24.5] yes=3,no=4,missing=3
		3:[f12914<21.5] yes=7,no=8,missing=7
			7:[f20459<31.5] yes=15,no=16,missing=15
				15:leaf=-0.0193772204
				16:leaf=0.080310531
			8:[f4860<72.5] yes=17,no=18,missing=18
				17:leaf=-0.0286022816
				18:leaf=0.0430250652
		4:[f15059<86.5] yes=9,no=10,missing=9
			9:[f32312<31.5] yes=19,no=20,missing=20
				19:leaf=0.0582994483
				20:leaf=0.0141369235
			10:[f18668<51.5] yes=21,no=22,missing=22
				21:leaf=-0.0266521145
				22:leaf=0.0103769256
	2:[f23364<206.5] yes=5,no=6,missing=5
		5:[f17399<2.5] yes=11,no=12,missing=12
			11:leaf=0.0358999558
			12:[f32221<282.5] yes=23,no=24,missing=24
				23:leaf=-0.0324662663
				24:leaf=0.00321489666
		6:[f22282<44.5] yes=13,no=14,missing=14
			13:[f17002<203.5] yes=25,no=26,missing=26
				25:leaf=0.0708645657
				26:leaf=-0.0231679585
			14:[f15048<94.5] yes=27,no=28,missing=28
				27:leaf=0.00375887076
				28:leaf=-0.029899478
booster[116]:
0:[f21136<1.5] yes=1,no=2,missing=2
	1:[f31345<60.5] yes=3,no=4,missing=4
		3:[f20298<23.5] yes=7,no=8,missing=7
			7:leaf=-0.0244903099
			8:[f4123<36.5] yes=15,no=16,missing=16
				15:leaf=-0.0173542183
				16:leaf=0.0644229501
		4:[f11409<49.5] yes=9,no=10,missing=10
			9:leaf=-0.029508248
			10:leaf=0.00636120886
	2:[f24457<10.5] yes=5,no=6,missing=5
		5:[f6262<92.5] yes=11,no=12,missing=11
			11:leaf=-0.0215151645
			12:leaf=0.0599011667
		6:[f15183<121.5] yes=13,no=14,missing=13
			13:[f29704<152.5] yes=17,no=18,missing=17
				17:leaf=-0.0335481055
				18:leaf=0.00537934666
			14:[f4424<72] yes=19,no=20,missing=20
				19:leaf=0.0522198938
				20:leaf=-0.0186686143
booster[117]:
0:[f30743<98.5] yes=1,no=2,missing=1
	1:[f9198<252.5] yes=3,no=4,missing=3
		3:[f11646<184.5] yes=7,no=8,missing=8
			7:[f10267<110.5] yes=13,no=14,missing=13
				13:leaf=-0.0334289931
				14:leaf=-0.00553738046
			8:leaf=0.00768663269
		4:leaf=0.0267643481
	2:[f29606<97.5] yes=5,no=6,missing=5
		5:[f26845<83.5] yes=9,no=10,missing=9
			9:[f19702<91.5] yes=15,no=16,missing=16
				15:leaf=0.026631169
				16:leaf=-0.0295038428
			10:[f21250<95.5] yes=17,no=18,missing=17
				17:leaf=-0.00618003914
				18:leaf=0.0639683083
		6:[f1737<49.5] yes=11,no=12,missing=12
			11:[f8169<58.5] yes=19,no=20,missing=20
				19:leaf=-0.0229735989
				20:leaf=0.0435737073
			12:[f4593<185.5] yes=21,no=22,missing=21
				21:leaf=0.0433144085
				22:leaf=-0.0115743363
booster[118]:
0:[f20296<90.5] yes=1,no=2,missing=1
	1:[f23362<182.5] yes=3,no=4,missing=3
		3:[f6119<290.5] yes=7,no=8,missing=7
			7:[f30049<12.5] yes=13,no=14,missing=13
				13:leaf=0.00413501915
				14:leaf=0.0578803271
			8:[f27127<243] yes=15,no=16,missing=15
				15:leaf=-0.0270346589
				16:leaf=0.0112936785
		4:[f25941<71.5] yes=9,no=10,missing=10
			9:[f3215<301.5] yes=17,no=18,missing=18
				17:leaf=-0.00409086887
				18:leaf=0.064943321
			10:[f3389<158.5] yes=19,no=20,missing=19
				19:leaf=0.0544986464
				20:leaf=-0.0248451345
	2:[f24635<241.5] yes=5,no=6,missing=6
		5:leaf=0.0542857312
		6:[f2423<166.5] yes=11,no=12,missing=11
			11:[f23272<13.5] yes=21,no=22,missing=22
				21:leaf=0.00755550992
				22:leaf=-0.0336748734
			12:leaf=0.0297221597
booster[119]:
0:leaf=-0.0335465521
booster[120]:
0:[f22851<69.5] yes=1,no=2,missing=1
	1:[f8472<8.5] yes=3,no=4,missing=4
		3:leaf=0.00301279291
		4:leaf=-0.0334291421
	2:[f1648<122.5] yes=5,no=6,missing=5
		5:[f6246<95.5] yes=7,no=8,missing=8
			7:leaf=-0.0243758447
			8:[f27251<114.5] yes=11,no=12,missing=12
				11:leaf=0.050066676
				12:leaf=-0.0171198696
		6:[f21144<31.5] yes=9,no=10,missing=10
			9:leaf=-0.0295766611
			10:[f25038<56.5] yes=13,no=14,missing=14
				13:leaf=0.0496619865
				14:leaf=-0.0178929493
booster[121]:
0:[f8377<173.5] yes=1,no=2,missing=1
	1:[f14909<175.5] yes=3,no=4,missing=3
		3:leaf=-0.0331310034
		4:leaf=0.00989598967
	2:[f19421<40.5] yes=5,no=6,missing=5
		5:[f18376<57.5] yes=7,no=8,missing=8
			7:[f27269<513.5] yes=11,no=12,missing=12
				11:leaf=0.0243264623
				12:leaf=0.0547713377
			8:[f29585<52.5] yes=13,no=14,missing=14
				13:leaf=-0.0211996585
				14:leaf=0.0540194735
		6:[f17748<126.5] yes=9,no=10,missing=10
			9:[f21032<31.5] yes=15,no=16,missing=16
				15:leaf=-0.0174100399
				16:leaf=0.0313242897
			10:[f18047<35.5] yes=17,no=18,missing=17
				17:leaf=0.0612470768
				18:leaf=-0.0280155391
booster[122]:
0:[f29671<220.5] yes=1,no=2,missing=2
	1:[f32043<3.5] yes=3,no=4,missing=3
		3:[f9627<15.5] yes=7,no=8,missing=7
			7:leaf=-0.0282809883
			8:[f26787<164.5] yes=15,no=16,missing=15
				15:leaf=0.0462294258
				16:leaf=-0.0178325381
		4:[f6573<94.5] yes=9,no=10,missing=10
			9:[f23466<4.5] yes=17,no=18,missing=17
				17:leaf=0.0227695145
				18:leaf=-0.0326302052
			10:leaf=0.0515620336
	2:[f29321<146] yes=5,no=6,missing=5
		5:[f1632<231.5] yes=11,no=12,missing=11
			11:[f3153<446.5] yes=19,no=20,missing=19
				19:leaf=-0.0332413204
				20:leaf=-0.00056722702
			12:leaf=0.00418176409
		6:[f10127<60.5] yes=13,no=14,missing=14
			13:leaf=0.0184676312
			14:leaf=0.0611085594
booster[123]:
0:[f11275<22.5] yes=1,no=2,missing=1
	1:[f6262<24.5] yes=3,no=4,missing=3
		3:[f29533<48.5] yes=7,no=8,missing=7
			7:[f5315<13.5] yes=15,no=16,missing=16
				15:leaf=-0.014890383
				16:leaf=0.0842859745
			8:[f9845<40.5] yes=17,no=18,missing=17
				17:leaf=-0.0255732406
				18:leaf=0.0408727825
		4:[f15059<86.5] yes=9,no=10,missing=9
			9:[f27383<2.5] yes=19,no=20,missing=20
				19:leaf=-0.00469533959
				20:leaf=0.0542872921
			10:[f24196<34] yes=21,no=22,missing=22
				21:leaf=-0.0264136586
				22:leaf=0.0101828156
	2:[f23364<206.5] yes=5,no=6,missing=5
		5:[f17399<2.5] yes=11,no=12,missing=12
			11:leaf=0.0350799859
			12:[f32221<282.5] yes=23,no=24,missing=24
				23:leaf=-0.0323079266
				24:leaf=0.00315433228
		6:[f26365<241.5] yes=13,no=14,missing=14
			13:[f24978<61.5] yes=25,no=26,missing=26
				25:leaf=-0.016207939
				26:leaf=0.0657449588
			14:leaf=-0.0283419266
booster[124]:
0:[f21136<1.5] yes=1,no=2,missing=2
	1:[f31345<60.5] yes=3,no=4,missing=4
		3:[f15379<126.5] yes=7,no=8,missing=7
			7:leaf=-0.0241627283
			8:[f11982<108.5] yes=15,no=16,missing=16
				15:leaf=0.0629132465
				16:leaf=-0.00585701177
		4:[f1480<25.5] yes=9,no=10,missing=9
			9:leaf=0.00638007745
			10:leaf=-0.0293056145
	2:[f24457<10.5] yes=5,no=6,missing=5
		5:[f6262<92.5] yes=11,no=12,missing=11
			11:leaf=-0.0212684833
			12:leaf=0.0576216653
		6:[f14240<238.5] yes=13,no=14,missing=13
			13:[f14541<244.5] yes=17,no=18,missing=17
				17:leaf=-0.0334357098
				18:leaf=0.00590203609
			14:[f1667<166.5] yes=19,no=20,missing=20
				19:leaf=0.0517075099
				20:leaf=-0.0185883716
booster[125]:
0:[f8198<132.5] yes=1,no=2,missing=1
	1:[f2706<118.5] yes=3,no=4,missing=3
		3:[f21260<374.5] yes=7,no=8,missing=7
			7:leaf=-0.0331877545
			8:leaf=0.0225025285
		4:leaf=0.0298955385
	2:[f23664<89.5] yes=5,no=6,missing=5
		5:[f6884<30.5] yes=9,no=10,missing=10
			9:[f2773<226] yes=13,no=14,missing=14
				13:leaf=-0.0292156711
				14:leaf=0.0170383193
			10:[f2094<73.5] yes=15,no=16,missing=16
				15:leaf=-0.0265114047
				16:leaf=0.0656832457
		6:[f27449<58.5] yes=11,no=12,missing=12
			11:[f31709<166.5] yes=17,no=18,missing=18
				17:leaf=-0.0145449117
				18:leaf=0.0590311885
			12:[f3115<13.5] yes=19,no=20,missing=20
				19:leaf=-0.0122360503
				20:leaf=0.029010566
booster[126]:
0:[f21998<52.5] yes=1,no=2,missing=1
	1:[f27596<177.5] yes=3,no=4,missing=3
		3:[f25531<3.5] yes=7,no=8,missing=8
			7:[f21481<83.5] yes=15,no=16,missing=16
				15:leaf=-0.0165171679
				16:leaf=0.0426013917
			8:[f22854<4.5] yes=17,no=18,missing=17
				17:leaf=0.0215986148
				18:leaf=0.0507069863
		4:[f25403<223.5] yes=9,no=10,missing=10
			9:[f21100<158.5] yes=19,no=20,missing=20
				19:leaf=0.00740619702
				20:leaf=0.0657362044
			10:[f15602<93.5] yes=21,no=22,missing=22
				21:leaf=-0.0316513591
				22:leaf=0.00549047953
	2:[f12793<203.5] yes=5,no=6,missing=6
		5:[f2973<30.5] yes=11,no=12,missing=11
			11:leaf=0.0105277542
			12:leaf=0.0615252964
		6:[f29524<49.5] yes=13,no=14,missing=13
			13:[f4323<1.5] yes=23,no=24,missing=24
				23:leaf=0.00271141855
				24:leaf=-0.0333429612
			14:[f10205<28.5] yes=25,no=26,missing=26
				25:leaf=-0.0220833961
				26:leaf=0.034192279
booster[127]:
0:leaf=-0.0334359594
booster[128]:
0:[f22851<69.5] yes=1,no=2,missing=1
	1:[f25920<157] yes=3,no=4,missing=4
		3:leaf=-0.0333228596
		4:leaf=0.00304577523
	2:[f7645<176.5] yes=5,no=6,missing=6
		5:[f28086<42.5] yes=7,no=8,missing=8
			7:[f27251<114.5] yes=11,no=12,missing=12
				11:leaf=0.0487142876
				12:leaf=-0.0181031618
			8:leaf=-0.0263033547
		6:[f25516<56.5] yes=9,no=10,missing=10
			9:leaf=-0.0312115885
			10:leaf=0.0380201936
booster[129]:
0:[f7818<127.5] yes=1,no=2,missing=1
	1:[f20019<265.5] yes=3,no=4,missing=3
		3:[f20615<283.5] yes=7,no=8,missing=7
			7:[f3775<101.5] yes=15,no=16,missing=15
				15:leaf=-0.03329546
				16:leaf=-0.00524926931
			8:leaf=0.0140437875
		4:[f934<159.5] yes=9,no=10,missing=10
			9:leaf=-0.02329248
			10:leaf=0.039117679
	2:[f25554<44.5] yes=5,no=6,missing=6
		5:[f15256<63.5] yes=11,no=12,missing=12
			11:[f29543<537.5] yes=17,no=18,missing=17
				17:leaf=0.0281224102
				18:leaf=0.0544998348
			12:[f4629<196] yes=19,no=20,missing=19
				19:leaf=-0.0262494814
				20:leaf=0.0576923676
		6:[f4629<201.5] yes=13,no=14,missing=13
			13:[f5709<31.5] yes=21,no=22,missing=21
				21:leaf=0.0298498366
				22:leaf=-0.022259701
			14:leaf=0.0560179688
booster[130]:
0:[f29671<220.5] yes=1,no=2,missing=2
	1:[f32043<3.5] yes=3,no=4,missing=3
		3:[f16415<16.5] yes=7,no=8,missing=8
			7:[f3943<134.5] yes=15,no=16,missing=16
				15:leaf=-0.0291261449
				16:leaf=0.00435885461
			8:[f21908<85.5] yes=17,no=18,missing=17
				17:leaf=0.0458084531
				18:leaf=-0.0109695634
		4:[f6573<94.5] yes=9,no=10,missing=10
			9:[f23466<4.5] yes=19,no=20,missing=19
				19:leaf=0.0222479366
				20:leaf=-0.0324752741
			10:leaf=0.0500700474
	2:[f29321<146] yes=5,no=6,missing=5
		5:[f1632<231.5] yes=11,no=12,missing=11
			11:[f3153<446.5] yes=21,no=22,missing=21
				21:leaf=-0.0331254601
				22:leaf=-0.000382687023
			12:leaf=0.0043262816
		6:[f25229<82.5] yes=13,no=14,missing=14
			13:leaf=0.0174509119
			14:leaf=0.0592502616
booster[131]:
0:[f11275<22.5] yes=1,no=2,missing=1
	1:[f6262<24.5] yes=3,no=4,missing=3
		3:[f25226<22.5] yes=7,no=8,missing=7
			7:[f12268<33.5] yes=15,no=16,missing=15
				15:leaf=-0.0255982243
				16:leaf=0.0549630299
			8:[f19386<36.5] yes=17,no=18,missing=17
				17:leaf=-0.0302184746
				18:leaf=0.0369490944
		4:[f32312<31.5] yes=9,no=10,missing=10
			9:[f23044<111.5] yes=19,no=20,missing=19
				19:leaf=0.0537387244
				20:leaf=-0.0193036906
			10:[f25807<500] yes=21,no=22,missing=22
				21:leaf=-0.031848561
				22:leaf=0.0466980077
	2:[f23364<206.5] yes=5,no=6,missing=5
		5:[f17399<2.5] yes=11,no=12,missing=12
			11:leaf=0.0337927453
			12:[f32221<282.5] yes=23,no=24,missing=24
				23:leaf=-0.0321528465
				24:leaf=0.00315751811
		6:[f11996<172.5] yes=13,no=14,missing=14
			13:[f13297<87.5] yes=25,no=26,missing=25
				25:leaf=-0.00516262278
				26:leaf=0.0710425004
			14:[f8252<48.5] yes=27,no=28,missing=28
				27:leaf=-0.00252444739
				28:leaf=-0.0293739848
booster[132]:
0:[f21136<1.5] yes=1,no=2,missing=2
	1:[f31345<60.5] yes=3,no=4,missing=4
		3:[f20298<23.5] yes=7,no=8,missing=7
			7:leaf=-0.0241515227
			8:[f11982<108.5] yes=15,no=16,missing=16
				15:leaf=0.0599067733
				16:leaf=-0.00411498221
		4:[f6489<76.5] yes=9,no=10,missing=10
			9:leaf=-0.0290918276
			10:leaf=0.00632956438
	2:[f24457<10.5] yes=5,no=6,missing=5
		5:[f6262<92.5] yes=11,no=12,missing=11
			11:leaf=-0.0210306197
			12:leaf=0.0554646552
		6:[f23909<525.5] yes=13,no=14,missing=13
			13:[f10956<200] yes=17,no=18,missing=17
				17:leaf=-0.0333262645
				18:leaf=0.00650152564
			14:[f2511<51.5] yes=19,no=20,missing=20
				19:leaf=0.050369218
				20:leaf=-0.018442899
booster[133]:
0:[f30743<98.5] yes=1,no=2,missing=1
	1:[f9198<252.5] yes=3,no=4,missing=3
		3:[f11646<184.5] yes=7,no=8,missing=8
			7:[f18693<146.5] yes=13,no=14,missing=13
				13:leaf=-0.0330520086
				14:leaf=-4.45033875e-05
			8:leaf=0.00820091367
		4:leaf=0.0256403126
	2:[f19813<196.5] yes=5,no=6,missing=6
		5:[f24898<131.5] yes=9,no=10,missing=9
			9:[f10134<39.5] yes=15,no=16,missing=15
				15:leaf=-0.01770439
				16:leaf=0.0302563608
			10:[f27795<189.5] yes=17,no=18,missing=18
				17:leaf=0.0532335341
				18:leaf=-0.0290205162
		6:[f16728<52.5] yes=11,no=12,missing=12
			11:[f2474<82.5] yes=19,no=20,missing=19
				19:leaf=-0.00769221224
				20:leaf=0.0874741822
			12:[f19466<10.5] yes=21,no=22,missing=22
				21:leaf=0.0281020962
				22:leaf=-0.0196290947
booster[134]:
0:[f295<269.5] yes=1,no=2,missing=1
	1:[f21021<156.5] yes=3,no=4,missing=3
		3:[f28783<1.5] yes=7,no=8,missing=7
			7:[f7512<32] yes=13,no=14,missing=14
				13:leaf=-0.0287599768
				14:leaf=0.0326039344
			8:[f15433<158.5] yes=15,no=16,missing=15
				15:leaf=0.0515961237
				16:leaf=-0.0171851013
		4:[f27794<308.5] yes=9,no=10,missing=10
			9:[f18202<69.5] yes=17,no=18,missing=18
				17:leaf=-0.00882295705
				18:leaf=0.0295331329
			10:[f6792<86.5] yes=19,no=20,missing=20
				19:leaf=0.0601581819
				20:leaf=-0.024259638
	2:[f10901<60] yes=5,no=6,missing=6
		5:[f28973<87.5] yes=11,no=12,missing=11
			11:leaf=-0.0333163515
			12:leaf=-0.00217465241
		6:leaf=0.0463029221
booster[135]:
0:leaf=-0.0333310403
booster[136]:
0:[f22851<69.5] yes=1,no=2,missing=1
	1:[f15851<129.5] yes=3,no=4,missing=3
		3:leaf=-0.0332200266
		4:leaf=0.00302766496
	2:[f28157<22.5] yes=5,no=6,missing=6
		5:[f7645<176.5] yes=7,no=8,missing=8
			7:[f25016<147.5] yes=11,no=12,missing=11
				11:leaf=0.0525520891
				12:leaf=-0.011890376
			8:leaf=-0.0264819432
		6:[f8111<34.5] yes=9,no=10,missing=10
			9:[f13554<115] yes=13,no=14,missing=13
				13:leaf=0.0275023002
				14:leaf=-0.0321299918
			10:[f12598<321.5] yes=15,no=16,missing=16
				15:leaf=-0.0201242082
				16:leaf=0.0510285124
booster[137]:
0:[f10113<61.5] yes=1,no=2,missing=1
	1:[f947<158.5] yes=3,no=4,missing=3
		3:[f10373<114.5] yes=7,no=8,missing=7
			7:[f22747<76.5] yes=15,no=16,missing=16
				15:leaf=-0.0335784517
				16:leaf=-0.00552136172
			8:leaf=0.0221261382
		4:[f14947<85.5] yes=9,no=10,missing=10
			9:leaf=-0.0238726083
			10:leaf=0.0511556715
	2:[f25554<44.5] yes=5,no=6,missing=6
		5:[f27429<59.5] yes=11,no=12,missing=11
			11:[f10693<48.5] yes=17,no=18,missing=18
				17:leaf=0.0453495272
				18:leaf=-0.0280281436
			12:[f1533<164.5] yes=19,no=20,missing=20
				19:leaf=-0.00615871791
				20:leaf=0.0396473408
		6:[f15668<138.5] yes=13,no=14,missing=14
			13:[f31586<146.5] yes=21,no=22,missing=22
				21:leaf=0.0261419099
				22:leaf=-0.0264983606
			14:[f22371<76.5] yes=23,no=24,missing=24
				23:leaf=-0.0197943822
				24:leaf=0.0644873232
booster[138]:
0:[f29671<220.5] yes=1,no=2,missing=2
	1:[f32043<3.5] yes=3,no=4,missing=3
		3:[f16415<16.5] yes=7,no=8,missing=8
			7:[f14632<14.5] yes=15,no=16,missing=15
				15:leaf=0.00426428672
				16:leaf=-0.0289220773
			8:[f5574<150.5] yes=17,no=18,missing=18
				17:leaf=0.0457724407
				18:leaf=-0.00165761681
		4:[f6573<94.5] yes=9,no=10,missing=10
			9:[f23466<4.5] yes=19,no=20,missing=19
				19:leaf=0.0219354089
				20:leaf=-0.0323151425
			10:leaf=0.048703704
	2:[f29321<146] yes=5,no=6,missing=5
		5:[f1632<231.5] yes=11,no=12,missing=11
			11:[f3153<446.5] yes=21,no=22,missing=21
				21:leaf=-0.0330126211
				22:leaf=-0.000255870516
			12:leaf=0.00447327597
		6:[f25229<82.5] yes=13,no=14,missing=14
			13:leaf=0.0169527382
			14:leaf=0.0568963513
booster[139]:
0:[f11275<22.5] yes=1,no=2,missing=1
	1:[f25440<47.5] yes=3,no=4,missing=3
		3:[f4644<49.5] yes=7,no=8,missing=8
			7:[f4324<65.5] yes=15,no=16,missing=16
				15:leaf=-0.0317898728
				16:leaf=0.0172709022
			8:[f23179<32.5] yes=17,no=18,missing=17
				17:leaf=0.061531987
				18:leaf=-0.00364469853
		4:[f32312<30.5] yes=9,no=10,missing=10
			9:[f6945<46] yes=19,no=20,missing=20
				19:leaf=0.0510790311
				20:leaf=-0.0211336669
			10:[f25807<500] yes=21,no=22,missing=22
				21:leaf=-0.0321770832
				22:leaf=0.0457261764
	2:[f2444<136.5] yes=5,no=6,missing=5
		5:[f6946<1.5] yes=11,no=12,missing=12
			11:[f15531<24.5] yes=23,no=24,missing=24
				23:leaf=0.0602485836
				24:leaf=-0.0206521973
			12:[f9145<99.5] yes=25,no=26,missing=25
				25:leaf=-0.032043092
				26:leaf=0.0174175669
		6:[f3555<102.5] yes=13,no=14,missing=14
			13:[f10409<93.5] yes=27,no=28,missing=28
				27:leaf=-0.0138352551
				28:leaf=0.0710641965
			14:leaf=-0.025938442
booster[140]:
0:[f21136<1.5] yes=1,no=2,missing=2
	1:[f27853<133.5] yes=3,no=4,missing=4
		3:[f15379<126.5] yes=7,no=8,missing=7
			7:leaf=-0.0264764503
			8:[f28011<248.5] yes=13,no=14,missing=14
				13:leaf=0.0592266582
				14:leaf=-0.00218239054
		4:leaf=-0.0288948976
	2:[f24457<10.5] yes=5,no=6,missing=5
		5:[f6262<92.5] yes=9,no=10,missing=9
			9:leaf=-0.0208034329
			10:leaf=0.0533754528
		6:[f26788<235] yes=11,no=12,missing=11
			11:[f28903<1.5] yes=15,no=16,missing=15
				15:leaf=0.00688656094
				16:leaf=-0.0332328081
			12:[f5500<83.5] yes=17,no=18,missing=18
				17:leaf=0.0504918881
				18:leaf=-0.0182580482
booster[141]:
0:[f11859<266.5] yes=1,no=2,missing=1
	1:[f18992<244.5] yes=3,no=4,missing=3
		3:[f4737<75.5] yes=7,no=8,missing=7
			7:[f12878<155.5] yes=13,no=14,missing=13
				13:leaf=-0.033220306
				14:leaf=-0.000676848518
			8:leaf=0.0408894904
		4:leaf=0.0580582693
	2:[f5785<208.5] yes=5,no=6,missing=6
		5:[f24898<133.5] yes=9,no=10,missing=9
			9:[f1017<231.5] yes=15,no=16,missing=16
				15:leaf=0.0407380052
				16:leaf=-0.00631215004
			10:[f13576<229.5] yes=17,no=18,missing=17
				17:leaf=0.0538819991
				18:leaf=-0.029173594
		6:[f22757<7.5] yes=11,no=12,missing=11
			11:[f29773<36.5] yes=19,no=20,missing=19
				19:leaf=0.0396007746
				20:leaf=-0.0262881722
			12:[f22847<5.5] yes=21,no=22,missing=22
				21:leaf=0.0603480823
				22:leaf=-0.0158674829
booster[142]:
0:[f20296<90.5] yes=1,no=2,missing=1
	1:[f27267<253.5] yes=3,no=4,missing=3
		3:[f19455<4.5] yes=7,no=8,missing=8
			7:[f25609<93.5] yes=13,no=14,missing=14
				13:leaf=-0.000244273688
				14:leaf=0.0722052157
			8:[f25166<141] yes=15,no=16,missing=15
				15:leaf=0.0545982383
				16:leaf=-0.00725367526
		4:[f25941<70.5] yes=9,no=10,missing=10
			9:[f3215<301.5] yes=17,no=18,missing=18
				17:leaf=-0.00425196579
				18:leaf=0.0576491803
			10:[f7613<20.5] yes=19,no=20,missing=20
				19:leaf=0.0471695438
				20:leaf=-0.0261902716
	2:[f24635<241.5] yes=5,no=6,missing=6
		5:leaf=0.0490716845
		6:[f2423<166.5] yes=11,no=12,missing=11
			11:[f23272<13.5] yes=21,no=22,missing=22
				21:leaf=0.00677627046
				22:leaf=-0.0333389677
			12:leaf=0.027370831
booster[143]:
0:leaf=-0.0332299396
booster[144]:
0:[f2770<200.5] yes=1,no=2,missing=1
	1:leaf=-0.0331318714
	2:[f2290<58.5] yes=3,no=4,missing=4
		3:[f6722<58.5] yes=5,no=6,missing=6
			5:[f20779<76.5] yes=9,no=10,missing=9
				9:leaf=0.0527054667
				10:leaf=0.0069957315
			6:[f1620<81] yes=11,no=12,missing=12
				11:leaf=-0.000786614488
				12:leaf=-0.026659349
		4:[f27284<56.5] yes=7,no=8,missing=8
			7:[f11906<75.5] yes=13,no=14,missing=14
				13:leaf=0.021605406
				14:leaf=-0.03086349
			8:[f101<175.5] yes=15,no=16,missing=15
				15:leaf=-0.00195329287
				16:leaf=0.0566385463
booster[145]:
0:[f1160<296.5] yes=1,no=2,missing=1
	1:leaf=-0.0326507911
	2:[f14855<37.5] yes=3,no=4,missing=3
		3:[f15747<84.5] yes=5,no=6,missing=6
			5:[f8571<133.5] yes=9,no=10,missing=10
				9:leaf=0.0249726698
				10:leaf=-0.0130351158
			6:[f30188<121.5] yes=11,no=12,missing=12
				11:leaf=-0.00753050391
				12:leaf=0.0651948601
		4:[f4396<85.5] yes=7,no=8,missing=8
			7:[f30397<3.5] yes=13,no=14,missing=14
				13:leaf=-0.00972452201
				14:leaf=0.0490242802
			8:[f17332<109.5] yes=15,no=16,missing=16
				15:leaf=-0.00391262444
				16:leaf=0.0328439213
booster[146]:
0:[f16770<84.5] yes=1,no=2,missing=2
	1:[f11445<34.5] yes=3,no=4,missing=3
		3:[f23650<7.5] yes=7,no=8,missing=7
			7:[f293<23.5] yes=13,no=14,missing=14
				13:leaf=0.00102708326
				14:leaf=0.0415742658
			8:leaf=-0.032398209
		4:[f23630<67.5] yes=9,no=10,missing=9
			9:[f8020<22.5] yes=15,no=16,missing=15
				15:leaf=0.0426766574
				16:leaf=-0.0188213084
			10:[f24141<96] yes=17,no=18,missing=18
				17:leaf=-0.0299661439
				18:leaf=0.0308768656
	2:[f9057<184.5] yes=5,no=6,missing=6
		5:[f32382<27.5] yes=11,no=12,missing=12
			11:leaf=0.00668243458
			12:[f11721<98.5] yes=19,no=20,missing=19
				19:leaf=-0.0327696502
				20:leaf=-0.00122025225
		6:leaf=0.0375879742
booster[147]:
0:[f11275<22.5] yes=1,no=2,missing=1
	1:[f25440<47.5] yes=3,no=4,missing=3
		3:[f4644<49.5] yes=7,no=8,missing=8
			7:[f4324<65.5] yes=15,no=16,missing=16
				15:leaf=-0.0316001624
				16:leaf=0.0169656482
			8:[f23179<32.5] yes=17,no=18,missing=17
				17:leaf=0.0587793402
				18:leaf=-0.00364904501
		4:[f32312<30.5] yes=9,no=10,missing=10
			9:[f1597<115.5] yes=19,no=20,missing=19
				19:leaf=0.0500503071
				20:leaf=-0.00473732222
			10:[f25807<500] yes=21,no=22,missing=22
				21:leaf=-0.0320068859
				22:leaf=0.0439994596
	2:[f23364<206.5] yes=5,no=6,missing=5
		5:[f17399<2.5] yes=11,no=12,missing=12
			11:leaf=0.0318490267
			12:[f32221<282.5] yes=23,no=24,missing=24
				23:leaf=-0.0318551697
				24:leaf=0.0034721382
		6:[f26365<241.5] yes=13,no=14,missing=14
			13:[f9655<159.5] yes=25,no=26,missing=25
				25:leaf=-0.0188441388
				26:leaf=0.0576939359
			14:leaf=-0.027702054
booster[148]:
0:[f21136<1.5] yes=1,no=2,missing=2
	1:[f27853<133.5] yes=3,no=4,missing=4
		3:[f15379<126.5] yes=7,no=8,missing=7
			7:leaf=-0.0262344349
			8:[f7746<169.5] yes=13,no=14,missing=14
				13:leaf=0.0569896698
				14:leaf=-0.00358086918
		4:leaf=-0.0287076943
	2:[f24457<10.5] yes=5,no=6,missing=5
		5:[f6262<92.5] yes=9,no=10,missing=9
			9:leaf=-0.0205886923
			10:leaf=0.0514932051
		6:[f14240<238.5] yes=11,no=12,missing=11
			11:[f27868<127.5] yes=15,no=16,missing=15
				15:leaf=-0.0331324264
				16:leaf=0.00717202481
			12:[f637<72.5] yes=17,no=18,missing=18
				17:leaf=0.0499988683
				18:leaf=-0.018265767
booster[149]:
0:[f8198<131.5] yes=1,no=2,missing=1
	1:[f2706<118.5] yes=3,no=4,missing=3
		3:[f18693<147.5] yes=7,no=8,missing=7
			7:leaf=-0.0330013782
			8:leaf=0.00630415324
		4:leaf=0.0302872956
	2:[f23664<89.5] yes=5,no=6,missing=5
		5:[f18248<8.5] yes=9,no=10,missing=9
			9:[f9965<4.5] yes=13,no=14,missing=13
				13:leaf=-0.0312321857
				14:leaf=0.014588058
			10:[f3106<103.5] yes=15,no=16,missing=16
				15:leaf=-0.00676589599
				16:leaf=0.062054012
		6:[f28946<160.5] yes=11,no=12,missing=12
			11:[f10545<30.5] yes=17,no=18,missing=18
				17:leaf=-0.0207056757
				18:leaf=0.0520137772
			12:[f11315<110.5] yes=19,no=20,missing=20
				19:leaf=-0.0157075748
				20:leaf=0.0220023338
booster[150]:
0:[f295<269.5] yes=1,no=2,missing=1
	1:[f21055<419.5] yes=3,no=4,missing=3
		3:[f30049<12.5] yes=7,no=8,missing=7
			7:[f3783<46.5] yes=13,no=14,missing=14
				13:leaf=-0.0177979264
				14:leaf=0.0437193401
			8:[f4682<106.5] yes=15,no=16,missing=15
				15:leaf=0.0504684635
				16:leaf=-0.011284099
		4:[f274<133.5] yes=9,no=10,missing=9
			9:[f4898<33.5] yes=17,no=18,missing=18
				17:leaf=-0.00783432927
				18:leaf=0.0338121317
			10:[f11974<247.5] yes=19,no=20,missing=20
				19:leaf=-0.0234923549
				20:leaf=0.0532493219
	2:[f10901<60] yes=5,no=6,missing=6
		5:[f18846<44.5] yes=11,no=12,missing=12
			11:leaf=-0.0330698006
			12:leaf=-0.00264140312
		6:leaf=0.0433653668
booster[151]:
0:leaf=-0.0331318751
booster[152]:
0:[f22851<69.5] yes=1,no=2,missing=1
	1:[f25945<2.5] yes=3,no=4,missing=3
		3:leaf=0.00312616513
		4:leaf=-0.0330289155
	2:[f7645<176.5] yes=5,no=6,missing=6
		5:[f28086<42.5] yes=7,no=8,missing=8
			7:[f27251<114.5] yes=11,no=12,missing=12
				11:leaf=0.0431519225
				12:leaf=-0.0186508074
			8:leaf=-0.0258103181
		6:[f14136<162.5] yes=9,no=10,missing=10
			9:leaf=-0.0307292957
			10:leaf=0.0364303142
booster[153]:
0:[f7818<127.5] yes=1,no=2,missing=1
	1:[f20019<265.5] yes=3,no=4,missing=3
		3:[f6306<488.5] yes=7,no=8,missing=7
			7:[f19602<86.5] yes=15,no=16,missing=16
				15:leaf=-0.0329892971
				16:leaf=-0.0057585407
			8:leaf=0.0129842972
		4:[f934<159.5] yes=9,no=10,missing=10
			9:leaf=-0.0229020286
			10:leaf=0.0360348672
	2:[f29868<48.5] yes=5,no=6,missing=5
		5:[f17720<528.5] yes=11,no=12,missing=12
			11:[f26718<6.5] yes=17,no=18,missing=18
				17:leaf=0.0466185436
				18:leaf=0.00483804196
			12:[f15256<63.5] yes=19,no=20,missing=20
				19:leaf=0.0513753854
				20:leaf=-0.00594445551
		6:[f10895<212.5] yes=13,no=14,missing=13
			13:[f23148<66.5] yes=21,no=22,missing=21
				21:leaf=0.0268339813
				22:leaf=-0.0173634421
			14:[f10501<48.5] yes=23,no=24,missing=24
				23:leaf=0.0411626175
				24:leaf=-0.0112428488
booster[154]:
0:[f16770<84.5] yes=1,no=2,missing=2
	1:[f11445<34.5] yes=3,no=4,missing=3
		3:[f23650<7.5] yes=7,no=8,missing=7
			7:leaf=0.0280223433
			8:leaf=-0.0322547927
		4:[f23630<67.5] yes=9,no=10,missing=9
			9:[f8020<22.5] yes=13,no=14,missing=13
				13:leaf=0.0407090001
				14:leaf=-0.0183351357
			10:[f24141<96] yes=15,no=16,missing=16
				15:leaf=-0.029771952
				16:leaf=0.0300119556
	2:[f9057<184.5] yes=5,no=6,missing=6
		5:[f32382<27.5] yes=11,no=12,missing=12
			11:leaf=0.00642323541
			12:[f11721<98.5] yes=17,no=18,missing=17
				17:leaf=-0.032658156
				18:leaf=-0.0010056243
		6:leaf=0.0366715044
booster[155]:
0:[f11275<22.5] yes=1,no=2,missing=1
	1:[f25440<47.5] yes=3,no=4,missing=3
		3:[f4644<49.5] yes=7,no=8,missing=8
			7:[f4324<65.5] yes=15,no=16,missing=16
				15:leaf=-0.0314136781
				16:leaf=0.0166571438
			8:[f23179<32.5] yes=17,no=18,missing=17
				17:leaf=0.0566990338
				18:leaf=-0.00362007716
		4:[f2178<50.5] yes=9,no=10,missing=9
			9:[f26372<32] yes=19,no=20,missing=19
				19:leaf=0.0521442629
				20:leaf=-0.0176566727
			10:[f8105<34.5] yes=21,no=22,missing=22
				21:leaf=0.048895333
				22:leaf=-0.0154451467
	2:[f2444<136.5] yes=5,no=6,missing=5
		5:[f6946<1.5] yes=11,no=12,missing=12
			11:[f12391<128.5] yes=23,no=24,missing=23
				23:leaf=-0.0162332598
				24:leaf=0.0618126914
			12:[f9145<99.5] yes=25,no=26,missing=25
				25:leaf=-0.0317531899
				26:leaf=0.0166211594
		6:[f3555<102.5] yes=13,no=14,missing=14
